svm_type c_svc
kernel_type rbf
gamma 2.43842965130456E-4
nr_class 3
total_sv 1005
rho 15.211378487815093 0.3461448479893201 -16.0894082986274
label 1 0 -1
nr_sv 387 217 401
SV
90.0 90.0 -1:1.0 0:1.0 1:1.0 2:1.0 3:1.0 4:1.0 
15.313615703939886 9.477178553022256 26:1.0 27:1.0 28:1.0 29:1.0 30:1.0 31:1.0 32:1.0 0:3.0 33:1.0 34:2.0 35:1.0 36:1.0 37:2.0 38:1.0 39:1.0 40:1.0 41:2.0 42:3.0 43:1.0 11:1.0 44:2.0 45:2.0 46:1.0 47:1.0 48:1.0 49:1.0 50:1.0 4:2.0 51:1.0 52:1.0 53:1.0 54:1.0 55:1.0 56:1.0 57:1.0 58:1.0 59:1.0 60:1.0 61:1.0 62:1.0 9:1.0 63:1.0 64:1.0 8:1.0 20:1.0 65:1.0 66:1.0 67:1.0 68:1.0 69:1.0 18:1.0 6:1.0 70:1.0 71:1.0 72:1.0 73:1.0 
16.54257466564082 90.0 45:1.0 74:1.0 75:1.0 76:1.0 77:1.0 78:1.0 40:1.0 79:1.0 80:1.0 81:1.0 82:1.0 83:1.0 67:1.0 
34.81607998274681 47.5757418718765 84:1.0 64:1.0 85:2.0 86:3.0 87:2.0 88:2.0 89:4.0 90:1.0 91:1.0 40:1.0 92:1.0 93:1.0 94:1.0 95:1.0 96:1.0 97:1.0 98:1.0 6:2.0 18:1.0 99:1.0 
90.0 90.0 9:4.0 100:1.0 40:2.0 101:1.0 4:1.0 102:1.0 103:1.0 6:1.0 
41.9799244748457 90.0 104:1.0 105:1.0 50:1.0 106:1.0 107:1.0 108:1.0 109:1.0 110:1.0 111:1.0 112:1.0 113:1.0 114:1.0 115:1.0 
38.968053226627504 80.00433197812215 126:1.0 127:1.0 128:1.0 129:2.0 130:1.0 131:1.0 132:1.0 133:1.0 14:1.0 106:1.0 5:1.0 50:1.0 134:1.0 6:2.0 135:1.0 136:1.0 137:1.0 138:1.0 64:1.0 139:1.0 43:1.0 140:1.0 141:1.0 142:1.0 81:1.0 143:1.0 
13.662118424121449 25.083663324787995 144:1.0 122:2.0 145:1.0 146:1.0 40:4.0 147:1.0 148:2.0 9:1.0 149:2.0 150:1.0 151:1.0 52:3.0 152:1.0 153:1.0 29:2.0 154:1.0 155:1.0 156:1.0 157:1.0 158:1.0 159:1.0 4:3.0 160:1.0 161:1.0 162:1.0 163:1.0 71:1.0 164:1.0 165:1.0 166:1.0 167:1.0 168:1.0 169:1.0 170:1.0 171:1.0 172:1.0 
48.70371493494135 90.0 173:1.0 174:1.0 86:1.0 175:1.0 176:1.0 177:1.0 89:1.0 178:1.0 
21.816559268590183 80.07620823053628 45:1.0 182:1.0 6:1.0 183:1.0 184:1.0 185:1.0 186:1.0 187:1.0 188:1.0 40:1.0 158:1.0 43:1.0 189:1.0 33:1.0 190:1.0 191:1.0 41:1.0 192:1.0 83:1.0 193:1.0 194:1.0 4:1.0 
52.296412727216904 90.0 263:1.0 264:1.0 41:1.0 265:1.0 266:1.0 107:1.0 242:1.0 185:1.0 267:1.0 268:1.0 260:1.0 240:1.0 269:1.0 
33.214606066897346 90.0 12:1.0 270:1.0 155:1.0 271:1.0 272:1.0 114:1.0 273:1.0 43:1.0 40:1.0 274:1.0 275:1.0 276:1.0 9:1.0 277:1.0 4:1.0 
90.0 90.0 278:1.0 205:1.0 19:1.0 60:1.0 
63.83665647281821 90.0 143:1.0 293:1.0 47:1.0 43:1.0 294:1.0 205:1.0 213:1.0 227:1.0 122:1.0 295:1.0 296:1.0 297:1.0 49:1.0 62:1.0 112:1.0 
6.520022976036416 40.47473233444456 128:2.0 43:1.0 331:1.0 316:1.0 148:1.0 9:1.0 332:1.0 333:1.0 334:1.0 40:1.0 335:1.0 336:1.0 249:1.0 76:1.0 0:3.0 71:1.0 337:1.0 338:1.0 12:1.0 339:1.0 340:1.0 17:1.0 341:1.0 342:1.0 343:1.0 344:1.0 345:1.0 284:1.0 346:1.0 347:1.0 319:1.0 348:1.0 349:1.0 350:1.0 351:1.0 352:1.0 353:1.0 354:1.0 355:1.0 141:1.0 356:1.0 357:1.0 
28.48030941195418 90.0 358:1.0 359:1.0 335:1.0 316:1.0 155:1.0 360:1.0 361:1.0 362:1.0 363:1.0 364:1.0 365:1.0 366:1.0 143:1.0 4:1.0 
51.12601801047737 90.0 0:1.0 293:1.0 307:1.0 242:1.0 9:1.0 391:1.0 219:1.0 392:1.0 393:1.0 141:1.0 394:1.0 395:1.0 396:1.0 397:1.0 
90.0 90.0 403:1.0 122:1.0 141:1.0 404:1.0 
18.893335001384617 90.0 407:1.0 122:1.0 50:1.0 398:1.0 112:1.0 397:2.0 408:1.0 409:1.0 41:1.0 0:1.0 9:2.0 410:1.0 11:1.0 411:1.0 412:1.0 413:1.0 
18.72966146086995 90.0 403:1.0 50:1.0 398:1.0 40:1.0 284:1.0 408:1.0 43:1.0 76:1.0 421:1.0 341:1.0 181:1.0 71:1.0 218:1.0 41:1.0 414:1.0 422:1.0 423:1.0 49:1.0 0:1.0 293:1.0 424:1.0 4:1.0 
20.470471581558428 90.0 246:1.0 43:1.0 449:1.0 371:1.0 431:1.0 450:1.0 451:1.0 83:1.0 452:1.0 261:1.0 97:1.0 453:1.0 40:1.0 339:1.0 454:1.0 
15.540480575799469 50.184237848193966 455:1.0 456:1.0 457:1.0 40:2.0 458:1.0 128:2.0 459:1.0 371:1.0 41:1.0 425:1.0 249:1.0 33:1.0 460:1.0 461:1.0 138:1.0 0:2.0 462:1.0 463:1.0 377:2.0 141:1.0 187:1.0 148:1.0 464:1.0 465:1.0 466:1.0 450:1.0 29:1.0 374:1.0 467:1.0 468:1.0 184:1.0 11:1.0 293:1.0 469:1.0 69:1.0 
52.60962208921547 90.0 520:1.0 128:1.0 245:2.0 76:1.0 71:1.0 521:1.0 40:1.0 0:1.0 522:1.0 523:1.0 4:1.0 
17.245661098255336 73.51919666003137 106:1.0 50:2.0 523:1.0 524:1.0 525:1.0 526:1.0 75:1.0 276:1.0 527:1.0 155:1.0 323:2.0 4:2.0 249:1.0 493:1.0 528:1.0 529:1.0 83:1.0 530:1.0 531:1.0 184:1.0 532:1.0 
15.154858588252473 50.157268043762556 444:1.0 394:1.0 533:1.0 155:1.0 534:1.0 535:1.0 60:1.0 478:1.0 40:3.0 536:1.0 537:1.0 42:1.0 397:3.0 20:1.0 538:1.0 539:1.0 540:1.0 541:1.0 542:1.0 543:1.0 141:1.0 544:1.0 76:1.0 545:1.0 546:1.0 41:1.0 71:1.0 547:1.0 
17.214309599406068 36.18891180474245 17:1.0 375:1.0 500:2.0 331:2.0 5:1.0 548:1.0 40:4.0 426:1.0 50:2.0 549:1.0 238:1.0 328:2.0 41:1.0 4:3.0 237:1.0 16:1.0 550:2.0 43:1.0 302:1.0 551:1.0 112:1.0 9:1.0 552:2.0 58:1.0 544:2.0 553:1.0 71:1.0 444:1.0 394:1.0 74:1.0 191:1.0 66:1.0 554:1.0 190:1.0 483:1.0 288:1.0 555:1.0 338:1.0 52:1.0 152:1.0 556:1.0 278:1.0 
20.611908293163157 24.927518941945927 246:3.0 565:1.0 249:4.0 426:1.0 566:2.0 567:1.0 141:1.0 568:1.0 569:1.0 12:1.0 218:1.0 570:1.0 40:1.0 341:1.0 571:1.0 148:1.0 572:1.0 66:1.0 501:2.0 502:2.0 573:2.0 32:1.0 574:2.0 575:1.0 219:2.0 45:1.0 576:1.0 190:1.0 577:1.0 191:1.0 578:1.0 4:1.0 579:1.0 41:1.0 11:1.0 580:1.0 261:1.0 581:1.0 582:1.0 583:1.0 584:1.0 6:2.0 7:1.0 49:1.0 189:1.0 33:1.0 145:1.0 585:1.0 586:1.0 587:1.0 
41.67972868996993 90.0 621:1.0 622:1.0 184:1.0 616:1.0 14:1.0 623:1.0 40:1.0 17:1.0 624:1.0 500:1.0 625:1.0 626:1.0 483:1.0 
7.067913225310718 29.06551091284948 713:1.0 714:1.0 40:2.0 715:1.0 539:1.0 66:1.0 4:2.0 545:1.0 716:3.0 717:3.0 718:1.0 514:1.0 719:1.0 81:2.0 32:1.0 720:1.0 187:1.0 276:1.0 191:1.0 394:1.0 219:1.0 71:1.0 721:1.0 722:1.0 155:1.0 52:1.0 610:1.0 43:1.0 9:1.0 184:1.0 723:1.0 403:1.0 724:1.0 
90.0 90.0 433:1.0 233:1.0 755:1.0 756:1.0 
65.68611935659015 90.0 757:1.0 758:1.0 43:1.0 9:1.0 371:1.0 433:1.0 738:1.0 4:1.0 
90.0 81.30112924259637 750:1.0 4:2.0 138:1.0 61:1.0 751:1.0 9:2.0 45:2.0 726:1.0 463:1.0 603:1.0 203:1.0 155:1.0 730:1.0 593:1.0 752:1.0 753:1.0 50:1.0 
54.21140745419435 90.0 780:1.0 480:1.0 361:1.0 4:1.0 10:1.0 237:1.0 781:1.0 782:1.0 783:1.0 635:1.0 
15.127717116049878 90.0 398:2.0 50:2.0 784:1.0 400:1.0 9:1.0 184:1.0 785:2.0 786:1.0 81:1.0 323:1.0 123:1.0 41:1.0 787:1.0 175:1.0 740:1.0 190:2.0 83:1.0 293:1.0 251:1.0 40:1.0 780:1.0 788:1.0 433:1.0 4:1.0 
90.0 90.0 444:1.0 433:1.0 615:1.0 
39.41989236810815 90.0 80:1.0 4:2.0 579:1.0 141:1.0 237:2.0 184:1.0 789:1.0 19:1.0 50:1.0 790:1.0 791:1.0 
85.71242847400367 90.0 184:1.0 792:1.0 41:1.0 680:1.0 76:1.0 793:1.0 238:1.0 397:1.0 
90.0 90.0 797:1.0 4:1.0 798:1.0 
90.0 90.0 805:1.0 81:1.0 657:1.0 806:1.0 
18.503541358996436 85.66498498045218 807:1.0 808:1.0 809:2.0 302:1.0 123:1.0 189:1.0 810:1.0 483:1.0 190:1.0 811:1.0 155:1.0 812:1.0 40:1.0 813:1.0 814:1.0 83:1.0 815:1.0 157:1.0 816:1.0 817:1.0 4:1.0 
69.5419966674489 90.0 0:1.0 361:1.0 818:1.0 8:1.0 198:1.0 819:1.0 791:1.0 4:1.0 
51.08759952667358 90.0 820:1.0 146:1.0 41:1.0 76:1.0 821:1.0 822:1.0 69:1.0 397:1.0 19:1.0 823:1.0 
82.37707400433194 90.0 408:1.0 714:1.0 191:1.0 238:1.0 
41.06418346064651 90.0 827:1.0 106:1.0 50:1.0 361:2.0 828:1.0 29:1.0 829:1.0 409:1.0 830:1.0 831:1.0 18:1.0 
32.37958505783997 90.0 824:1.0 40:2.0 825:2.0 187:1.0 890:1.0 219:1.0 106:1.0 431:1.0 50:1.0 891:1.0 892:1.0 9:1.0 826:1.0 
29.06186682882556 90.0 898:1.0 9:2.0 826:1.0 631:3.0 731:1.0 899:1.0 763:1.0 900:1.0 765:1.0 901:1.0 6:1.0 
53.38719476413735 90.0 902:1.0 275:1.0 221:1.0 76:1.0 903:1.0 447:1.0 69:1.0 19:1.0 904:1.0 
23.544965759705534 90.0 128:1.0 280:1.0 316:1.0 465:1.0 200:1.0 905:1.0 155:1.0 906:1.0 907:1.0 81:1.0 10:1.0 143:1.0 0:1.0 231:1.0 908:1.0 43:1.0 66:1.0 40:1.0 9:1.0 185:1.0 610:1.0 19:1.0 20:2.0 
31.178732103958446 90.0 909:1.0 910:1.0 40:1.0 141:1.0 635:1.0 697:1.0 187:1.0 911:1.0 825:1.0 241:1.0 912:1.0 6:1.0 5:1.0 903:1.0 688:1.0 913:1.0 914:1.0 227:1.0 737:1.0 4:1.0 
43.04738021873652 90.0 326:1.0 52:1.0 920:1.0 921:2.0 122:1.0 922:1.0 465:1.0 153:1.0 923:1.0 924:1.0 41:1.0 0:1.0 925:1.0 245:1.0 69:1.0 
85.32345376358296 90.0 549:1.0 930:1.0 483:1.0 931:1.0 219:1.0 239:1.0 932:1.0 933:1.0 76:1.0 934:1.0 71:1.0 896:1.0 
49.3096343571624 90.0 173:1.0 935:1.0 207:1.0 10:1.0 165:1.0 50:1.0 66:1.0 112:1.0 19:1.0 735:1.0 
90.0 90.0 936:1.0 
59.27345104236202 90.0 937:1.0 4:2.0 938:1.0 939:1.0 940:1.0 941:1.0 
20.94316889030938 89.5574297632621 289:1.0 271:1.0 272:1.0 921:1.0 146:1.0 83:1.0 265:1.0 205:1.0 40:1.0 45:1.0 942:1.0 6:3.0 
90.0 90.0 375:1.0 943:1.0 944:1.0 
64.20045936962137 90.0 943:1.0 944:1.0 112:1.0 19:1.0 20:1.0 
90.0 90.0 945:1.0 943:1.0 944:1.0 
73.88181826388325 90.0 946:1.0 431:1.0 66:1.0 947:1.0 944:1.0 112:1.0 397:1.0 
58.43419303422556 90.0 0:1.0 293:1.0 950:1.0 951:1.0 43:1.0 17:1.0 75:1.0 71:1.0 952:1.0 50:1.0 205:1.0 953:1.0 4:1.0 
30.280219171483026 90.0 963:1.0 544:1.0 145:2.0 953:1.0 40:1.0 721:1.0 964:1.0 265:1.0 191:1.0 965:1.0 155:1.0 966:1.0 967:1.0 968:1.0 4:1.0 
18.3447769255649 70.40015706366526 969:2.0 483:1.0 635:2.0 112:1.0 49:1.0 4:1.0 50:1.0 491:1.0 970:1.0 401:1.0 971:1.0 198:1.0 972:1.0 973:1.0 41:1.0 227:1.0 444:1.0 66:1.0 6:1.0 
90.0 90.0 974:1.0 975:1.0 976:1.0 45:1.0 6:1.0 
20.136936648603207 28.651092124284325 302:1.0 980:1.0 981:1.0 375:2.0 9:2.0 47:1.0 982:1.0 983:1.0 984:2.0 40:4.0 985:1.0 4:3.0 556:1.0 499:1.0 986:1.0 987:1.0 141:1.0 79:1.0 602:2.0 81:1.0 945:1.0 148:1.0 14:2.0 988:1.0 394:1.0 989:1.0 157:2.0 60:1.0 545:1.0 122:2.0 429:1.0 139:1.0 990:1.0 20:1.0 579:1.0 991:1.0 992:1.0 896:1.0 676:1.0 993:1.0 878:1.0 280:1.0 994:1.0 995:1.0 146:1.0 143:1.0 996:1.0 997:1.0 409:1.0 792:1.0 430:1.0 998:1.0 999:1.0 
65.14079550861504 90.0 1009:1.0 1010:1.0 1011:1.0 371:1.0 433:1.0 146:1.0 205:1.0 
15.482698774860623 37.95624731396929 1012:1.0 43:1.0 40:4.0 997:1.0 409:3.0 1013:1.0 63:1.0 1014:1.0 998:1.0 4:3.0 848:1.0 992:1.0 1015:1.0 83:1.0 1016:1.0 986:2.0 71:1.0 1017:1.0 810:1.0 1018:1.0 444:1.0 1019:1.0 945:1.0 106:1.0 50:1.0 1020:1.0 22:1.0 1021:1.0 138:1.0 
22.958560027554746 88.07171835335207 1022:1.0 1014:1.0 83:2.0 444:1.0 141:2.0 45:1.0 1023:1.0 191:1.0 945:1.0 14:1.0 153:1.0 1024:1.0 114:1.0 1025:1.0 175:1.0 1026:1.0 40:1.0 1027:1.0 4:1.0 
76.93291561689325 90.0 1028:1.0 1029:1.0 934:1.0 316:1.0 450:1.0 1030:1.0 152:1.0 321:1.0 
10.37463964191258 8.813581050632786 428:2.0 1009:2.0 146:2.0 1084:1.0 685:7.0 686:7.0 107:7.0 687:7.0 1085:1.0 1086:1.0 612:1.0 433:1.0 1087:1.0 19:1.0 435:1.0 1088:1.0 350:1.0 302:1.0 181:1.0 1089:1.0 784:1.0 400:1.0 1090:1.0 423:1.0 1091:1.0 323:1.0 430:1.0 1092:1.0 372:1.0 40:1.0 700:1.0 80:1.0 239:1.0 494:1.0 1093:1.0 680:1.0 457:1.0 332:1.0 333:1.0 1094:1.0 141:1.0 482:1.0 1095:1.0 6:1.0 
54.143799113132786 90.0 1096:1.0 302:1.0 428:1.0 205:2.0 146:1.0 40:1.0 1097:1.0 
11.090538979187478 18.12769460113149 1113:1.0 88:1.0 1114:3.0 87:1.0 783:2.0 1115:2.0 1116:1.0 95:7.0 93:1.0 1011:1.0 1117:1.0 587:1.0 4:2.0 440:1.0 86:3.0 174:1.0 1118:3.0 589:3.0 1119:1.0 89:1.0 98:1.0 1120:1.0 91:1.0 1121:1.0 40:1.0 405:1.0 106:1.0 295:1.0 1122:1.0 672:1.0 122:1.0 
90.0 90.0 1009:1.0 1109:1.0 45:1.0 1123:1.0 4:1.0 
49.83584857272228 90.0 71:1.0 952:1.0 50:1.0 205:1.0 146:1.0 6:1.0 
90.0 90.0 1091:1.0 
14.38484068816907 28.2658236088943 435:1.0 1124:3.0 146:3.0 1125:1.0 397:3.0 1010:1.0 1011:1.0 33:1.0 9:3.0 361:2.0 1126:1.0 1127:1.0 215:1.0 49:1.0 50:2.0 1128:2.0 41:2.0 190:1.0 219:1.0 71:1.0 1129:1.0 19:1.0 48:1.0 122:1.0 1130:1.0 242:1.0 290:1.0 76:1.0 934:2.0 1131:1.0 1132:1.0 615:2.0 995:1.0 792:1.0 428:1.0 249:1.0 323:1.0 8:1.0 6:1.0 
90.0 90.0 451:1.0 
71.66699661135405 90.0 431:1.0 76:1.0 451:1.0 261:1.0 1208:1.0 1209:1.0 1210:1.0 
90.0 90.0 278:1.0 431:1.0 716:1.0 1211:1.0 205:1.0 
9.483618721727769 31.30979588605522 1240:1.0 1241:2.0 302:2.0 181:1.0 76:1.0 1134:1.0 328:1.0 4:3.0 11:1.0 721:1.0 83:1.0 378:2.0 1242:1.0 0:1.0 9:2.0 593:1.0 41:1.0 793:1.0 1243:1.0 1244:1.0 1245:1.0 40:2.0 53:2.0 492:1.0 420:1.0 66:1.0 397:1.0 261:1.0 237:1.0 71:1.0 1246:1.0 1247:1.0 823:1.0 482:1.0 434:1.0 218:1.0 1248:1.0 1249:1.0 
10.734207661897655 16.755069407737132 1250:1.0 155:1.0 1251:1.0 1252:1.0 4:2.0 1253:1.0 29:1.0 1254:1.0 998:1.0 1255:1.0 32:2.0 1256:3.0 1257:1.0 531:2.0 190:1.0 1258:3.0 41:2.0 52:2.0 1259:1.0 1260:1.0 350:2.0 599:1.0 1261:1.0 40:4.0 165:1.0 49:1.0 9:2.0 1262:1.0 1240:1.0 1249:1.0 1263:1.0 1241:3.0 83:1.0 145:1.0 128:1.0 46:1.0 50:1.0 1264:1.0 66:1.0 1265:1.0 17:1.0 141:1.0 219:1.0 1014:1.0 1266:1.0 0:2.0 1267:1.0 375:1.0 1239:1.0 392:1.0 1268:1.0 6:1.0 
24.38316424377878 47.07843810262622 237:2.0 9:4.0 361:1.0 1277:1.0 1278:1.0 1279:2.0 487:1.0 40:2.0 1280:1.0 1281:1.0 141:1.0 53:1.0 875:1.0 1252:1.0 1282:1.0 602:1.0 148:1.0 1283:1.0 1284:1.0 423:1.0 4:1.0 579:1.0 43:1.0 1285:1.0 1286:1.0 1287:1.0 1288:1.0 32:1.0 0:1.0 1289:1.0 1290:1.0 157:1.0 763:1.0 1291:1.0 765:1.0 
23.317381982712934 50.6516020497847 840:1.0 465:1.0 47:1.0 43:1.0 9:3.0 1350:1.0 1351:1.0 1352:1.0 371:1.0 4:3.0 398:1.0 50:1.0 0:1.0 1353:1.0 8:1.0 1166:2.0 1282:1.0 426:1.0 219:1.0 1240:1.0 218:1.0 66:1.0 328:1.0 
26.500669510852116 73.30021625356025 153:1.0 1354:1.0 1355:1.0 1252:1.0 43:1.0 52:2.0 152:1.0 12:1.0 1250:1.0 155:1.0 1356:2.0 81:1.0 143:2.0 40:1.0 1357:1.0 1358:1.0 145:1.0 1359:1.0 83:1.0 1360:1.0 
73.5180123006007 90.0 53:2.0 501:2.0 502:2.0 1241:1.0 302:1.0 1306:1.0 189:1.0 926:1.0 1366:1.0 127:1.0 157:1.0 1367:1.0 619:1.0 107:1.0 601:1.0 11:1.0 76:1.0 714:1.0 1368:1.0 
35.92153590602324 90.0 1369:1.0 318:1.0 708:1.0 205:1.0 190:1.0 1370:1.0 4:2.0 181:1.0 76:1.0 556:1.0 684:1.0 1371:1.0 1240:1.0 83:1.0 1241:1.0 328:1.0 426:1.0 1372:1.0 143:1.0 1242:1.0 
65.72856331412927 90.0 1397:1.0 414:1.0 1336:1.0 11:1.0 430:1.0 12:1.0 1398:1.0 1399:1.0 
42.53043290235737 74.77967419302266 237:1.0 1410:1.0 27:1.0 40:2.0 579:1.0 123:1.0 83:1.0 1411:1.0 0:1.0 1412:1.0 1413:1.0 25:1.0 145:1.0 896:1.0 1414:1.0 1415:1.0 302:1.0 883:1.0 43:1.0 4:1.0 
31.15945004916131 90.0 1439:1.0 43:1.0 431:1.0 1046:1.0 114:1.0 366:1.0 112:1.0 545:1.0 205:1.0 606:1.0 1440:1.0 1441:1.0 11:1.0 375:1.0 153:1.0 543:1.0 141:1.0 1042:1.0 1442:1.0 4:1.0 
20.237394123284176 47.33324352385177 934:2.0 293:1.0 143:1.0 9:1.0 1240:1.0 1443:1.0 405:1.0 4:2.0 394:2.0 1444:1.0 1427:1.0 191:1.0 802:2.0 152:1.0 1445:1.0 227:1.0 13:1.0 514:2.0 894:2.0 122:1.0 205:1.0 700:1.0 245:1.0 732:1.0 155:1.0 32:1.0 145:1.0 1446:1.0 
10.915982585640926 15.259689136296723 1447:1.0 89:9.0 91:1.0 1387:2.0 672:2.0 675:2.0 86:8.0 1448:1.0 1382:2.0 7:1.0 702:1.0 1115:3.0 1449:2.0 1450:1.0 1451:2.0 783:3.0 1376:1.0 178:1.0 1145:1.0 1114:4.0 1378:1.0 589:2.0 397:2.0 514:1.0 4:5.0 1057:1.0 98:2.0 1118:1.0 1452:1.0 1453:1.0 95:1.0 1380:1.0 87:1.0 1454:1.0 1393:1.0 1455:1.0 88:1.0 1456:1.0 680:1.0 181:1.0 
12.372425217237888 20.896923668642806 1146:1.0 147:1.0 1457:2.0 81:2.0 52:1.0 1042:1.0 3:1.0 58:2.0 695:1.0 43:1.0 4:3.0 544:2.0 318:1.0 1005:1.0 27:2.0 246:3.0 1458:1.0 282:2.0 12:1.0 218:1.0 9:2.0 1248:2.0 1459:1.0 570:2.0 40:2.0 341:1.0 8:1.0 1460:1.0 423:1.0 41:1.0 1461:1.0 649:1.0 143:1.0 501:2.0 502:2.0 871:1.0 1462:1.0 1463:1.0 374:1.0 6:1.0 685:1.0 686:1.0 107:1.0 687:1.0 293:1.0 1464:1.0 50:1.0 1465:1.0 1466:1.0 411:1.0 1467:1.0 144:1.0 490:1.0 1421:1.0 112:1.0 61:1.0 49:1.0 1468:1.0 371:1.0 
12.194793233492682 23.06524929219505 848:1.0 1469:1.0 598:1.0 810:1.0 934:1.0 896:1.0 181:1.0 4:7.0 1470:1.0 1471:1.0 112:1.0 635:1.0 316:2.0 1472:1.0 739:1.0 46:1.0 563:1.0 75:1.0 1023:2.0 114:2.0 257:1.0 1458:1.0 321:2.0 444:1.0 375:1.0 61:1.0 400:1.0 1473:1.0 1474:1.0 1475:2.0 1476:1.0 328:1.0 141:1.0 103:1.0 411:1.0 1477:1.0 22:1.0 
28.7554599237724 90.0 1480:1.0 600:1.0 1481:1.0 512:1.0 631:1.0 1482:1.0 185:1.0 1483:1.0 352:1.0 810:1.0 1484:1.0 1485:1.0 1486:1.0 0:1.0 444:1.0 4:1.0 
90.0 90.0 52:1.0 951:1.0 1487:1.0 205:1.0 40:1.0 1488:1.0 469:1.0 76:1.0 293:1.0 4:1.0 
73.89884203877588 90.0 1489:1.0 4:2.0 165:1.0 1490:1.0 
46.705055384606354 90.0 146:1.0 881:1.0 1285:2.0 1491:1.0 288:1.0 1492:1.0 40:1.0 52:1.0 951:1.0 318:1.0 1493:1.0 205:1.0 
55.90040250161066 90.0 1494:1.0 1495:1.0 302:1.0 1496:1.0 1497:1.0 0:1.0 1498:1.0 66:1.0 181:1.0 
13.738264711279728 70.13459678670593 9:1.0 361:1.0 1499:1.0 1500:1.0 219:2.0 1501:1.0 1010:1.0 40:3.0 225:1.0 1481:1.0 1502:1.0 276:1.0 873:1.0 1503:1.0 1504:1.0 1414:1.0 398:1.0 326:1.0 692:1.0 279:1.0 1505:1.0 1506:1.0 45:1.0 1177:1.0 1507:1.0 6:1.0 
28.223953598949066 90.0 225:1.0 1481:1.0 1502:1.0 4:2.0 485:1.0 9:1.0 219:1.0 1501:1.0 1010:1.0 29:1.0 730:1.0 52:1.0 1516:1.0 
9.538788678898793 14.074860927932884 148:1.0 983:4.0 1414:1.0 538:1.0 460:3.0 800:4.0 603:2.0 1517:2.0 191:2.0 9:2.0 1014:1.0 267:1.0 40:1.0 579:1.0 624:1.0 11:2.0 1518:1.0 50:1.0 610:4.0 112:1.0 4:2.0 0:1.0 605:1.0 1384:1.0 501:2.0 502:2.0 1034:1.0 52:1.0 1516:1.0 927:1.0 29:2.0 129:2.0 1285:1.0 18:3.0 83:3.0 609:1.0 260:2.0 1519:1.0 145:1.0 190:1.0 219:2.0 302:1.0 71:2.0 1520:1.0 394:1.0 231:1.0 1355:1.0 1521:1.0 1041:1.0 842:1.0 66:2.0 238:1.0 1522:1.0 1523:1.0 
12.461325845717017 28.69782214465492 225:1.0 1481:1.0 1524:1.0 86:6.0 589:1.0 1525:1.0 89:4.0 98:2.0 1526:1.0 1527:1.0 96:2.0 85:1.0 1114:2.0 625:1.0 1069:1.0 95:1.0 397:1.0 4:2.0 1528:1.0 1115:1.0 1529:1.0 12:1.0 1390:1.0 91:1.0 1530:1.0 122:1.0 1531:1.0 1172:1.0 93:1.0 29:1.0 88:1.0 855:1.0 1532:1.0 178:1.0 
4.651635551715926 4.04060649081826 1533:1.0 969:4.0 6:4.0 1534:1.0 1535:1.0 237:1.0 227:1.0 3:1.0 545:1.0 1536:1.0 83:2.0 1537:1.0 1538:1.0 1539:1.0 1540:1.0 1541:1.0 81:1.0 4:3.0 1041:2.0 33:2.0 394:3.0 67:1.0 261:1.0 11:1.0 1415:1.0 40:3.0 128:1.0 1542:1.0 79:1.0 1543:1.0 32:2.0 767:1.0 1496:1.0 238:1.0 996:1.0 564:1.0 481:1.0 684:2.0 1544:1.0 688:2.0 29:1.0 1248:1.0 258:1.0 141:1.0 692:1.0 1545:1.0 14:1.0 155:1.0 873:1.0 219:1.0 1546:1.0 1547:1.0 157:1.0 1074:1.0 43:1.0 
90.0 90.0 1548:1.0 
30.830725797928316 53.16086201537565 501:2.0 502:2.0 237:3.0 1005:1.0 579:1.0 610:1.0 545:1.0 1494:1.0 43:1.0 40:2.0 1549:1.0 76:1.0 1550:1.0 586:1.0 9:1.0 184:1.0 128:1.0 245:1.0 49:1.0 45:1.0 1551:1.0 29:2.0 1552:1.0 81:1.0 394:1.0 67:1.0 1541:1.0 268:1.0 1553:1.0 1554:1.0 1555:1.0 1556:1.0 4:1.0 
23.72638080080278 49.85440584585886 934:1.0 361:1.0 1553:1.0 1557:1.0 40:1.0 1558:1.0 1467:1.0 122:1.0 261:2.0 1559:1.0 83:2.0 1560:1.0 1561:1.0 1562:1.0 969:1.0 184:1.0 1009:1.0 433:1.0 1563:1.0 1534:1.0 4:1.0 263:1.0 1564:1.0 227:1.0 602:1.0 29:1.0 1565:1.0 219:1.0 1566:1.0 1548:1.0 6:1.0 
90.0 90.0 1348:1.0 784:1.0 1568:1.0 6:1.0 
14.6813774891624 74.69296779800138 45:1.0 1537:1.0 219:2.0 1566:2.0 9:1.0 1443:1.0 1569:1.0 394:1.0 995:1.0 146:1.0 124:1.0 1041:1.0 293:1.0 83:1.0 1570:1.0 141:1.0 1571:1.0 
90.0 90.0 1572:1.0 398:1.0 1573:1.0 
41.71560216033332 90.0 323:1.0 1574:1.0 1575:1.0 40:2.0 969:2.0 1566:1.0 45:1.0 1541:1.0 1533:1.0 
43.53939614602009 90.0 1576:1.0 95:2.0 93:1.0 1375:1.0 89:1.0 178:1.0 1577:1.0 1209:1.0 96:1.0 40:1.0 
71.46330036550947 90.0 106:1.0 1578:1.0 50:1.0 1548:1.0 323:1.0 123:1.0 
90.0 90.0 394:1.0 1579:1.0 1548:1.0 
28.577118728873128 90.0 213:1.0 9:2.0 1115:1.0 4:1.0 40:1.0 692:1.0 219:1.0 426:1.0 1005:1.0 29:1.0 433:1.0 218:1.0 1009:1.0 43:1.0 
24.14666513205704 40.24489275124928 501:1.0 502:1.0 1589:2.0 525:1.0 79:1.0 1590:1.0 81:1.0 512:1.0 1560:1.0 1467:1.0 371:1.0 1591:1.0 212:1.0 13:1.0 263:2.0 1564:1.0 114:1.0 408:1.0 602:1.0 4:2.0 257:1.0 49:1.0 40:2.0 1592:1.0 734:1.0 1354:1.0 1581:1.0 635:1.0 33:1.0 375:1.0 75:1.0 0:1.0 1593:1.0 44:1.0 586:2.0 763:1.0 900:1.0 765:1.0 1594:1.0 205:1.0 1595:1.0 1408:1.0 1596:1.0 124:1.0 1597:1.0 6:1.0 
19.38803094459661 56.19115706705884 1598:1.0 50:1.0 969:2.0 1599:1.0 86:2.0 178:1.0 1600:1.0 397:3.0 4:1.0 1062:1.0 1601:1.0 1602:1.0 1114:1.0 625:1.0 498:1.0 191:1.0 1581:1.0 263:1.0 1564:1.0 32:1.0 94:1.0 95:1.0 96:1.0 692:1.0 1530:1.0 98:1.0 1603:1.0 
30.396364086055453 50.574132615323954 237:1.0 145:1.0 942:1.0 1115:1.0 4:2.0 184:1.0 1538:1.0 1539:1.0 
9.79658086462656 7.167693733674933 33:1.0 635:1.0 263:1.0 218:1.0 293:1.0 122:1.0 397:1.0 4:1.0 75:1.0 0:1.0 1593:1.0 6:18.0 685:2.0 686:2.0 107:2.0 687:2.0 1604:1.0 1605:1.0 205:1.0 1606:1.0 321:1.0 246:1.0 1607:1.0 
44.61638307725659 59.61169028389178 237:2.0 16:1.0 436:1.0 41:1.0 1167:1.0 606:1.0 371:1.0 1608:1.0 1050:1.0 1609:1.0 4:3.0 1531:1.0 394:1.0 1009:1.0 36:1.0 426:1.0 9:1.0 307:1.0 433:1.0 1610:1.0 1072:1.0 
19.140797039089147 55.3371766792917 1188:1.0 184:1.0 1611:1.0 1612:1.0 6:6.0 
29.151997581932278 85.27497960761815 157:1.0 124:1.0 80:1.0 40:1.0 184:1.0 1538:1.0 1613:1.0 66:1.0 1614:1.0 969:1.0 1615:1.0 4:1.0 1533:1.0 1589:1.0 1616:1.0 397:2.0 784:1.0 
72.921098045391 90.0 184:1.0 1583:1.0 80:1.0 40:1.0 996:1.0 969:1.0 276:1.0 1617:1.0 564:1.0 1618:1.0 
24.083287489893518 90.0 969:1.0 675:1.0 246:1.0 439:1.0 145:1.0 1619:1.0 1620:1.0 6:3.0 
19.33053856256284 48.54607866517287 1042:1.0 9:1.0 274:1.0 1621:1.0 145:2.0 146:1.0 83:2.0 1622:1.0 1623:1.0 40:2.0 45:1.0 1624:1.0 148:1.0 481:1.0 1504:1.0 408:1.0 1625:1.0 219:1.0 155:1.0 1626:1.0 1627:1.0 1628:1.0 225:1.0 1481:1.0 1502:1.0 276:1.0 1571:1.0 262:1.0 1629:1.0 13:1.0 1128:1.0 514:1.0 894:1.0 371:1.0 1630:1.0 4:1.0 
15.286836128961706 36.120803060530996 1631:1.0 40:1.0 17:1.0 1632:1.0 1633:1.0 219:4.0 1010:2.0 157:1.0 1634:1.0 0:1.0 190:1.0 41:2.0 982:2.0 985:1.0 984:1.0 123:1.0 130:1.0 83:1.0 1398:1.0 1635:1.0 823:1.0 927:1.0 9:1.0 124:1.0 556:1.0 18:1.0 1636:1.0 4:3.0 98:1.0 587:1.0 
90.0 90.0 543:1.0 205:1.0 
6.276363680661961 21.77886181771186 394:2.0 1538:2.0 357:1.0 43:1.0 1655:1.0 1656:1.0 1657:1.0 155:1.0 219:2.0 1647:2.0 40:3.0 112:1.0 1653:1.0 32:1.0 1658:1.0 318:1.0 361:1.0 577:1.0 24:1.0 1659:1.0 0:1.0 1660:1.0 1661:1.0 650:1.0 1662:1.0 986:1.0 71:1.0 392:1.0 1663:1.0 1520:1.0 
9.875850891651655 2.5631131583048257 1664:1.0 86:16.0 98:8.0 1379:2.0 89:19.0 1171:5.0 1393:1.0 1665:1.0 589:7.0 619:2.0 352:1.0 1666:1.0 93:1.0 1667:1.0 1119:1.0 4:4.0 1394:1.0 1668:3.0 675:2.0 1669:1.0 1670:3.0 783:4.0 1376:4.0 178:13.0 1671:2.0 246:1.0 1530:2.0 1672:1.0 1117:1.0 95:9.0 587:1.0 29:1.0 1673:1.0 96:1.0 1373:3.0 685:1.0 686:1.0 107:1.0 687:1.0 1674:1.0 129:1.0 1382:1.0 261:2.0 1675:1.0 1408:1.0 1145:1.0 1114:8.0 361:1.0 1374:1.0 1676:1.0 1115:3.0 176:1.0 1677:1.0 40:1.0 1678:2.0 1679:2.0 1680:2.0 1681:1.0 1430:1.0 679:1.0 87:3.0 1381:1.0 765:1.0 706:2.0 1378:1.0 1057:1.0 239:1.0 1385:1.0 1682:1.0 1683:1.0 625:1.0 141:1.0 1435:1.0 1602:1.0 1375:2.0 586:1.0 1684:1.0 
24.010410905869108 77.54527979764467 1685:1.0 352:1.0 1028:1.0 1029:1.0 66:1.0 1686:1.0 1199:1.0 145:1.0 999:1.0 1687:1.0 242:1.0 187:1.0 4:2.0 394:1.0 848:1.0 43:1.0 426:1.0 444:1.0 1481:1.0 1688:1.0 323:1.0 969:1.0 40:1.0 1689:1.0 50:1.0 1690:1.0 
26.58338039811575 88.11362041368173 1691:3.0 1692:2.0 1348:1.0 482:1.0 715:1.0 9:1.0 4:2.0 1693:1.0 50:1.0 1694:1.0 1695:1.0 
14.48237005499848 25.600833930100848 46:1.0 47:1.0 1696:1.0 0:2.0 71:2.0 680:1.0 76:1.0 1697:1.0 1698:1.0 692:1.0 684:2.0 41:1.0 143:1.0 279:1.0 444:1.0 40:4.0 331:1.0 55:1.0 1699:1.0 191:1.0 1700:1.0 392:1.0 555:1.0 426:1.0 1507:1.0 27:1.0 1701:1.0 43:2.0 227:2.0 1702:1.0 371:1.0 1703:1.0 83:2.0 1690:1.0 1704:1.0 676:1.0 12:2.0 1705:1.0 986:1.0 1706:1.0 141:1.0 1707:1.0 148:1.0 153:1.0 66:1.0 394:1.0 213:1.0 1248:1.0 32:1.0 1708:1.0 1709:1.0 
14.491028316279005 24.594394889988727 52:1.0 152:1.0 411:1.0 1005:1.0 1710:1.0 1711:1.0 1016:1.0 50:1.0 0:2.0 1023:1.0 4:3.0 1712:1.0 1713:1.0 43:2.0 145:1.0 1180:1.0 83:1.0 272:1.0 1714:1.0 810:1.0 40:5.0 1715:1.0 123:1.0 189:2.0 1716:1.0 1717:1.0 155:1.0 1718:1.0 1719:1.0 1234:1.0 1720:1.0 998:1.0 1151:1.0 544:1.0 1031:1.0 175:1.0 143:1.0 9:1.0 284:1.0 246:1.0 11:1.0 205:1.0 1070:1.0 426:1.0 1:1.0 847:1.0 593:1.0 41:1.0 1075:1.0 328:1.0 
82.69247091106065 90.0 848:1.0 43:1.0 626:1.0 258:1.0 531:1.0 1721:1.0 4:1.0 
86.68270839658092 90.0 175:1.0 1722:1.0 1723:1.0 371:1.0 1180:1.0 6:1.0 
28.198334288749248 82.25943163601573 1711:1.0 1016:1.0 1503:1.0 545:1.0 123:1.0 9:2.0 1738:1.0 587:1.0 586:1.0 1739:1.0 218:1.0 83:1.0 1180:1.0 483:1.0 75:1.0 579:1.0 1740:1.0 155:1.0 394:1.0 245:1.0 428:1.0 279:1.0 11:1.0 189:1.0 1023:1.0 1734:1.0 190:1.0 4:1.0 
11.768938105810667 4.375554637279611 1430:1.0 95:10.0 98:9.0 1530:1.0 86:8.0 1741:1.0 89:11.0 1732:2.0 619:1.0 1713:2.0 440:1.0 934:1.0 1075:1.0 40:2.0 1602:1.0 589:5.0 243:1.0 1742:1.0 93:4.0 1373:1.0 1120:2.0 1678:2.0 1743:1.0 1394:3.0 1376:3.0 1393:1.0 264:1.0 1744:1.0 75:2.0 1745:1.0 1114:1.0 295:1.0 178:2.0 92:1.0 4:2.0 1382:1.0 286:1.0 430:2.0 17:1.0 0:1.0 88:1.0 1746:1.0 1747:1.0 675:1.0 1748:1.0 91:1.0 672:1.0 1525:1.0 1386:1.0 1749:1.0 587:1.0 1750:1.0 1449:1.0 
37.5527187824614 74.04641568528055 249:1.0 191:1.0 302:1.0 1751:1.0 160:1.0 1752:1.0 12:1.0 1753:1.0 145:1.0 1023:1.0 4:3.0 33:1.0 1710:1.0 868:1.0 32:1.0 615:1.0 1754:1.0 141:1.0 1755:1.0 1724:1.0 50:1.0 1293:1.0 83:1.0 1756:1.0 328:1.0 41:1.0 
12.576058282922757 19.377670990163672 1381:2.0 86:7.0 178:2.0 170:1.0 1376:2.0 295:2.0 934:1.0 1745:1.0 1114:1.0 95:2.0 1394:1.0 589:4.0 1393:2.0 1757:1.0 89:3.0 93:3.0 92:1.0 1666:1.0 1758:1.0 96:1.0 1375:1.0 98:1.0 1759:1.0 1075:1.0 1172:1.0 
90.0 90.0 189:1.0 1023:1.0 1766:1.0 4:1.0 
16.74171707003761 41.490486018940224 848:1.0 1075:1.0 218:1.0 350:1.0 421:1.0 0:1.0 1776:1.0 1777:1.0 1778:1.0 86:4.0 165:1.0 1779:1.0 89:3.0 93:1.0 1780:1.0 95:1.0 178:1.0 783:2.0 1114:2.0 1115:2.0 1732:1.0 1386:1.0 1750:1.0 98:1.0 1449:1.0 589:1.0 1380:1.0 87:1.0 
90.0 90.0 12:1.0 1075:1.0 15:1.0 212:1.0 148:1.0 1782:1.0 218:1.0 
71.86852275256695 90.0 225:1.0 1786:1.0 1481:1.0 1502:1.0 276:1.0 323:1.0 969:1.0 4:1.0 
16.120046406503 41.78975401699838 1787:1.0 444:1.0 1803:1.0 974:1.0 1586:1.0 50:1.0 1578:1.0 40:5.0 1424:1.0 9:1.0 1804:1.0 1805:1.0 1806:1.0 896:1.0 392:1.0 1807:1.0 1808:1.0 1147:1.0 3:1.0 4:1.0 123:1.0 1585:1.0 1809:1.0 12:1.0 1810:1.0 46:1.0 55:1.0 1811:1.0 1812:1.0 0:1.0 1352:1.0 544:1.0 265:1.0 6:1.0 
84.82807872154558 90.0 1814:1.0 894:1.0 398:1.0 50:1.0 184:1.0 1548:1.0 
8.718151359231644 2.6772327906005735 45:2.0 80:1.0 184:2.0 1815:1.0 40:2.0 969:3.0 238:1.0 29:1.0 1327:1.0 1241:1.0 302:1.0 1306:1.0 75:1.0 705:1.0 81:2.0 1816:1.0 1240:1.0 261:1.0 1817:1.0 4:4.0 1818:1.0 0:1.0 9:1.0 245:1.0 55:1.0 1819:1.0 141:2.0 66:2.0 1369:1.0 405:1.0 1820:1.0 43:1.0 490:2.0 288:1.0 375:1.0 1578:1.0 143:1.0 16:1.0 227:1.0 444:1.0 1456:1.0 1821:1.0 225:1.0 1538:1.0 622:1.0 411:1.0 191:1.0 1822:1.0 1823:1.0 1824:1.0 148:1.0 1457:1.0 426:1.0 33:1.0 50:1.0 1825:1.0 1826:1.0 1827:1.0 
24.01368781282021 90.0 800:1.0 487:1.0 29:1.0 1828:1.0 1829:1.0 219:1.0 157:1.0 1830:1.0 1831:1.0 1832:1.0 1833:1.0 397:1.0 41:1.0 189:1.0 377:1.0 602:1.0 40:1.0 1804:1.0 81:1.0 67:1.0 45:1.0 1834:1.0 
43.557806513473345 90.0 1835:1.0 81:1.0 698:1.0 501:2.0 502:2.0 1836:1.0 1837:1.0 
26.451002329783456 90.0 80:1.0 1838:1.0 1081:1.0 6:1.0 685:1.0 686:1.0 107:1.0 687:1.0 996:1.0 124:1.0 1571:1.0 635:1.0 32:1.0 602:1.0 1839:1.0 
21.39221051232678 64.20283681218447 1829:1.0 1840:1.0 1269:1.0 1601:1.0 17:1.0 1841:1.0 251:1.0 685:2.0 686:2.0 107:2.0 687:2.0 1842:1.0 297:1.0 191:1.0 482:1.0 146:1.0 338:1.0 706:1.0 4:1.0 446:1.0 6:1.0 
31.652202597882965 54.46221000367365 29:1.0 326:1.0 74:1.0 688:1.0 11:1.0 986:1.0 67:1.0 71:2.0 1851:1.0 191:1.0 734:1.0 141:1.0 143:1.0 184:1.0 1660:1.0 40:2.0 1852:1.0 261:1.0 1853:1.0 81:1.0 219:1.0 902:1.0 43:2.0 50:2.0 714:1.0 1854:1.0 397:1.0 1369:1.0 490:1.0 1855:1.0 423:1.0 558:1.0 1856:1.0 83:1.0 16:1.0 106:1.0 1857:1.0 
90.0 90.0 1858:1.0 1859:1.0 53:1.0 331:1.0 
65.64432594745622 90.0 1863:2.0 1864:1.0 1865:1.0 1866:1.0 6:1.0 
57.33251973332857 90.0 1535:1.0 81:1.0 237:1.0 457:1.0 40:1.0 17:1.0 1867:1.0 375:1.0 3:1.0 397:1.0 18:1.0 
59.28680233657355 90.0 1868:1.0 1451:1.0 1676:1.0 1869:1.0 1870:1.0 1871:1.0 1872:1.0 1873:1.0 6:1.0 
59.305264119703416 90.0 1874:1.0 1875:1.0 1876:1.0 1877:1.0 4:1.0 1878:1.0 1879:1.0 1880:1.0 98:1.0 
27.262283866882385 71.6798192489624 1266:1.0 81:1.0 1881:1.0 1188:2.0 1536:1.0 4:2.0 29:1.0 1882:1.0 1883:1.0 570:1.0 375:1.0 444:1.0 66:1.0 684:1.0 43:1.0 1884:1.0 1885:1.0 1886:1.0 1620:1.0 457:1.0 1115:1.0 6:1.0 
31.48072532725603 90.0 80:1.0 141:1.0 1538:1.0 4:2.0 6:1.0 
65.68519979949828 90.0 1887:1.0 45:1.0 1618:1.0 545:1.0 9:1.0 1858:1.0 570:1.0 6:1.0 
14.825121321470561 27.84593744291143 1888:1.0 1082:1.0 986:1.0 19:4.0 685:3.0 686:3.0 107:3.0 687:3.0 361:1.0 4:3.0 534:1.0 688:1.0 1889:3.0 253:1.0 1890:1.0 823:1.0 1891:1.0 189:1.0 50:1.0 1892:1.0 
16.56439814756463 17.95349169934288 237:1.0 1005:1.0 155:1.0 1354:1.0 444:1.0 1893:1.0 60:1.0 817:1.0 0:2.0 888:1.0 1372:1.0 1894:1.0 20:1.0 32:2.0 1895:1.0 40:4.0 1896:1.0 1321:1.0 83:1.0 1897:2.0 507:1.0 896:1.0 1898:1.0 58:2.0 1899:1.0 4:3.0 706:1.0 49:2.0 1369:1.0 986:1.0 1900:1.0 1901:2.0 1902:1.0 165:2.0 21:1.0 114:1.0 125:1.0 1266:1.0 1903:1.0 849:1.0 190:1.0 219:1.0 1904:1.0 75:1.0 50:1.0 1350:1.0 191:2.0 544:1.0 1905:1.0 1906:1.0 1907:1.0 998:1.0 1908:1.0 1041:1.0 
36.922638414045494 90.0 1909:1.0 394:1.0 1897:2.0 218:1.0 40:1.0 411:1.0 205:1.0 1910:1.0 58:1.0 1911:1.0 50:1.0 1760:1.0 397:1.0 
13.744704971665561 27.015049353798293 1945:1.0 1581:1.0 1516:3.0 9:1.0 1014:1.0 238:1.0 810:1.0 483:1.0 50:2.0 184:2.0 1946:3.0 1947:1.0 397:1.0 75:1.0 1884:1.0 1948:1.0 155:2.0 52:3.0 37:1.0 66:2.0 1949:1.0 83:1.0 124:1.0 219:1.0 13:1.0 423:1.0 1446:1.0 49:1.0 4:3.0 969:1.0 227:1.0 1950:1.0 190:1.0 112:1.0 258:1.0 1951:1.0 275:1.0 286:1.0 1041:1.0 
27.521597229635745 90.0 942:1.0 79:1.0 1541:1.0 40:1.0 1958:1.0 83:1.0 1959:1.0 261:1.0 969:1.0 4:2.0 6:1.0 
16.899830963279967 36.80087599090369 1967:1.0 75:2.0 1968:1.0 83:2.0 1969:1.0 81:2.0 123:1.0 40:1.0 1970:1.0 52:1.0 323:1.0 1971:1.0 11:2.0 237:3.0 1972:1.0 4:3.0 1973:1.0 1974:1.0 1975:2.0 1285:1.0 1578:1.0 1265:1.0 145:1.0 1:1.0 225:1.0 411:1.0 974:1.0 944:1.0 545:1.0 106:1.0 50:1.0 1976:1.0 
20.72538857542112 69.53925333492846 1982:1.0 284:1.0 1983:1.0 1334:1.0 50:2.0 1432:1.0 1984:1.0 1974:1.0 1975:1.0 40:1.0 106:1.0 203:2.0 1985:1.0 1986:1.0 81:2.0 136:1.0 1979:1.0 1911:2.0 341:1.0 0:1.0 71:1.0 1900:1.0 321:1.0 6:1.0 
58.06991061236127 90.0 212:1.0 148:1.0 1987:1.0 538:1.0 840:1.0 641:1.0 122:1.0 227:1.0 321:1.0 4:1.0 
29.089666456743384 90.0 1995:1.0 11:1.0 32:1.0 1754:1.0 371:1.0 40:1.0 71:1.0 952:1.0 219:1.0 984:1.0 544:2.0 265:1.0 45:1.0 1996:1.0 0:1.0 1997:1.0 141:1.0 284:1.0 4:1.0 
20.711077859792947 45.10020146730088 431:1.0 152:2.0 9:2.0 1998:1.0 1999:1.0 155:1.0 2000:1.0 1928:1.0 1929:1.0 112:1.0 12:1.0 218:1.0 556:1.0 328:2.0 40:2.0 2001:1.0 50:1.0 203:1.0 392:1.0 2002:1.0 2003:1.0 148:1.0 122:1.0 58:1.0 510:1.0 2004:1.0 1609:1.0 41:1.0 0:1.0 680:1.0 793:1.0 2005:1.0 43:1.0 181:1.0 1813:1.0 6:1.0 
52.67862969104182 90.0 52:1.0 152:1.0 1192:1.0 112:1.0 203:2.0 43:1.0 50:1.0 2006:1.0 207:1.0 1977:1.0 341:1.0 0:1.0 71:1.0 1975:1.0 
7.432547654328907 40.83125796756691 2008:2.0 1744:2.0 1548:1.0 40:3.0 544:1.0 1563:1.0 191:1.0 1015:3.0 2009:1.0 2010:1.0 1276:1.0 212:1.0 1962:1.0 2011:1.0 4:1.0 1569:1.0 2012:1.0 2013:1.0 397:1.0 
29.74295850101493 90.0 680:1.0 227:1.0 1722:1.0 5:1.0 2014:1.0 169:1.0 2015:1.0 927:1.0 293:1.0 1295:1.0 53:1.0 785:1.0 501:2.0 502:2.0 2016:1.0 44:1.0 2017:1.0 2018:1.0 43:1.0 
11.27158357167037 15.556277573598706 2019:1.0 53:2.0 81:3.0 2016:2.0 227:4.0 1102:1.0 2020:1.0 141:1.0 79:1.0 2021:1.0 2022:1.0 1744:1.0 29:4.0 2023:1.0 1227:1.0 83:4.0 1415:1.0 2024:1.0 323:1.0 1575:1.0 1228:1.0 4:1.0 2025:1.0 1560:1.0 1655:1.0 2026:1.0 148:1.0 293:1.0 27:1.0 1797:2.0 1720:1.0 40:3.0 184:3.0 1722:1.0 2027:1.0 145:1.0 190:1.0 885:1.0 792:1.0 426:2.0 1687:1.0 2028:1.0 375:1.0 715:1.0 2029:1.0 606:1.0 1295:1.0 392:1.0 2030:1.0 2031:1.0 66:1.0 1015:1.0 1034:1.0 2032:1.0 802:1.0 2033:1.0 557:1.0 2008:1.0 2034:1.0 544:1.0 378:1.0 1494:1.0 43:1.0 577:1.0 253:1.0 601:1.0 586:2.0 2035:1.0 587:1.0 
90.0 90.0 2008:1.0 1744:1.0 1548:1.0 6:1.0 
59.30913125126197 90.0 2036:1.0 1575:2.0 40:1.0 219:1.0 1411:1.0 4:1.0 
90.0 90.0 785:1.0 2037:1.0 4:1.0 
21.856226962071947 78.28970975861864 500:2.0 14:2.0 323:1.0 1411:1.0 1575:1.0 261:1.0 79:1.0 2038:1.0 2039:1.0 52:1.0 1190:1.0 734:1.0 2040:1.0 157:1.0 1041:1.0 2036:1.0 408:1.0 697:1.0 2041:1.0 
57.37394804800331 90.0 1548:2.0 81:1.0 394:1.0 6:1.0 
40.0348149001838 90.0 148:1.0 67:1.0 238:1.0 802:1.0 710:1.0 323:1.0 83:1.0 1415:1.0 1015:1.0 2009:1.0 11:1.0 544:1.0 50:1.0 2042:1.0 2043:1.0 6:1.0 
12.207034584875082 24.24872312667361 396:1.0 11:1.0 2050:1.0 2051:1.0 1100:1.0 434:2.0 444:2.0 63:1.0 40:2.0 2052:1.0 191:2.0 219:3.0 2045:3.0 33:1.0 9:2.0 1266:2.0 2053:1.0 71:1.0 1199:1.0 2054:1.0 2055:1.0 356:1.0 141:1.0 4:2.0 67:1.0 986:1.0 66:1.0 1654:1.0 277:1.0 61:1.0 79:1.0 998:2.0 81:1.0 1353:2.0 2056:1.0 76:1.0 426:1.0 148:1.0 
25.66430911773775 90.0 500:1.0 423:1.0 11:1.0 1135:1.0 0:1.0 9:1.0 2040:1.0 1690:1.0 341:1.0 237:1.0 389:1.0 2089:1.0 81:1.0 2090:1.0 114:1.0 796:1.0 219:1.0 1647:1.0 4:2.0 663:1.0 483:1.0 2091:1.0 
46.50093701864013 90.0 2092:1.0 40:1.0 128:1.0 245:1.0 279:1.0 1414:1.0 155:1.0 1306:1.0 323:1.0 969:1.0 396:1.0 18:1.0 
25.19992171958064 87.8044091602151 2093:1.0 2094:1.0 1784:1.0 205:1.0 190:1.0 2095:1.0 40:1.0 776:1.0 982:2.0 1785:1.0 83:1.0 361:1.0 983:1.0 2096:1.0 6:2.0 225:1.0 1481:1.0 1502:1.0 276:1.0 323:1.0 969:1.0 
36.598211693707505 90.0 333:1.0 6:1.0 398:1.0 408:1.0 2099:1.0 143:1.0 127:1.0 53:1.0 1243:1.0 372:1.0 2100:1.0 4:1.0 1521:1.0 692:1.0 219:1.0 1522:1.0 
90.0 90.0 262:1.0 141:1.0 323:1.0 969:1.0 1606:1.0 4:1.0 
17.326458491393346 52.02417284764999 1306:1.0 2126:1.0 190:1.0 2127:2.0 1953:1.0 688:1.0 1041:1.0 40:1.0 152:1.0 122:1.0 181:1.0 1433:1.0 927:1.0 392:1.0 2128:1.0 83:1.0 2129:1.0 18:4.0 2130:1.0 860:1.0 2131:1.0 1046:1.0 
89.45973302020924 90.0 555:1.0 141:1.0 394:1.0 817:1.0 4:1.0 
18.082689643938064 28.391652310075603 431:2.0 1503:1.0 2132:1.0 0:1.0 71:1.0 219:2.0 165:1.0 1028:1.0 1029:1.0 40:5.0 12:1.0 2133:2.0 37:2.0 2134:1.0 51:1.0 2135:1.0 50:1.0 1785:1.0 2136:1.0 184:1.0 993:1.0 4:2.0 341:1.0 579:1.0 2137:1.0 364:1.0 361:1.0 1647:1.0 32:1.0 66:1.0 2138:1.0 29:1.0 577:1.0 2139:1.0 2140:1.0 423:1.0 564:1.0 2141:1.0 181:1.0 112:1.0 826:1.0 8:1.0 
21.173650287053512 90.0 543:1.0 205:1.0 6:4.0 
17.568782365830533 47.12238198379876 1408:1.0 279:1.0 849:1.0 1041:2.0 1229:1.0 74:1.0 4:3.0 2145:1.0 41:1.0 123:1.0 276:1.0 288:1.0 114:1.0 361:1.0 933:1.0 11:1.0 32:1.0 0:1.0 33:1.0 394:1.0 2146:1.0 2147:1.0 43:1.0 225:1.0 1481:1.0 1502:1.0 323:1.0 969:1.0 1239:1.0 817:1.0 29:1.0 284:1.0 185:1.0 405:1.0 1414:1.0 1283:1.0 83:1.0 1785:1.0 
39.650242917726416 90.0 1145:1.0 1114:1.0 675:1.0 86:1.0 2148:1.0 1670:1.0 95:1.0 589:1.0 328:1.0 6:1.0 52:1.0 152:1.0 960:1.0 205:1.0 
16.245293939665927 53.89455713957697 2149:1.0 2150:1.0 2151:1.0 500:1.0 145:1.0 45:1.0 4:3.0 106:1.0 50:1.0 79:1.0 1498:1.0 2152:1.0 676:1.0 12:1.0 184:1.0 1105:1.0 1106:1.0 2153:1.0 1201:1.0 52:1.0 2154:1.0 76:1.0 426:1.0 293:1.0 2155:1.0 356:1.0 81:1.0 143:1.0 
12.960464959515386 27.374159097829242 2156:1.0 2157:1.0 41:1.0 44:2.0 2158:1.0 2159:1.0 6:8.0 1502:1.0 
25.248644488940254 16.310864342857684 88:1.0 89:9.0 625:1.0 2160:1.0 2161:1.0 4:3.0 1741:1.0 2162:2.0 1114:2.0 178:1.0 589:2.0 1525:1.0 98:2.0 25:1.0 261:1.0 1667:1.0 2163:1.0 93:2.0 1212:1.0 96:1.0 175:1.0 1477:1.0 1057:1.0 2164:1.0 
58.90275162633336 90.0 655:1.0 45:1.0 83:1.0 1316:1.0 4:1.0 2149:1.0 2150:1.0 
21.25882332412736 52.72242913999367 2165:1.0 2150:1.0 2166:1.0 40:4.0 500:1.0 45:1.0 1828:1.0 714:1.0 2167:1.0 43:1.0 318:1.0 545:1.0 356:1.0 487:1.0 997:1.0 11:1.0 2168:1.0 2169:1.0 430:1.0 934:1.0 998:1.0 66:2.0 2170:1.0 17:1.0 
57.47871711751077 90.0 1548:1.0 141:1.0 79:1.0 1547:1.0 83:1.0 2172:1.0 4:1.0 
23.12727433310539 71.77173272901305 1558:1.0 227:1.0 1613:1.0 155:1.0 394:1.0 2200:1.0 2201:1.0 81:2.0 184:1.0 219:1.0 1566:1.0 83:1.0 2202:1.0 2203:1.0 1539:1.0 148:1.0 969:1.0 2204:1.0 2205:1.0 545:1.0 79:1.0 1606:1.0 817:1.0 4:1.0 
21.758672850385423 42.53047422134962 1797:3.0 350:1.0 219:1.0 1566:1.0 76:1.0 61:1.0 2157:3.0 41:2.0 423:1.0 40:2.0 0:1.0 9:2.0 11:1.0 250:1.0 2206:1.0 2207:1.0 2208:1.0 83:1.0 2209:1.0 191:1.0 2210:1.0 375:1.0 2211:1.0 6:1.0 
13.705816160745139 38.353814507612135 795:1.0 302:1.0 430:1.0 2217:1.0 155:1.0 219:2.0 2218:1.0 40:2.0 75:1.0 375:2.0 205:1.0 896:1.0 1320:1.0 1716:2.0 4:2.0 165:1.0 237:1.0 2219:1.0 66:1.0 680:1.0 41:1.0 2220:1.0 11:1.0 141:2.0 122:1.0 1474:1.0 1687:2.0 601:1.0 579:1.0 2221:1.0 423:1.0 188:1.0 242:1.0 82:1.0 1961:1.0 2222:1.0 1424:1.0 
9.878160642328444 13.631603832020389 1380:2.0 86:3.0 87:2.0 258:1.0 2245:1.0 2246:1.0 1114:6.0 2247:1.0 89:6.0 93:3.0 2248:1.0 88:2.0 680:1.0 2249:1.0 334:1.0 350:1.0 1745:1.0 295:1.0 95:4.0 178:2.0 1668:1.0 98:1.0 430:1.0 1171:1.0 4:3.0 2250:1.0 589:2.0 2251:1.0 2252:1.0 650:1.0 2253:1.0 2254:1.0 2255:1.0 2256:1.0 700:1.0 2257:1.0 1172:1.0 783:1.0 2258:2.0 1527:1.0 96:1.0 2259:1.0 1576:1.0 1382:1.0 405:1.0 1375:1.0 2260:1.0 
29.606481237909183 90.0 730:1.0 219:1.0 43:1.0 319:1.0 2045:1.0 2276:1.0 261:1.0 2277:1.0 144:1.0 40:1.0 1278:1.0 2278:1.0 397:1.0 302:1.0 1111:1.0 611:1.0 408:1.0 33:1.0 1446:1.0 29:1.0 848:1.0 2279:1.0 11:1.0 1023:1.0 2280:1.0 4:1.0 
38.829445080112684 90.0 2311:1.0 2312:1.0 2313:1.0 205:1.0 6:1.0 986:1.0 2314:1.0 2315:1.0 394:1.0 64:1.0 43:1.0 191:1.0 2316:1.0 2317:1.0 4:1.0 
52.769337357011985 90.0 745:1.0 43:1.0 41:1.0 141:1.0 122:1.0 1474:1.0 11:1.0 444:1.0 66:1.0 532:1.0 848:1.0 
33.72086991034604 90.0 234:1.0 2352:1.0 227:1.0 2175:1.0 4:1.0 685:1.0 686:1.0 107:1.0 687:1.0 824:1.0 2353:1.0 255:1.0 2354:1.0 41:1.0 2355:1.0 549:1.0 29:1.0 2356:1.0 
20.420672538293037 78.71797897616938 71:1.0 319:1.0 141:3.0 847:1.0 1632:1.0 112:1.0 2357:1.0 185:1.0 2297:1.0 249:1.0 1481:1.0 2358:1.0 423:1.0 1585:1.0 25:1.0 2283:1.0 8:1.0 2359:1.0 218:1.0 66:1.0 316:1.0 1472:1.0 397:1.0 
90.0 90.0 48:1.0 245:1.0 880:1.0 1907:1.0 302:1.0 2364:1.0 189:1.0 1023:1.0 483:1.0 
30.79539473760313 90.0 543:1.0 969:1.0 2365:1.0 190:1.0 483:1.0 4:1.0 
41.929168662707646 90.0 10:1.0 1010:1.0 41:1.0 198:1.0 373:1.0 2325:1.0 58:1.0 582:1.0 935:1.0 221:1.0 50:1.0 624:1.0 71:1.0 343:1.0 921:1.0 181:1.0 4:1.0 
25.60223428421866 44.11797560515484 237:1.0 1048:1.0 32:2.0 9:1.0 145:1.0 190:1.0 1579:1.0 2372:1.0 2373:1.0 463:1.0 58:1.0 2374:1.0 219:3.0 289:1.0 83:1.0 2375:1.0 2376:1.0 2377:1.0 4:2.0 1228:1.0 692:1.0 848:1.0 469:1.0 426:1.0 29:1.0 2378:1.0 218:1.0 51:1.0 
16.855714105448023 41.912478578363014 2394:1.0 302:1.0 880:1.0 2098:1.0 11:1.0 2395:1.0 32:1.0 1023:2.0 483:1.0 175:1.0 4:3.0 1253:1.0 934:1.0 680:1.0 543:1.0 246:1.0 802:1.0 647:1.0 49:1.0 50:1.0 698:1.0 2396:1.0 83:1.0 237:1.0 590:1.0 155:1.0 1334:1.0 2397:1.0 81:1.0 1296:1.0 426:1.0 258:1.0 628:1.0 1564:1.0 732:1.0 2183:1.0 371:1.0 2398:1.0 1907:1.0 2399:1.0 141:1.0 792:1.0 
40.157413277136456 90.0 302:1.0 2400:1.0 1840:1.0 1023:1.0 483:1.0 40:1.0 219:1.0 2401:1.0 538:1.0 414:1.0 2402:1.0 33:1.0 0:1.0 293:1.0 9:1.0 2403:1.0 606:1.0 141:1.0 143:1.0 624:1.0 4:2.0 1160:1.0 14:1.0 246:1.0 
17.137233508035596 45.001319219964195 2404:1.0 12:1.0 302:1.0 155:1.0 1840:1.0 1023:2.0 483:1.0 40:1.0 2401:1.0 2405:1.0 2402:1.0 250:1.0 2403:1.0 2388:1.0 66:1.0 4:1.0 148:1.0 628:3.0 847:1.0 2183:1.0 579:1.0 2406:1.0 11:1.0 2407:1.0 966:1.0 141:1.0 405:1.0 275:1.0 49:1.0 1907:1.0 6:2.0 
53.29952904653776 90.0 434:1.0 423:1.0 144:1.0 40:1.0 902:1.0 2441:1.0 802:1.0 2442:1.0 0:1.0 1813:1.0 4:1.0 
26.642990783156755 90.0 743:1.0 2443:1.0 13:1.0 152:1.0 276:1.0 2320:1.0 122:1.0 2437:1.0 40:2.0 620:1.0 1384:1.0 43:1.0 76:1.0 66:1.0 33:1.0 9:1.0 2444:1.0 2445:1.0 
20.85747553869128 61.96588377255735 1778:1.0 775:1.0 0:1.0 276:4.0 185:2.0 601:1.0 75:1.0 2446:1.0 430:1.0 2447:1.0 58:1.0 2437:1.0 663:1.0 4:2.0 
63.570072390133326 90.0 361:1.0 1384:2.0 2448:1.0 40:1.0 2449:1.0 103:1.0 
59.42950733337488 90.0 1585:1.0 465:1.0 13:1.0 58:1.0 2437:1.0 40:1.0 76:1.0 1023:1.0 69:1.0 
38.478701850500045 68.13613830162497 502:2.0 1258:1.0 902:1.0 257:1.0 49:1.0 227:1.0 743:1.0 129:1.0 2443:1.0 13:1.0 152:1.0 2450:1.0 276:1.0 2320:1.0 122:1.0 2451:1.0 4:1.0 501:1.0 106:1.0 50:1.0 2452:1.0 2052:1.0 1469:1.0 141:1.0 275:1.0 1115:1.0 
19.142681460171893 74.60139432330342 1538:1.0 2407:3.0 2453:2.0 4:2.0 2454:1.0 280:1.0 2455:1.0 12:1.0 2456:1.0 
20.246323850630247 62.17853533689816 148:1.0 1414:1.0 2005:1.0 40:2.0 692:1.0 219:1.0 2411:1.0 25:1.0 155:3.0 184:1.0 2457:1.0 397:2.0 4:1.0 757:1.0 205:1.0 46:1.0 491:1.0 175:1.0 147:1.0 666:1.0 2458:1.0 18:1.0 
59.4942576389403 90.0 1585:1.0 465:1.0 13:1.0 122:1.0 2475:1.0 2476:1.0 50:1.0 1023:1.0 112:1.0 
29.07139072335674 90.0 2477:1.0 33:1.0 1593:1.0 1886:1.0 375:1.0 191:1.0 13:1.0 122:1.0 2437:1.0 49:1.0 4:1.0 1766:1.0 284:1.0 2283:1.0 2284:1.0 596:1.0 40:1.0 0:1.0 721:1.0 2478:1.0 245:1.0 1046:1.0 
9.765061460954584 3.132265917516945 237:1.0 1531:1.0 1376:5.0 2479:2.0 86:13.0 589:5.0 1120:1.0 89:15.0 93:5.0 1057:1.0 1114:6.0 98:7.0 1393:5.0 2480:2.0 95:9.0 625:2.0 173:2.0 165:4.0 2325:4.0 1601:1.0 1602:1.0 1380:2.0 87:2.0 4:3.0 1447:1.0 91:1.0 0:4.0 1670:1.0 1382:1.0 40:2.0 440:2.0 2246:2.0 675:1.0 1745:2.0 2481:1.0 760:1.0 141:1.0 2248:1.0 88:2.0 261:1.0 178:4.0 1530:3.0 1395:1.0 1378:1.0 148:1.0 2482:1.0 2483:1.0 1525:1.0 2484:1.0 1069:1.0 2250:1.0 220:2.0 672:1.0 1679:1.0 174:1.0 1172:1.0 1373:1.0 1118:1.0 778:1.0 1527:1.0 96:1.0 1870:1.0 619:2.0 783:1.0 1115:1.0 
90.0 90.0 1502:1.0 141:1.0 2297:1.0 1442:1.0 205:1.0 
73.65457327112566 90.0 2389:1.0 45:1.0 2217:1.0 394:1.0 982:1.0 2497:1.0 261:1.0 43:1.0 
25.576648404968047 90.0 2498:1.0 2025:1.0 81:1.0 2287:1.0 2499:1.0 2500:1.0 40:2.0 2050:1.0 2501:1.0 1999:1.0 555:1.0 43:1.0 734:1.0 141:1.0 66:1.0 2502:1.0 302:1.0 181:1.0 423:1.0 
24.64794885581756 58.16748524692891 284:1.0 1983:1.0 9:2.0 293:1.0 114:1.0 2504:1.0 934:2.0 4:2.0 2517:1.0 71:1.0 2518:1.0 2519:1.0 371:1.0 14:1.0 361:1.0 2520:1.0 664:1.0 2521:1.0 272:1.0 96:1.0 218:1.0 1398:2.0 33:1.0 1489:1.0 2522:1.0 58:1.0 2523:1.0 2524:1.0 2525:1.0 249:1.0 983:1.0 341:1.0 
16.10928483101458 45.347164627346665 2504:1.0 40:1.0 75:1.0 181:1.0 71:1.0 389:1.0 1398:5.0 50:1.0 1045:1.0 2540:1.0 4:2.0 249:1.0 426:1.0 2516:1.0 148:1.0 9:1.0 2518:2.0 66:2.0 1001:1.0 58:1.0 83:1.0 2508:1.0 
10.913913484072157 12.46458424157392 627:2.0 1172:1.0 86:3.0 1881:1.0 98:1.0 2545:1.0 89:5.0 0:2.0 1675:1.0 1114:4.0 2401:1.0 95:1.0 1382:2.0 2163:1.0 6:2.0 1447:1.0 91:1.0 2487:1.0 178:2.0 88:1.0 87:1.0 2546:1.0 93:1.0 2547:1.0 2548:1.0 440:1.0 2549:1.0 559:1.0 
19.533264909411567 57.33461616206211 2148:1.0 17:1.0 934:1.0 2551:3.0 650:2.0 129:2.0 2470:1.0 2552:1.0 2553:1.0 2554:1.0 2555:1.0 2556:1.0 1050:1.0 2557:1.0 40:1.0 440:1.0 1145:1.0 2558:1.0 2559:1.0 930:1.0 2560:1.0 451:1.0 2561:1.0 
82.65003634581616 90.0 714:1.0 1368:1.0 205:1.0 6:1.0 
54.14436616125191 90.0 2565:1.0 666:1.0 227:1.0 549:1.0 66:1.0 816:1.0 618:1.0 4:1.0 205:1.0 265:1.0 
47.44032671066005 90.0 2570:1.0 43:1.0 921:2.0 146:1.0 83:2.0 265:1.0 1240:1.0 6:1.0 
16.92188836705299 55.39258137198646 612:2.0 2054:3.0 50:2.0 2574:1.0 2575:1.0 1091:1.0 4:2.0 1716:1.0 593:1.0 58:1.0 2576:1.0 1353:1.0 2577:1.0 2578:1.0 71:1.0 1895:1.0 11:1.0 680:1.0 76:1.0 389:1.0 
33.43878200788805 90.0 804:1.0 810:1.0 11:1.0 612:1.0 2054:1.0 190:1.0 40:1.0 971:1.0 9:1.0 245:1.0 41:1.0 71:1.0 839:1.0 124:1.0 6:1.0 
41.49066073703385 90.0 123:1.0 32:1.0 2468:1.0 423:1.0 1069:1.0 229:1.0 141:1.0 52:1.0 323:1.0 2580:1.0 66:1.0 4:1.0 
29.091956418689996 90.0 2581:1.0 19:1.0 184:2.0 785:1.0 238:1.0 40:3.0 2582:1.0 2583:1.0 2584:1.0 705:1.0 1575:1.0 
17.542695498820496 36.129874116476536 545:1.0 106:1.0 50:1.0 2378:1.0 864:1.0 12:1.0 7:3.0 894:2.0 218:1.0 539:1.0 122:1.0 316:1.0 4:3.0 40:2.0 213:1.0 0:1.0 896:1.0 245:1.0 481:1.0 397:2.0 227:1.0 1722:1.0 2585:1.0 111:1.0 2586:1.0 302:1.0 184:1.0 1244:1.0 2587:1.0 81:1.0 123:1.0 2588:1.0 67:1.0 2589:1.0 873:1.0 
90.0 90.0 2590:1.0 1472:1.0 714:1.0 2591:1.0 6:1.0 
36.400838523120605 90.0 579:1.0 9:1.0 593:1.0 143:2.0 76:1.0 122:1.0 316:1.0 40:1.0 545:1.0 293:1.0 1316:1.0 730:1.0 49:1.0 1954:1.0 181:1.0 83:1.0 1433:1.0 4:1.0 
35.25201950926307 90.0 2592:1.0 1401:1.0 753:1.0 50:1.0 223:1.0 593:1.0 2183:1.0 75:1.0 76:1.0 714:1.0 191:1.0 66:1.0 316:1.0 2417:1.0 276:1.0 2581:1.0 4:1.0 
18.397050861730957 49.254831912279194 2593:1.0 143:1.0 9:1.0 190:1.0 593:1.0 191:4.0 66:2.0 414:1.0 316:1.0 184:1.0 2590:1.0 2417:1.0 276:1.0 7:2.0 397:1.0 293:1.0 40:2.0 2594:1.0 444:1.0 864:1.0 4:1.0 
90.0 90.0 1070:1.0 6:1.0 
61.61063708425304 90.0 190:1.0 219:1.0 2613:1.0 2301:2.0 2614:1.0 41:1.0 0:1.0 2615:1.0 
13.522041634770419 20.5356066212518 96:1.0 2624:1.0 50:4.0 2625:2.0 129:4.0 103:1.0 688:1.0 81:2.0 2626:2.0 4:5.0 375:1.0 2627:1.0 12:1.0 2628:1.0 133:1.0 1655:1.0 80:1.0 40:2.0 152:2.0 16:1.0 1828:1.0 521:1.0 33:1.0 1023:1.0 934:2.0 2629:1.0 800:1.0 2630:1.0 664:1.0 248:1.0 14:1.0 2631:1.0 341:1.0 2632:1.0 9:2.0 525:1.0 723:1.0 49:1.0 2056:1.0 11:1.0 350:1.0 394:2.0 1738:1.0 1720:1.0 76:2.0 21:1.0 2633:1.0 29:1.0 1716:1.0 83:1.0 2515:1.0 2634:1.0 398:1.0 2635:1.0 1760:1.0 2636:1.0 1943:1.0 148:1.0 2637:1.0 125:1.0 986:1.0 71:1.0 2638:1.0 545:1.0 863:1.0 1781:1.0 996:1.0 1075:1.0 615:1.0 2639:1.0 
17.29610070978331 41.58261158647003 1724:1.0 50:1.0 152:2.0 9:1.0 847:1.0 1943:2.0 191:1.0 1463:2.0 350:1.0 0:1.0 18:1.0 341:1.0 129:3.0 1720:2.0 11:1.0 603:1.0 71:1.0 2648:1.0 114:1.0 272:1.0 2649:1.0 148:1.0 133:1.0 4:2.0 685:1.0 686:1.0 107:1.0 687:1.0 810:1.0 483:1.0 1970:1.0 145:1.0 190:1.0 40:1.0 884:1.0 41:1.0 249:1.0 2650:1.0 2651:1.0 261:1.0 227:1.0 153:1.0 
13.697462255426249 11.801945444752018 579:1.0 680:1.0 500:1.0 2626:3.0 96:2.0 122:1.0 1324:1.0 593:1.0 60:4.0 482:2.0 2677:1.0 2678:1.0 114:1.0 106:1.0 20:4.0 40:1.0 2679:1.0 218:1.0 426:1.0 198:1.0 501:2.0 502:2.0 1477:1.0 341:1.0 37:1.0 1716:3.0 4:4.0 50:1.0 2625:1.0 103:1.0 688:1.0 81:1.0 934:1.0 811:2.0 155:2.0 129:2.0 2680:1.0 2681:1.0 83:3.0 1943:1.0 2634:1.0 1090:1.0 279:2.0 821:1.0 2682:1.0 384:1.0 242:1.0 2683:1.0 411:1.0 620:3.0 219:3.0 215:1.0 843:1.0 141:1.0 152:1.0 1820:1.0 544:1.0 66:1.0 802:1.0 2684:2.0 2685:1.0 2686:1.0 631:1.0 2583:1.0 350:1.0 394:2.0 227:1.0 1722:1.0 1071:1.0 190:1.0 
14.109838775158723 23.132262429790224 1410:2.0 37:1.0 153:1.0 96:1.0 2687:1.0 2627:1.0 482:2.0 2688:1.0 375:1.0 1434:1.0 501:2.0 502:2.0 146:1.0 396:1.0 181:1.0 19:2.0 20:6.0 40:1.0 318:1.0 2689:1.0 45:1.0 2690:1.0 212:1.0 148:1.0 2691:1.0 321:1.0 4:2.0 1293:1.0 43:1.0 2675:1.0 2692:1.0 854:1.0 14:1.0 664:1.0 361:1.0 2693:1.0 996:1.0 152:1.0 1075:1.0 129:1.0 2694:1.0 
89.55281968304243 90.0 237:1.0 2722:1.0 2723:1.0 2497:1.0 129:1.0 43:1.0 765:1.0 2724:1.0 2725:1.0 4:1.0 
31.218969491145803 90.0 821:1.0 1755:1.0 141:1.0 361:1.0 1738:1.0 129:1.0 2734:1.0 2735:1.0 4:1.0 33:1.0 155:1.0 730:1.0 593:1.0 43:1.0 76:1.0 0:1.0 9:1.0 190:1.0 1945:1.0 397:1.0 
34.21782883387952 90.0 2769:1.0 2770:1.0 40:1.0 956:1.0 2771:1.0 1061:1.0 2772:1.0 881:1.0 396:1.0 41:1.0 76:1.0 2773:1.0 397:2.0 6:1.0 
90.0 90.0 246:1.0 484:1.0 2756:1.0 288:1.0 74:1.0 2775:1.0 
33.58538963462267 90.0 471:1.0 964:1.0 6:2.0 7:1.0 484:1.0 9:1.0 2457:1.0 2776:1.0 2777:1.0 40:1.0 2768:1.0 2778:1.0 
17.10839134175842 48.29564885438369 921:1.0 1237:1.0 935:3.0 545:1.0 122:1.0 339:1.0 114:1.0 294:1.0 4:1.0 840:1.0 841:1.0 465:1.0 113:1.0 423:1.0 2781:1.0 494:1.0 83:1.0 500:1.0 19:1.0 501:2.0 502:2.0 635:1.0 1607:1.0 969:1.0 48:1.0 227:1.0 2783:1.0 61:1.0 1131:1.0 6:1.0 
24.943792941978476 78.09017768345802 840:1.0 41:1.0 1536:1.0 205:1.0 40:1.0 657:1.0 15:1.0 2781:1.0 494:1.0 2784:1.0 11:1.0 392:1.0 2785:1.0 2786:1.0 501:2.0 502:2.0 2401:1.0 43:1.0 2787:1.0 397:1.0 6:1.0 
22.68638250632068 55.2355897876745 1820:2.0 698:1.0 81:2.0 544:1.0 218:2.0 45:1.0 2788:1.0 4:2.0 1134:1.0 237:1.0 375:1.0 1005:1.0 2789:1.0 83:1.0 2790:1.0 50:1.0 350:1.0 688:1.0 433:1.0 341:1.0 
25.981241942397368 90.0 145:1.0 2791:1.0 83:1.0 1537:1.0 698:1.0 219:1.0 81:1.0 2792:1.0 2793:1.0 4:1.0 
51.95121069605897 90.0 710:1.0 227:1.0 122:1.0 165:1.0 274:1.0 2380:1.0 2797:1.0 586:1.0 2798:1.0 2384:1.0 124:1.0 2333:1.0 397:1.0 
27.38569586283708 64.7714121148161 284:1.0 2799:1.0 237:1.0 1163:1.0 2800:1.0 810:1.0 40:2.0 2427:1.0 8:1.0 935:2.0 76:1.0 302:1.0 275:1.0 1312:1.0 2801:1.0 234:1.0 596:1.0 953:1.0 483:2.0 840:1.0 841:1.0 696:1.0 43:1.0 1655:1.0 1226:1.0 1607:1.0 4:1.0 
19.866575013981528 52.17682136432632 1354:1.0 106:1.0 483:1.0 816:1.0 242:1.0 2802:1.0 4:3.0 45:1.0 942:1.0 2803:1.0 238:1.0 40:2.0 79:2.0 1180:1.0 1646:1.0 81:1.0 544:2.0 2804:1.0 227:1.0 66:1.0 1314:1.0 145:1.0 1023:1.0 
24.707304708170824 25.347649970015897 397:5.0 501:4.0 502:4.0 2805:1.0 2806:1.0 1285:1.0 2807:1.0 2808:1.0 2708:1.0 148:1.0 128:2.0 610:2.0 2809:1.0 1369:1.0 50:1.0 707:1.0 1993:1.0 2810:1.0 41:1.0 2811:1.0 83:1.0 2812:1.0 2813:1.0 141:1.0 25:2.0 29:1.0 2814:1.0 760:1.0 761:1.0 4:1.0 75:1.0 302:1.0 106:1.0 40:2.0 2815:1.0 2816:1.0 157:1.0 246:1.0 984:1.0 2794:1.0 2817:1.0 189:1.0 0:1.0 1481:1.0 1354:1.0 66:1.0 544:2.0 6:1.0 227:1.0 2781:1.0 494:1.0 122:1.0 58:1.0 2818:1.0 45:1.0 80:1.0 706:1.0 512:1.0 2819:1.0 710:1.0 
19.576885469351446 68.23347880787394 433:2.0 2832:1.0 157:2.0 1009:1.0 2833:1.0 2794:1.0 40:1.0 145:2.0 350:1.0 4:1.0 213:1.0 9:1.0 43:1.0 431:1.0 1424:1.0 219:1.0 1010:1.0 605:1.0 114:1.0 2834:1.0 
64.27700061785083 90.0 361:1.0 433:1.0 145:1.0 350:1.0 4:1.0 
21.699540735466968 90.0 106:1.0 218:1.0 1188:1.0 310:1.0 698:1.0 1575:1.0 397:1.0 4:2.0 
17.194589931948936 60.91782855285621 45:1.0 1070:1.0 2835:1.0 397:3.0 2836:1.0 245:1.0 143:1.0 76:1.0 9:1.0 710:1.0 261:1.0 904:1.0 544:1.0 32:1.0 2383:1.0 253:1.0 275:1.0 25:1.0 
49.916313135719726 90.0 840:1.0 841:1.0 43:1.0 237:1.0 33:1.0 1588:1.0 483:1.0 16:1.0 465:1.0 433:1.0 2794:1.0 4:1.0 394:1.0 219:1.0 9:1.0 2837:1.0 2838:1.0 544:1.0 32:1.0 238:1.0 2383:1.0 
27.278493637338418 61.29476887865112 34:2.0 698:2.0 81:2.0 2792:1.0 45:1.0 2839:1.0 83:1.0 1539:1.0 40:1.0 840:1.0 465:1.0 153:1.0 350:1.0 483:1.0 124:1.0 253:1.0 758:1.0 1578:1.0 29:1.0 433:1.0 2794:1.0 6:1.0 
0.0 90.0 45:1.0 942:1.0 397:1.0 
44.021527075811015 90.0 840:1.0 184:2.0 2866:1.0 41:1.0 261:1.0 2867:1.0 2868:1.0 4:2.0 964:1.0 1046:1.0 124:1.0 219:1.0 
90.0 90.0 2568:1.0 894:1.0 1541:1.0 45:1.0 4:1.0 
26.747885194324855 76.38646006896614 9:1.0 2742:1.0 114:1.0 2871:1.0 215:1.0 19:1.0 766:1.0 666:1.0 41:1.0 2078:1.0 238:1.0 83:1.0 79:1.0 1541:1.0 80:1.0 4:2.0 155:1.0 2872:1.0 49:1.0 218:1.0 426:1.0 50:1.0 628:1.0 263:1.0 2873:1.0 599:1.0 
41.02203830698124 90.0 514:1.0 263:1.0 2889:1.0 2750:1.0 1620:1.0 40:1.0 243:1.0 227:1.0 50:1.0 184:1.0 219:1.0 289:1.0 2059:1.0 6:1.0 
45.37396944432531 90.0 49:1.0 50:1.0 2124:1.0 609:1.0 71:1.0 2954:1.0 2951:1.0 602:1.0 2955:1.0 643:1.0 199:1.0 147:1.0 2956:1.0 560:1.0 4:1.0 
90.0 90.0 145:1.0 2978:1.0 6:1.0 
43.53878634884862 90.0 2984:1.0 2985:1.0 2986:1.0 2987:1.0 93:1.0 361:1.0 2982:1.0 4:1.0 2988:1.0 2989:1.0 2990:1.0 2991:1.0 1115:1.0 
36.91370203052208 90.0 753:1.0 4:2.0 2992:1.0 1126:1.0 271:1.0 83:1.0 2200:1.0 2691:1.0 2183:1.0 688:1.0 1041:1.0 50:1.0 106:1.0 
72.8736345832944 90.0 12:1.0 122:1.0 409:1.0 175:1.0 249:1.0 9:1.0 2200:1.0 688:1.0 397:1.0 6:1.0 
20.19615238070553 90.0 123:2.0 2468:1.0 2996:1.0 4:2.0 684:1.0 49:1.0 1655:1.0 3012:1.0 79:1.0 80:1.0 81:1.0 1353:1.0 40:1.0 55:1.0 1941:1.0 1638:1.0 751:1.0 2995:1.0 227:1.0 66:1.0 3013:1.0 
81.86836790666239 90.0 205:1.0 227:1.0 4:2.0 
70.54369048698562 90.0 428:1.0 9:1.0 3046:1.0 3047:1.0 62:1.0 338:1.0 112:1.0 390:1.0 3048:1.0 
57.77122720581208 90.0 579:1.0 389:1.0 361:1.0 66:1.0 253:1.0 11:1.0 1070:1.0 6:1.0 
42.4175123726705 90.0 145:1.0 3049:1.0 40:1.0 183:1.0 302:1.0 428:1.0 9:1.0 184:1.0 3050:1.0 3051:1.0 4:1.0 
34.785461166617154 72.42271077465887 184:2.0 1277:1.0 350:1.0 83:1.0 145:1.0 3052:1.0 4:3.0 579:1.0 9:1.0 593:1.0 143:1.0 76:1.0 32:1.0 3053:1.0 3054:1.0 1288:1.0 1781:1.0 552:1.0 
90.0 90.0 1833:1.0 83:1.0 287:1.0 
90.0 90.0 512:1.0 61:1.0 19:1.0 3062:1.0 6:1.0 
15.536611306970146 90.0 451:1.0 83:1.0 182:1.0 586:1.0 17:1.0 3063:1.0 802:1.0 316:1.0 3064:1.0 40:1.0 3065:1.0 3066:1.0 397:1.0 
16.09761668756657 36.99647596187484 315:1.0 43:1.0 317:1.0 3052:1.0 40:3.0 9:1.0 245:1.0 181:1.0 41:1.0 3063:2.0 4:1.0 71:1.0 843:1.0 14:1.0 50:1.0 1197:1.0 3067:1.0 3068:1.0 3069:1.0 3070:1.0 3071:1.0 3065:1.0 3066:1.0 397:1.0 
28.45970298207896 90.0 288:1.0 182:1.0 40:1.0 75:1.0 118:1.0 316:1.0 333:1.0 964:1.0 11:1.0 218:1.0 451:1.0 4:1.0 
14.339170366306535 37.80141606128182 315:2.0 316:1.0 43:1.0 145:1.0 3052:1.0 83:1.0 182:1.0 120:1.0 341:1.0 4:4.0 9:1.0 245:1.0 1349:1.0 3063:1.0 181:1.0 17:1.0 41:1.0 1:1.0 802:1.0 3076:1.0 179:1.0 40:1.0 3077:1.0 3078:1.0 3079:2.0 
65.72009977665029 90.0 3080:1.0 3081:1.0 205:2.0 4:1.0 451:1.0 
90.0 90.0 33:1.0 237:1.0 11:1.0 462:1.0 51:1.0 3082:1.0 397:1.0 
90.0 90.0 451:1.0 
39.38113259061057 90.0 793:1.0 66:1.0 15:1.0 16:1.0 261:1.0 8:1.0 40:1.0 288:1.0 227:1.0 153:1.0 182:1.0 112:1.0 
44.0972654901428 90.0 1078:1.0 9:1.0 245:1.0 191:1.0 500:1.0 50:1.0 3063:1.0 4:2.0 426:1.0 153:1.0 182:1.0 793:1.0 316:1.0 328:1.0 
12.440248839476135 43.49790528123164 451:1.0 396:1.0 41:1.0 1135:1.0 50:1.0 3063:2.0 40:1.0 579:1.0 11:1.0 315:2.0 243:1.0 3093:1.0 245:1.0 811:1.0 155:1.0 2359:1.0 460:1.0 302:1.0 1010:1.0 1011:1.0 4:1.0 
19.810554724105508 22.980576861715264 237:1.0 153:1.0 1354:2.0 43:1.0 145:1.0 3094:1.0 41:4.0 4:2.0 106:1.0 50:2.0 2610:1.0 3095:1.0 340:1.0 152:1.0 55:1.0 316:2.0 66:1.0 60:1.0 451:1.0 215:1.0 20:1.0 3096:1.0 246:1.0 3097:1.0 0:2.0 986:1.0 1331:1.0 323:2.0 8:1.0 124:1.0 147:1.0 302:1.0 3098:1.0 2763:1.0 582:1.0 71:1.0 3099:1.0 76:1.0 9:1.0 
20.951783704516586 61.38782480771165 3107:1.0 181:1.0 1172:1.0 86:2.0 2487:1.0 1114:1.0 178:1.0 1393:1.0 89:3.0 3108:1.0 95:1.0 625:1.0 3109:1.0 587:1.0 4:2.0 75:1.0 98:1.0 93:1.0 350:1.0 1390:1.0 91:1.0 328:1.0 
48.50066655334612 90.0 350:1.0 205:1.0 4:1.0 318:1.0 26:1.0 1042:1.0 955:1.0 249:1.0 607:1.0 3128:1.0 112:1.0 3129:1.0 341:1.0 
84.88985515830295 90.0 3130:1.0 40:1.0 398:1.0 50:1.0 3131:1.0 4:1.0 
0.0 90.0 145:2.0 350:1.0 40:1.0 221:1.0 3132:1.0 341:1.0 0:1.0 3133:1.0 261:1.0 430:1.0 4:1.0 
22.055611421558883 57.556365862009166 627:1.0 249:1.0 0:1.0 3134:1.0 40:1.0 583:1.0 50:1.0 514:1.0 603:1.0 1324:1.0 593:1.0 122:1.0 2350:1.0 3135:1.0 2433:1.0 4:2.0 1110:1.0 3136:1.0 494:1.0 802:1.0 3137:1.0 212:1.0 148:1.0 1413:1.0 83:1.0 3138:1.0 3139:1.0 155:1.0 3140:1.0 279:1.0 3141:1.0 3142:1.0 1503:1.0 3046:1.0 321:1.0 
90.0 90.0 350:1.0 
32.1989225622487 83.19354493809539 639:1.0 451:1.0 1172:1.0 86:3.0 316:1.0 1390:1.0 91:1.0 440:1.0 1682:1.0 89:2.0 563:1.0 2340:1.0 1683:1.0 625:1.0 4:1.0 3048:1.0 
90.0 90.0 1521:1.0 141:1.0 1041:1.0 66:1.0 1522:1.0 4:1.0 
43.156967288479926 90.0 288:1.0 394:1.0 1296:1.0 53:1.0 810:1.0 3296:1.0 473:1.0 793:1.0 405:1.0 49:1.0 3297:1.0 
53.53162115174484 90.0 942:1.0 219:1.0 1240:1.0 41:1.0 3299:1.0 354:1.0 
54.76812773077969 90.0 83:1.0 1275:1.0 50:1.0 544:1.0 444:1.0 864:1.0 398:1.0 3303:1.0 763:1.0 1291:1.0 765:1.0 
13.995360426491127 40.60081380855594 942:1.0 45:1.0 37:1.0 500:1.0 187:1.0 3304:1.0 41:2.0 1538:1.0 138:1.0 129:2.0 3186:1.0 81:2.0 143:2.0 1581:1.0 3305:1.0 50:2.0 2709:1.0 1368:1.0 3306:1.0 219:1.0 49:1.0 375:1.0 3307:1.0 3300:1.0 255:1.0 
23.73541245526009 55.3176666028669 76:1.0 61:1.0 3308:2.0 41:1.0 423:1.0 4:3.0 394:2.0 1061:1.0 934:2.0 9:1.0 444:1.0 3309:1.0 1028:1.0 1029:1.0 1520:1.0 219:1.0 1653:1.0 765:1.0 544:1.0 238:1.0 205:1.0 1672:1.0 69:1.0 
27.968130142537873 90.0 49:1.0 218:1.0 50:1.0 3307:1.0 3311:1.0 4:2.0 219:1.0 9:1.0 3312:1.0 40:1.0 1816:1.0 83:1.0 3313:1.0 
57.85106606200439 90.0 3228:1.0 123:1.0 2063:1.0 3348:1.0 83:1.0 2574:1.0 1086:1.0 4:1.0 
40.99337373330819 90.0 128:1.0 49:1.0 1349:1.0 2819:1.0 501:1.0 502:2.0 3362:1.0 4:1.0 
90.0 90.0 352:1.0 75:1.0 145:1.0 2846:1.0 
72.97801480028461 90.0 288:1.0 446:1.0 245:1.0 181:1.0 6:1.0 3381:1.0 
66.51598874853524 90.0 45:1.0 942:1.0 2792:1.0 3382:1.0 
17.502069906849133 24.337727875955206 501:2.0 502:1.0 331:1.0 2773:1.0 274:1.0 2066:2.0 237:4.0 279:1.0 122:2.0 40:5.0 1738:1.0 1565:1.0 747:1.0 350:1.0 3385:1.0 157:1.0 582:1.0 4:1.0 29:1.0 148:1.0 49:2.0 935:1.0 956:1.0 184:1.0 487:1.0 3386:1.0 3387:1.0 2384:1.0 1739:1.0 242:1.0 11:1.0 2317:1.0 0:1.0 503:1.0 3388:1.0 245:1.0 124:1.0 1479:2.0 520:1.0 657:1.0 153:1.0 50:1.0 145:1.0 986:1.0 71:1.0 3389:1.0 3390:1.0 321:1.0 6:1.0 
35.36045986620844 90.0 2609:1.0 219:1.0 2192:1.0 1739:2.0 242:1.0 956:1.0 184:1.0 487:1.0 3391:1.0 191:1.0 114:1.0 3392:1.0 1075:1.0 53:1.0 1401:1.0 619:1.0 4:1.0 
84.83294935714676 90.0 3430:1.0 205:1.0 3431:1.0 150:1.0 3432:1.0 4:1.0 
32.97759644573978 90.0 3228:1.0 7:2.0 1224:1.0 4:2.0 996:1.0 1272:1.0 157:1.0 3451:1.0 3405:1.0 
20.570545470805712 68.21185965506983 2128:1.0 873:1.0 52:1.0 495:1.0 1285:1.0 3455:1.0 3456:1.0 3457:1.0 3458:1.0 2550:1.0 40:1.0 3459:1.0 9:1.0 3460:1.0 14:1.0 2378:1.0 3461:1.0 123:1.0 11:1.0 237:1.0 3228:1.0 848:1.0 487:1.0 3462:1.0 83:1.0 3405:1.0 1224:1.0 3463:1.0 7:1.0 43:1.0 4:1.0 
12.281677088780677 8.762575158758152 7:2.0 3458:5.0 3464:1.0 375:1.0 52:1.0 1000:1.0 1115:1.0 40:4.0 736:1.0 96:1.0 397:1.0 29:1.0 49:1.0 9:1.0 124:1.0 848:1.0 799:4.0 81:5.0 83:2.0 1224:5.0 4:5.0 971:1.0 3465:1.0 3466:1.0 47:3.0 58:2.0 41:1.0 934:1.0 18:1.0 0:4.0 2024:1.0 3467:1.0 255:1.0 33:2.0 11:1.0 279:3.0 3468:1.0 2069:1.0 3469:1.0 3463:1.0 50:3.0 208:1.0 55:1.0 153:1.0 219:2.0 3470:1.0 3471:1.0 120:1.0 1292:1.0 230:1.0 3472:1.0 66:2.0 3473:1.0 2550:2.0 3474:1.0 145:1.0 3475:1.0 3476:1.0 155:1.0 3477:1.0 503:1.0 3478:1.0 3479:1.0 2378:1.0 3480:1.0 
46.762605536079256 90.0 444:1.0 141:1.0 323:1.0 123:1.0 1575:1.0 3481:1.0 6:1.0 
16.841137168392812 14.021855164091168 165:1.0 237:1.0 19:1.0 152:6.0 490:1.0 15:1.0 140:1.0 143:1.0 58:1.0 3264:1.0 81:2.0 1224:1.0 50:3.0 184:3.0 1579:1.0 3410:1.0 40:5.0 32:1.0 153:1.0 684:1.0 27:1.0 501:2.0 502:2.0 2781:1.0 3348:1.0 793:1.0 2964:1.0 848:1.0 1023:1.0 986:2.0 9:1.0 3485:1.0 3480:1.0 83:1.0 847:1.0 1714:1.0 114:1.0 25:1.0 3486:1.0 3114:1.0 375:1.0 3487:1.0 219:1.0 215:1.0 426:1.0 3488:1.0 3489:1.0 148:1.0 1494:1.0 11:1.0 0:1.0 3490:1.0 276:1.0 556:1.0 71:1.0 444:1.0 469:1.0 29:1.0 1862:1.0 49:1.0 18:1.0 
90.0 90.0 718:1.0 2360:1.0 32:1.0 821:1.0 483:1.0 
13.26942907017988 28.741153059242915 3530:1.0 40:5.0 487:1.0 3531:1.0 71:3.0 1005:1.0 1354:1.0 3532:1.0 3533:1.0 375:1.0 3376:1.0 3499:1.0 3534:1.0 1503:1.0 52:1.0 510:1.0 1492:1.0 4:2.0 579:1.0 3234:1.0 3535:1.0 407:1.0 848:1.0 3536:2.0 3537:1.0 276:1.0 361:1.0 828:2.0 396:1.0 3538:1.0 1017:1.0 810:1.0 1018:1.0 83:1.0 734:1.0 1889:1.0 2172:1.0 3539:1.0 141:2.0 1917:1.0 9:1.0 251:1.0 218:1.0 493:1.0 219:1.0 1888:1.0 430:1.0 
23.518257579977316 32.28557753546337 143:2.0 145:1.0 1250:1.0 155:1.0 3551:1.0 1888:2.0 4:3.0 544:1.0 181:1.0 293:1.0 66:1.0 394:1.0 540:1.0 3552:1.0 397:1.0 1571:2.0 76:1.0 227:1.0 1075:1.0 184:2.0 246:1.0 1030:1.0 3553:1.0 2104:1.0 191:1.0 3554:1.0 480:1.0 141:1.0 2157:1.0 183:1.0 692:1.0 276:1.0 239:1.0 494:1.0 493:1.0 219:1.0 233:1.0 405:1.0 1555:1.0 3555:1.0 43:1.0 
9.128292998486154 3.019841847351701 1380:2.0 86:17.0 87:4.0 2108:1.0 1376:6.0 589:6.0 2546:1.0 178:5.0 1199:1.0 1780:1.0 95:15.0 440:3.0 93:4.0 1388:2.0 29:1.0 88:3.0 89:10.0 96:4.0 3124:1.0 1115:2.0 316:2.0 1379:6.0 122:3.0 40:5.0 1393:1.0 3125:1.0 91:3.0 2353:1.0 97:1.0 98:8.0 423:1.0 3556:1.0 430:1.0 1118:1.0 1145:1.0 1114:4.0 625:3.0 2248:2.0 110:1.0 1531:2.0 1742:1.0 915:1.0 811:1.0 1525:1.0 1527:1.0 4:3.0 261:1.0 1394:1.0 1382:1.0 1116:2.0 1390:1.0 783:2.0 675:4.0 587:1.0 1928:1.0 141:2.0 672:1.0 543:1.0 1120:1.0 1664:1.0 1173:1.0 3400:1.0 75:1.0 2479:1.0 2483:1.0 1530:1.0 1422:1.0 295:1.0 
52.66008065161555 90.0 326:1.0 49:1.0 191:1.0 141:1.0 3691:1.0 444:1.0 1046:1.0 430:1.0 426:1.0 122:1.0 409:1.0 1040:1.0 52:1.0 408:1.0 
63.745777450576526 90.0 3695:1.0 3696:1.0 3697:1.0 98:1.0 4:1.0 3698:1.0 3699:1.0 3686:1.0 
17.8198196853677 4.891357407321071 165:1.0 237:4.0 361:1.0 1032:1.0 76:1.0 605:1.0 3700:1.0 3701:2.0 3686:1.0 2632:1.0 9:1.0 205:2.0 483:2.0 3702:1.0 302:1.0 3703:2.0 291:1.0 1427:1.0 49:1.0 50:1.0 3704:2.0 3705:1.0 41:1.0 261:2.0 1041:1.0 3706:1.0 3707:1.0 3334:2.0 66:4.0 3708:1.0 40:8.0 394:1.0 323:1.0 206:1.0 998:2.0 83:2.0 279:1.0 277:1.0 2183:1.0 688:1.0 230:1.0 1010:1.0 1011:1.0 1369:1.0 1309:1.0 3709:1.0 576:1.0 145:1.0 190:2.0 4:3.0 3186:1.0 3710:1.0 228:1.0 3711:1.0 81:1.0 1993:1.0 1305:1.0 1176:1.0 82:1.0 3712:1.0 3713:1.0 1533:1.0 3714:1.0 3715:1.0 3716:1.0 3717:1.0 3718:1.0 2567:1.0 3719:1.0 397:2.0 52:1.0 53:1.0 2224:1.0 428:1.0 3720:1.0 
37.102273071516876 90.0 1106:1.0 3356:1.0 50:2.0 3726:1.0 40:2.0 828:1.0 81:1.0 1353:1.0 1276:1.0 1498:1.0 145:1.0 82:1.0 4:1.0 
32.36707336461922 90.0 3729:2.0 1987:1.0 205:1.0 350:1.0 19:1.0 61:1.0 3730:1.0 40:1.0 1354:1.0 3731:1.0 14:1.0 3732:1.0 81:1.0 125:1.0 3733:1.0 4:1.0 
22.962926957250684 53.08915338003978 62:1.0 338:2.0 218:1.0 620:1.0 184:1.0 219:1.0 500:2.0 71:1.0 205:1.0 227:1.0 40:3.0 350:2.0 996:1.0 951:1.0 3738:1.0 3739:1.0 3740:1.0 190:1.0 929:1.0 493:1.0 792:1.0 998:1.0 4:1.0 
50.95748781123696 90.0 2149:1.0 7:2.0 83:1.0 996:1.0 3741:1.0 4:1.0 
39.231502048722625 90.0 2742:1.0 81:1.0 7:1.0 145:1.0 1860:1.0 40:1.0 398:1.0 272:1.0 191:1.0 3742:1.0 83:1.0 3743:1.0 114:1.0 2089:1.0 397:1.0 
24.45262062532475 90.0 1533:1.0 7:1.0 6:3.0 258:1.0 3745:1.0 245:1.0 3437:1.0 3746:1.0 2246:1.0 626:1.0 930:1.0 2063:1.0 
22.018488776801586 52.71613427621265 841:2.0 696:2.0 350:1.0 40:1.0 237:1.0 288:1.0 153:1.0 340:1.0 2187:2.0 29:1.0 1706:2.0 6:3.0 52:1.0 53:1.0 992:1.0 12:1.0 3747:1.0 43:1.0 75:1.0 
17.939528945793917 90.0 205:1.0 2788:1.0 4:1.0 969:2.0 40:1.0 3753:1.0 32:1.0 66:1.0 1819:1.0 
31.92426392351171 85.10570844509193 184:1.0 1538:1.0 145:2.0 146:1.0 29:1.0 1353:1.0 43:1.0 4:1.0 262:1.0 333:1.0 490:1.0 141:1.0 1881:1.0 497:1.0 
55.45993819140967 90.0 237:1.0 426:1.0 293:1.0 772:1.0 141:1.0 1881:1.0 9:1.0 497:1.0 83:1.0 1106:1.0 3754:1.0 1581:1.0 138:1.0 394:1.0 245:1.0 41:1.0 67:1.0 227:1.0 676:1.0 423:1.0 4:1.0 
90.0 90.0 205:1.0 1646:1.0 6:1.0 
59.30739301153465 90.0 3755:1.0 219:1.0 212:1.0 969:1.0 40:1.0 184:1.0 705:1.0 1539:1.0 4:1.0 
33.72279780137619 90.0 3756:1.0 50:2.0 2788:1.0 40:1.0 444:1.0 65:2.0 3757:1.0 810:1.0 1607:1.0 684:1.0 714:1.0 3758:1.0 
90.0 90.0 80:1.0 
10.913380314508322 90.0 226:1.0 969:2.0 4:2.0 718:1.0 9:1.0 1248:1.0 1023:1.0 
90.0 90.0 705:1.0 45:1.0 80:1.0 
0.0 90.0 45:1.0 80:1.0 1579:1.0 394:1.0 1538:1.0 2839:1.0 4:1.0 
44.72375142811361 90.0 840:1.0 41:1.0 3764:1.0 3765:1.0 4:1.0 237:1.0 76:1.0 426:1.0 258:1.0 143:1.0 32:1.0 238:1.0 66:1.0 184:1.0 1248:1.0 2788:1.0 36:1.0 
13.045019808357468 90.0 969:2.0 45:1.0 3766:1.0 40:1.0 848:1.0 444:1.0 145:1.0 2788:1.0 
30.15472978701272 90.0 684:1.0 1544:1.0 32:1.0 14:1.0 155:1.0 969:1.0 83:1.0 124:1.0 394:1.0 219:1.0 3228:1.0 255:1.0 4:1.0 45:1.0 446:1.0 6:1.0 
90.0 90.0 1533:1.0 969:1.0 
17.07077013036537 90.0 1538:1.0 2484:1.0 2788:1.0 1646:1.0 205:1.0 40:1.0 714:1.0 3615:1.0 4:1.0 
86.50983413907537 90.0 184:1.0 1266:1.0 77:1.0 2788:1.0 83:1.0 1646:1.0 4:1.0 
32.973196277799076 52.60962757051156 501:2.0 502:2.0 184:2.0 2427:1.0 40:2.0 237:2.0 227:1.0 153:1.0 3767:1.0 3768:1.0 279:1.0 2468:1.0 3769:1.0 143:1.0 3770:2.0 3771:1.0 685:1.0 686:1.0 107:1.0 687:1.0 323:1.0 3772:1.0 4:2.0 148:1.0 14:1.0 511:1.0 269:1.0 129:1.0 1188:1.0 1536:1.0 250:1.0 6:1.0 
90.0 90.0 969:1.0 50:1.0 613:1.0 
90.0 90.0 45:1.0 1536:1.0 
24.00910956031311 82.34561169673398 49:1.0 218:1.0 398:1.0 50:1.0 3775:1.0 3776:1.0 4:2.0 3777:1.0 544:1.0 0:1.0 444:1.0 184:1.0 3778:1.0 2379:1.0 323:1.0 1943:1.0 76:1.0 181:2.0 9:1.0 190:1.0 545:1.0 71:1.0 3779:1.0 3780:1.0 
90.0 90.0 1484:1.0 205:1.0 1646:1.0 
69.99293744315649 90.0 795:1.0 50:1.0 71:1.0 2217:1.0 261:1.0 3800:1.0 4:1.0 
46.22474964739842 90.0 153:2.0 323:1.0 331:1.0 3802:1.0 409:1.0 83:1.0 1015:1.0 3803:1.0 41:1.0 462:1.0 4:1.0 3530:1.0 763:1.0 1291:1.0 765:1.0 428:1.0 12:1.0 2594:1.0 6:1.0 
90.0 90.0 3818:1.0 
31.173606163918382 90.0 3845:1.0 227:1.0 66:1.0 3480:1.0 6:4.0 
20.032434771585006 42.57857696595559 145:1.0 398:1.0 83:2.0 1655:2.0 626:1.0 1023:1.0 4:2.0 1464:1.0 9:1.0 1571:1.0 808:1.0 2202:1.0 3846:1.0 1687:1.0 931:1.0 625:1.0 253:1.0 11:1.0 715:1.0 13:1.0 3847:1.0 66:1.0 40:1.0 1696:1.0 237:1.0 76:1.0 302:1.0 3580:1.0 41:1.0 423:1.0 12:1.0 1083:1.0 43:1.0 
10.795601272150119 4.61961797550954 3854:2.0 3855:2.0 191:3.0 1900:4.0 165:2.0 933:2.0 3857:1.0 40:2.0 1969:2.0 304:1.0 50:1.0 398:1.0 6:6.0 9:5.0 190:6.0 1496:6.0 29:6.0 494:3.0 11:2.0 218:3.0 122:1.0 58:1.0 2183:2.0 66:4.0 685:2.0 686:2.0 107:2.0 687:2.0 148:5.0 719:4.0 32:7.0 71:4.0 3053:1.0 999:3.0 141:3.0 405:2.0 49:3.0 2000:3.0 444:2.0 423:3.0 1632:2.0 83:1.0 1018:1.0 810:2.0 76:1.0 3858:1.0 848:1.0 12:2.0 2407:1.0 2943:1.0 8:2.0 41:1.0 1897:1.0 986:1.0 3543:1.0 1023:1.0 654:1.0 184:1.0 219:1.0 1432:1.0 1946:1.0 871:2.0 680:1.0 1700:1.0 1828:1.0 392:1.0 3656:1.0 257:2.0 2045:2.0 1888:1.0 2906:1.0 1484:1.0 215:1.0 3859:1.0 3860:1.0 4:3.0 1778:1.0 0:1.0 261:1.0 212:1.0 75:1.0 804:2.0 81:2.0 394:1.0 817:1.0 43:1.0 483:1.0 811:1.0 155:1.0 61:2.0 284:1.0 3861:1.0 3846:1.0 3862:1.0 1639:1.0 692:1.0 1354:1.0 927:1.0 128:1.0 1293:1.0 249:1.0 3582:1.0 3863:1.0 3864:1.0 1353:1.0 3105:1.0 67:1.0 3865:1.0 998:1.0 114:1.0 3866:1.0 924:1.0 3867:1.0 1494:1.0 3868:1.0 258:1.0 491:1.0 1240:1.0 323:1.0 
11.880340955254637 29.01435277884715 2470:2.0 2743:1.0 1382:1.0 1863:1.0 3746:1.0 2750:1.0 3869:1.0 3870:1.0 4:5.0 1872:1.0 3871:2.0 1731:1.0 1379:1.0 2253:1.0 3872:1.0 1735:1.0 3873:1.0 440:1.0 3874:2.0 2964:2.0 3875:1.0 3876:1.0 1456:1.0 1172:1.0 1377:1.0 3877:1.0 934:1.0 680:1.0 1675:1.0 1725:2.0 887:1.0 208:1.0 3878:1.0 3879:1.0 2745:1.0 3347:2.0 3361:1.0 675:1.0 
67.33187016817524 90.0 684:1.0 43:1.0 71:1.0 444:1.0 61:1.0 62:1.0 112:1.0 4:1.0 
25.032173430853472 28.789537704486143 684:1.0 49:1.0 426:1.0 398:1.0 155:1.0 730:1.0 145:1.0 1424:1.0 219:2.0 3923:1.0 29:1.0 232:2.0 43:1.0 4:3.0 3924:1.0 33:1.0 375:1.0 50:2.0 1071:1.0 3925:1.0 81:1.0 143:1.0 191:1.0 3926:1.0 1061:2.0 215:1.0 3927:1.0 40:3.0 41:1.0 9:1.0 297:1.0 423:1.0 3928:1.0 3929:1.0 3930:1.0 75:1.0 148:1.0 2422:1.0 114:1.0 11:1.0 2723:1.0 122:1.0 3931:1.0 639:1.0 0:1.0 486:1.0 3932:1.0 
11.093569299811872 16.580879499248734 684:1.0 43:1.0 3012:1.0 1835:1.0 3964:1.0 1464:1.0 81:2.0 669:4.0 40:6.0 1041:2.0 302:2.0 181:1.0 9:1.0 2109:1.0 49:1.0 994:1.0 356:2.0 83:1.0 55:1.0 1716:1.0 3965:1.0 1015:1.0 41:1.0 3966:1.0 4:3.0 288:1.0 3674:1.0 375:1.0 50:1.0 3680:1.0 2183:1.0 155:1.0 33:1.0 1320:1.0 52:1.0 323:1.0 557:1.0 48:1.0 1415:1.0 430:1.0 76:1.0 1078:1.0 1332:1.0 245:1.0 2967:1.0 0:1.0 1:1.0 3967:1.0 588:1.0 
50.821649958310005 90.0 152:1.0 732:1.0 50:1.0 3968:1.0 265:1.0 120:1.0 19:1.0 20:2.0 
18.162259271425974 53.78616766353585 203:1.0 3969:1.0 3103:1.0 61:1.0 394:1.0 242:3.0 3970:1.0 41:1.0 2383:1.0 1918:1.0 1794:1.0 60:1.0 372:1.0 1328:1.0 257:1.0 20:1.0 3971:1.0 218:1.0 3972:1.0 66:1.0 2943:1.0 3973:1.0 3974:1.0 1585:1.0 2542:1.0 11:1.0 605:1.0 50:2.0 79:1.0 3975:1.0 114:1.0 3322:1.0 469:1.0 112:1.0 4:1.0 
45.46244074573388 90.0 4003:1.0 1725:1.0 1385:1.0 1452:1.0 675:1.0 4022:1.0 4023:1.0 1871:1.0 4024:1.0 3394:1.0 4025:1.0 81:1.0 3969:1.0 4:1.0 
70.53433353123488 90.0 3869:1.0 3870:1.0 243:1.0 350:1.0 2775:1.0 887:1.0 1813:1.0 
59.249087770272915 90.0 4037:1.0 205:1.0 40:1.0 17:1.0 0:1.0 1931:1.0 531:1.0 433:1.0 69:1.0 
90.0 90.0 67:1.0 2588:1.0 9:1.0 2583:1.0 4038:1.0 
46.511691469014636 90.0 4046:1.0 205:1.0 6:2.0 5:1.0 155:1.0 4047:1.0 143:1.0 153:1.0 2967:1.0 
50.00572283742545 90.0 4048:1.0 40:1.0 4049:1.0 155:1.0 3588:1.0 11:1.0 817:1.0 428:1.0 1955:1.0 483:1.0 4:1.0 
19.79000818910604 8.782586329834261 1530:3.0 86:8.0 98:5.0 1116:1.0 95:4.0 93:5.0 1011:1.0 12:1.0 564:1.0 4050:1.0 1114:4.0 1454:1.0 1665:1.0 89:5.0 589:3.0 1386:1.0 1741:1.0 1745:1.0 92:1.0 1525:1.0 1666:2.0 4:2.0 1872:1.0 178:1.0 430:1.0 1393:1.0 1757:1.0 1390:1.0 91:2.0 3125:1.0 2479:1.0 1385:2.0 96:1.0 408:1.0 
21.31750908919201 65.68535445256309 1082:1.0 564:1.0 4051:1.0 52:2.0 152:1.0 3588:1.0 40:1.0 996:1.0 698:1.0 4052:1.0 81:1.0 512:1.0 1190:2.0 1229:1.0 998:1.0 83:2.0 3751:1.0 50:1.0 4053:1.0 141:1.0 215:1.0 1503:1.0 4054:1.0 3746:1.0 165:1.0 6:1.0 
33.1126814921505 63.653708120585286 237:1.0 1607:1.0 428:1.0 40:1.0 942:1.0 792:1.0 83:1.0 67:1.0 3588:1.0 4:1.0 183:1.0 253:2.0 323:2.0 1369:1.0 32:1.0 1229:1.0 4055:1.0 157:1.0 873:1.0 52:1.0 273:1.0 261:1.0 388:1.0 556:1.0 
36.437061786944206 87.5302655340942 122:1.0 181:1.0 157:1.0 1041:1.0 76:1.0 9:2.0 1432:2.0 4056:2.0 40:2.0 4057:1.0 4058:1.0 75:1.0 492:1.0 1970:1.0 11:1.0 2967:1.0 767:1.0 34:1.0 4:1.0 
71.97155420275651 90.0 237:1.0 145:1.0 4059:1.0 83:1.0 2165:1.0 79:1.0 270:1.0 4060:1.0 2060:1.0 155:1.0 3588:1.0 4:1.0 
84.88985515830286 90.0 564:1.0 4061:1.0 58:1.0 1970:1.0 3735:1.0 6:1.0 
28.15163666176195 90.0 1533:1.0 1432:1.0 1984:1.0 1974:1.0 4062:1.0 6:2.0 227:1.0 141:1.0 1248:1.0 1617:1.0 237:1.0 1905:1.0 
37.16313729182044 90.0 12:1.0 9:1.0 190:1.0 2196:1.0 1320:1.0 52:1.0 3897:1.0 3531:1.0 4063:1.0 14:1.0 61:1.0 3588:1.0 4:1.0 
90.0 90.0 1970:1.0 222:1.0 338:1.0 3792:1.0 4:1.0 
43.68288605226036 90.0 1253:1.0 997:1.0 1559:1.0 2926:1.0 189:1.0 847:1.0 1804:1.0 4088:1.0 4:2.0 4090:1.0 120:1.0 
15.74757163063858 45.75300234995634 1780:1.0 95:4.0 178:1.0 3125:1.0 589:1.0 1422:1.0 2749:1.0 1199:1.0 40:1.0 75:1.0 3698:1.0 4102:1.0 675:1.0 86:2.0 37:1.0 1678:1.0 783:1.0 89:1.0 587:1.0 2353:1.0 1670:1.0 1171:1.0 6:1.0 
76.83849401119802 90.0 2498:1.0 997:1.0 1559:1.0 189:1.0 847:1.0 1804:1.0 4088:1.0 
-90.0 90.0 0:1.0 5:1.0 6:1.0 7:1.0 8:1.0 9:1.0 10:2.0 11:1.0 12:1.0 13:1.0 14:1.0 15:1.0 16:1.0 17:1.0 18:1.0 19:1.0 20:1.0 
-90.0 90.0 21:1.0 22:1.0 19:1.0 23:1.0 24:1.0 25:1.0 6:1.0 
-90.0 90.0 237:1.0 76:1.0 238:1.0 239:1.0 155:1.0 240:1.0 124:1.0 241:1.0 242:1.0 243:1.0 40:1.0 9:1.0 244:1.0 245:1.0 181:1.0 8:1.0 6:1.0 
-40.55493781254421 41.89106848835929 9:2.0 184:2.0 246:2.0 240:3.0 247:2.0 58:1.0 53:1.0 143:3.0 248:1.0 242:1.0 83:1.0 189:1.0 238:1.0 239:1.0 112:1.0 249:2.0 41:1.0 250:1.0 181:1.0 18:1.0 227:1.0 251:1.0 33:1.0 252:1.0 66:1.0 253:1.0 254:1.0 255:1.0 4:2.0 256:1.0 257:1.0 76:1.0 258:1.0 259:1.0 260:1.0 261:1.0 262:1.0 263:1.0 43:1.0 
-90.0 90.0 279:1.0 280:1.0 225:1.0 121:1.0 122:1.0 281:1.0 282:1.0 4:1.0 
-90.0 90.0 284:2.0 7:1.0 287:1.0 302:1.0 305:1.0 76:1.0 71:1.0 306:1.0 14:1.0 6:1.0 
-90.0 90.0 53:1.0 143:2.0 9:1.0 384:1.0 385:1.0 335:1.0 386:1.0 157:1.0 158:1.0 387:1.0 388:1.0 8:1.0 389:1.0 377:1.0 319:1.0 41:1.0 316:1.0 141:1.0 390:1.0 4:1.0 
-90.0 90.0 405:1.0 175:1.0 122:1.0 406:1.0 0:1.0 392:1.0 403:1.0 181:1.0 4:1.0 
-90.0 90.0 425:1.0 43:1.0 426:1.0 1:1.0 307:1.0 427:1.0 
-90.0 90.0 425:1.0 43:1.0 29:1.0 433:1.0 9:2.0 40:1.0 434:1.0 218:1.0 293:1.0 302:1.0 435:1.0 45:1.0 
-90.0 90.0 490:1.0 191:1.0 491:1.0 339:1.0 428:1.0 492:1.0 493:1.0 184:1.0 494:1.0 4:1.0 
-90.0 90.0 620:1.0 50:1.0 293:1.0 302:1.0 123:1.0 
-90.0 90.0 627:1.0 50:1.0 494:1.0 628:1.0 249:1.0 629:1.0 120:1.0 630:1.0 631:1.0 20:2.0 
-90.0 90.0 513:1.0 7:1.0 14:1.0 632:1.0 633:1.0 634:1.0 107:1.0 191:1.0 635:1.0 636:1.0 637:1.0 638:1.0 639:1.0 640:1.0 44:1.0 
-14.927831887039739 16.689956978019264 143:1.0 76:1.0 9:1.0 641:1.0 642:1.0 45:1.0 146:1.0 19:1.0 157:1.0 643:1.0 199:1.0 61:1.0 623:1.0 114:2.0 644:2.0 242:1.0 645:1.0 40:5.0 414:1.0 646:1.0 50:2.0 647:1.0 648:1.0 83:1.0 514:1.0 649:1.0 650:1.0 651:1.0 64:1.0 652:1.0 326:3.0 653:2.0 635:5.0 654:1.0 655:1.0 656:1.0 513:1.0 405:1.0 219:1.0 657:2.0 658:1.0 319:1.0 659:1.0 660:1.0 52:1.0 246:1.0 661:1.0 187:1.0 500:1.0 32:1.0 662:1.0 29:1.0 663:1.0 4:1.0 49:1.0 664:1.0 665:1.0 666:1.0 667:1.0 668:1.0 6:1.0 
-90.0 90.0 143:1.0 76:1.0 32:1.0 696:1.0 83:1.0 697:1.0 187:1.0 106:1.0 4:1.0 
-53.5880921794065 50.1702970449546 545:1.0 698:1.0 40:1.0 699:2.0 302:1.0 700:1.0 366:1.0 685:3.0 686:3.0 107:3.0 687:3.0 701:1.0 702:1.0 696:1.0 703:1.0 697:1.0 704:1.0 25:1.0 394:1.0 705:1.0 22:1.0 706:1.0 707:1.0 708:1.0 709:1.0 710:1.0 4:1.0 
-90.0 90.0 697:1.0 711:1.0 69:1.0 712:1.0 40:1.0 4:1.0 
-90.0 90.0 725:1.0 726:1.0 227:2.0 392:1.0 319:1.0 83:1.0 727:1.0 302:1.0 728:1.0 729:1.0 40:1.0 33:1.0 730:1.0 593:1.0 7:1.0 731:1.0 66:2.0 732:1.0 733:1.0 734:1.0 4:1.0 
-43.352733571412635 43.430589099018704 190:1.0 219:1.0 293:1.0 14:1.0 155:1.0 64:1.0 735:2.0 4:4.0 736:2.0 726:2.0 483:1.0 685:1.0 686:1.0 107:1.0 687:1.0 7:1.0 43:1.0 737:1.0 29:3.0 738:1.0 60:1.0 610:1.0 739:1.0 20:2.0 83:1.0 66:1.0 740:1.0 187:1.0 741:1.0 148:1.0 742:1.0 743:1.0 744:1.0 50:1.0 545:1.0 745:1.0 746:1.0 747:1.0 529:1.0 748:1.0 749:1.0 19:1.0 
-90.0 90.0 750:1.0 4:2.0 138:1.0 61:1.0 751:1.0 9:2.0 45:2.0 726:1.0 463:1.0 603:1.0 203:1.0 155:1.0 730:1.0 593:1.0 752:1.0 753:1.0 50:1.0 586:1.0 754:1.0 
-90.0 90.0 219:1.0 29:1.0 918:1.0 40:1.0 919:1.0 205:1.0 825:1.0 4:1.0 
-90.0 90.0 221:1.0 871:1.0 53:1.0 9:1.0 215:1.0 4:1.0 586:1.0 754:1.0 
-90.0 90.0 17:1.0 0:1.0 1031:1.0 450:1.0 1030:1.0 69:1.0 397:1.0 4:1.0 
-90.0 90.0 1107:1.0 366:1.0 657:1.0 76:1.0 146:1.0 338:1.0 4:2.0 148:1.0 8:1.0 1108:1.0 9:1.0 405:1.0 1109:1.0 1110:1.0 377:1.0 1111:1.0 221:1.0 643:1.0 321:1.0 1112:1.0 
-90.0 90.0 1212:1.0 89:1.0 96:1.0 429:1.0 29:1.0 205:1.0 
-90.0 90.0 1009:1.0 43:1.0 1029:1.0 49:1.0 153:1.0 1567:1.0 
-90.0 90.0 257:1.0 323:2.0 651:1.0 434:1.0 14:1.0 969:1.0 1783:1.0 1784:1.0 1785:1.0 4:1.0 
-90.0 90.0 609:1.0 123:1.0 921:1.0 1585:1.0 124:1.0 1797:1.0 1403:1.0 24:1.0 1408:1.0 18:1.0 
-47.44263527065423 48.47540953059219 1788:1.0 184:2.0 784:2.0 255:1.0 375:2.0 392:3.0 1147:3.0 3:3.0 302:1.0 1798:1.0 1403:1.0 43:2.0 40:2.0 1738:1.0 1799:1.0 81:1.0 1800:1.0 1801:1.0 1802:1.0 123:1.0 397:1.0 45:1.0 715:1.0 47:1.0 606:1.0 6:1.0 
-90.0 90.0 609:1.0 18:1.0 
-90.0 90.0 840:1.0 841:1.0 43:1.0 153:1.0 1788:1.0 50:1.0 1516:1.0 934:1.0 1813:1.0 4:1.0 
-90.0 90.0 1535:1.0 82:1.0 3:1.0 397:1.0 
-90.0 90.0 1820:1.0 45:1.0 80:1.0 4:1.0 1860:1.0 50:1.0 579:1.0 1861:1.0 536:1.0 800:1.0 1016:1.0 1023:2.0 83:1.0 873:2.0 817:1.0 927:1.0 66:1.0 1772:1.0 114:1.0 1862:1.0 1356:1.0 11:1.0 32:1.0 602:1.0 
-90.0 90.0 237:1.0 26:1.0 81:2.0 1980:1.0 1928:1.0 1929:1.0 40:1.0 1981:1.0 50:1.0 1977:1.0 
-90.0 90.0 76:1.0 50:3.0 1977:1.0 556:1.0 49:1.0 75:1.0 807:1.0 1989:1.0 391:1.0 1990:1.0 40:1.0 125:1.0 302:1.0 106:1.0 
-90.0 90.0 1969:1.0 1432:1.0 760:1.0 32:1.0 1433:1.0 191:1.0 55:1.0 1700:1.0 1853:1.0 43:1.0 18:3.0 
-90.0 90.0 1899:1.0 212:1.0 148:1.0 423:1.0 603:1.0 2097:1.0 2098:1.0 81:1.0 323:1.0 969:1.0 18:1.0 
-90.0 90.0 34:1.0 245:1.0 279:1.0 1414:1.0 157:1.0 1041:1.0 396:1.0 18:1.0 
-90.0 90.0 184:2.0 1000:1.0 239:1.0 50:1.0 680:1.0 2263:1.0 2264:1.0 40:1.0 148:1.0 392:1.0 319:1.0 927:1.0 2265:1.0 2266:1.0 127:1.0 141:1.0 219:1.0 0:1.0 2267:1.0 155:1.0 1293:1.0 2268:1.0 2269:1.0 2270:1.0 4:1.0 
-16.41284288616208 13.701794975383205 37:2.0 122:2.0 293:2.0 2332:1.0 685:5.0 686:5.0 107:5.0 687:5.0 112:1.0 218:1.0 145:1.0 352:1.0 918:1.0 2333:1.0 2334:1.0 2335:1.0 2336:1.0 2337:1.0 2338:1.0 13:2.0 2339:1.0 2340:1.0 607:1.0 29:2.0 739:1.0 1548:1.0 2341:1.0 199:1.0 2342:1.0 2343:1.0 2344:1.0 2345:1.0 2346:1.0 4:1.0 
-90.0 90.0 52:2.0 951:2.0 141:1.0 635:1.0 412:1.0 106:1.0 50:1.0 918:1.0 245:1.0 556:1.0 
-90.0 90.0 431:1.0 16:1.0 2349:1.0 2350:1.0 2183:1.0 40:1.0 219:1.0 29:1.0 918:1.0 2351:1.0 6:1.0 
-90.0 90.0 1296:1.0 0:1.0 2366:1.0 628:1.0 263:1.0 793:1.0 238:1.0 155:1.0 680:1.0 922:1.0 
-64.33490465398462 75.42507411758054 302:3.0 428:1.0 571:1.0 2388:1.0 32:1.0 66:1.0 2389:1.0 155:2.0 1840:2.0 50:1.0 2390:1.0 40:2.0 1520:1.0 1853:1.0 9:1.0 125:1.0 245:1.0 504:1.0 207:1.0 2283:1.0 246:1.0 1372:1.0 438:1.0 423:1.0 2391:1.0 793:1.0 2392:1.0 4:1.0 
-46.366848928988226 46.129057330921526 2526:1.0 423:1.0 2527:1.0 129:4.0 153:2.0 552:2.0 2484:1.0 2528:1.0 371:2.0 40:3.0 2529:1.0 624:1.0 2530:1.0 75:1.0 2531:1.0 2383:1.0 76:1.0 66:1.0 2532:1.0 1009:1.0 49:2.0 1:1.0 2533:1.0 237:1.0 122:1.0 643:1.0 257:1.0 341:1.0 0:1.0 5:1.0 550:1.0 585:1.0 2534:1.0 
-90.0 90.0 17:1.0 2541:1.0 615:2.0 129:1.0 49:1.0 2266:1.0 41:1.0 2542:1.0 319:1.0 556:1.0 18:1.0 
-90.0 90.0 986:1.0 2550:1.0 1148:1.0 1501:1.0 
-90.0 90.0 2566:1.0 50:1.0 184:1.0 289:1.0 265:1.0 40:1.0 75:1.0 2567:1.0 1534:1.0 227:1.0 610:1.0 61:1.0 212:1.0 148:1.0 2568:1.0 186:1.0 14:1.0 4:1.0 
-90.0 90.0 237:1.0 76:1.0 549:1.0 66:1.0 2569:1.0 184:1.0 2433:1.0 
-90.0 90.0 141:1.0 237:2.0 1739:1.0 185:1.0 804:1.0 81:1.0 2568:1.0 328:1.0 238:1.0 124:1.0 482:1.0 6:1.0 
-90.0 90.0 237:1.0 2571:1.0 307:1.0 185:1.0 141:1.0 10:1.0 
-90.0 90.0 237:1.0 76:1.0 549:1.0 66:1.0 2569:1.0 107:1.0 361:1.0 185:1.0 
-90.0 90.0 7:2.0 894:1.0 45:1.0 1274:1.0 75:1.0 76:2.0 2595:1.0 545:1.0 399:1.0 205:1.0 112:1.0 4:1.0 
-90.0 90.0 934:1.0 9:1.0 1262:1.0 129:1.0 2596:1.0 81:1.0 2597:1.0 1813:1.0 
-90.0 90.0 502:1.0 734:2.0 122:1.0 375:1.0 0:1.0 153:1.0 2598:1.0 81:1.0 2599:1.0 181:1.0 4:1.0 
-45.581403669209855 45.20187423694429 2600:1.0 122:1.0 2601:1.0 40:6.0 2602:1.0 2603:1.0 50:1.0 190:1.0 2604:1.0 284:1.0 128:2.0 1262:1.0 129:2.0 43:1.0 4:1.0 302:2.0 2123:1.0 2605:1.0 261:1.0 2606:1.0 428:1.0 556:1.0 2607:1.0 103:1.0 2608:1.0 
-84.73249820769983 85.91047275609803 873:1.0 692:2.0 219:4.0 927:1.0 2609:1.0 146:1.0 40:1.0 2610:1.0 426:1.0 9:1.0 184:1.0 2611:1.0 881:1.0 4:1.0 2612:1.0 734:1.0 66:1.0 49:1.0 50:1.0 680:1.0 18:1.0 589:1.0 
-19.264562661053535 18.392016786593043 237:1.0 153:2.0 190:1.0 219:1.0 1075:1.0 1262:3.0 129:4.0 107:4.0 492:1.0 507:1.0 350:1.0 2616:1.0 22:2.0 272:2.0 43:1.0 2617:1.0 371:1.0 128:2.0 765:1.0 431:1.0 1770:1.0 544:1.0 284:1.0 1738:1.0 2618:1.0 0:1.0 9:1.0 2200:2.0 245:1.0 12:1.0 2619:1.0 63:2.0 2620:1.0 2621:1.0 659:1.0 2622:1.0 397:1.0 191:1.0 493:1.0 141:1.0 280:1.0 2623:1.0 83:1.0 4:1.0 778:1.0 6:1.0 
-42.52415251680049 42.2033689761887 129:2.0 130:1.0 242:1.0 11:3.0 37:1.0 50:2.0 245:1.0 4:3.0 2643:1.0 2627:1.0 33:1.0 1023:1.0 0:3.0 1434:1.0 49:1.0 181:2.0 40:2.0 2655:1.0 2656:1.0 120:1.0 579:1.0 800:1.0 1417:1.0 986:1.0 2657:1.0 29:1.0 136:1.0 1943:1.0 810:1.0 261:1.0 52:1.0 1983:1.0 1334:1.0 
-66.87843305551826 71.72219046746159 579:1.0 389:1.0 318:1.0 1075:1.0 75:1.0 1110:1.0 50:1.0 1943:1.0 2657:1.0 32:1.0 810:1.0 545:1.0 129:2.0 227:1.0 2658:1.0 4:1.0 2659:1.0 336:1.0 152:1.0 2660:1.0 2661:1.0 1453:1.0 2223:1.0 1401:1.0 29:1.0 419:1.0 40:2.0 1952:1.0 122:1.0 409:1.0 2662:1.0 11:1.0 2663:1.0 2664:1.0 58:1.0 49:1.0 715:1.0 2665:1.0 141:1.0 1016:1.0 215:1.0 
-90.0 90.0 2626:1.0 122:1.0 145:1.0 389:1.0 4:2.0 75:1.0 2666:1.0 821:1.0 345:1.0 112:1.0 12:1.0 2667:1.0 641:1.0 483:1.0 114:1.0 2181:1.0 1943:1.0 191:1.0 2634:1.0 635:1.0 249:1.0 
-90.0 90.0 593:1.0 49:1.0 734:1.0 246:1.0 2668:1.0 33:1.0 451:1.0 41:1.0 122:1.0 152:1.0 457:1.0 4:1.0 0:1.0 71:1.0 2669:1.0 114:1.0 125:1.0 2637:1.0 
-90.0 90.0 1293:1.0 1760:1.0 579:1.0 129:1.0 33:1.0 1023:1.0 6:1.0 
-90.0 90.0 574:1.0 1199:1.0 1433:1.0 4:1.0 2695:1.0 538:1.0 721:1.0 1145:1.0 1892:1.0 
-10.824030172985886 10.396356359155732 2696:1.0 800:2.0 1131:1.0 76:1.0 389:1.0 40:6.0 75:1.0 1943:1.0 1716:1.0 145:2.0 810:3.0 2697:1.0 1293:2.0 2698:1.0 83:2.0 336:1.0 71:1.0 2699:1.0 14:1.0 2071:1.0 242:1.0 4:5.0 237:1.0 1110:1.0 0:3.0 2700:1.0 11:4.0 1464:1.0 2701:1.0 426:2.0 9:3.0 823:2.0 2702:1.0 2703:1.0 2637:1.0 60:1.0 1497:1.0 2704:1.0 2705:1.0 20:1.0 152:2.0 2484:1.0 423:1.0 435:1.0 863:1.0 2068:1.0 181:1.0 41:3.0 58:1.0 136:1.0 2060:1.0 122:1.0 52:1.0 1886:1.0 2706:1.0 129:2.0 955:1.0 114:1.0 989:1.0 157:1.0 328:1.0 12:1.0 1075:2.0 579:1.0 2707:1.0 593:1.0 1352:1.0 218:1.0 
-58.27503355410062 63.90701858778073 1293:1.0 43:1.0 1075:1.0 66:1.0 579:1.0 129:1.0 33:2.0 2726:1.0 0:2.0 272:1.0 2727:1.0 40:2.0 12:1.0 2728:1.0 173:1.0 58:2.0 2729:1.0 211:1.0 2730:1.0 112:1.0 1946:1.0 4:2.0 2697:1.0 2731:1.0 81:1.0 2732:1.0 2733:1.0 136:1.0 11:1.0 128:1.0 245:1.0 76:1.0 9:1.0 
-90.0 90.0 9:1.0 483:1.0 931:1.0 600:1.0 318:1.0 1075:1.0 328:1.0 40:4.0 129:1.0 76:1.0 2734:1.0 2186:1.0 482:1.0 345:1.0 1432:1.0 2733:1.0 46:1.0 549:1.0 2697:1.0 2561:1.0 4:1.0 
-90.0 90.0 2200:1.0 2625:1.0 43:1.0 525:1.0 2736:1.0 328:1.0 152:1.0 321:1.0 4:1.0 579:1.0 793:1.0 800:1.0 2172:1.0 2737:1.0 2738:1.0 32:1.0 2739:1.0 483:1.0 
-33.07149596424486 35.15892306202823 579:1.0 50:3.0 237:3.0 11:2.0 155:1.0 730:1.0 593:1.0 43:1.0 32:1.0 734:1.0 1075:2.0 246:1.0 137:1.0 2740:1.0 482:1.0 2677:1.0 40:3.0 1778:1.0 129:1.0 2741:1.0 60:1.0 1320:1.0 219:1.0 1240:1.0 20:1.0 75:1.0 249:1.0 1540:1.0 103:1.0 83:2.0 122:1.0 145:1.0 2192:1.0 2697:1.0 896:1.0 0:1.0 1781:1.0 6:2.0 2742:1.0 522:1.0 251:1.0 680:1.0 974:1.0 944:1.0 225:1.0 228:1.0 
-90.0 90.0 2752:1.0 635:1.0 9:1.0 184:2.0 246:2.0 40:1.0 476:1.0 129:2.0 1334:1.0 1384:1.0 50:2.0 2732:1.0 2753:1.0 2588:1.0 327:1.0 398:1.0 570:1.0 
-90.0 90.0 2736:1.0 11:1.0 1075:1.0 930:1.0 397:1.0 129:1.0 76:1.0 821:1.0 2608:1.0 40:1.0 2697:1.0 934:1.0 190:1.0 371:1.0 368:1.0 2754:1.0 
-54.53709831604821 49.590483803501954 2755:1.0 2756:3.0 76:2.0 426:1.0 50:1.0 2757:1.0 2758:1.0 81:1.0 2759:1.0 2760:1.0 40:2.0 2761:1.0 257:1.0 148:1.0 2762:1.0 2763:1.0 2404:1.0 83:1.0 2764:1.0 120:1.0 41:1.0 1578:1.0 237:1.0 0:1.0 605:1.0 545:1.0 249:2.0 1226:1.0 2765:1.0 2766:1.0 350:1.0 2767:1.0 255:1.0 4:3.0 
-90.0 90.0 246:1.0 484:1.0 2756:1.0 2768:1.0 205:1.0 
-90.0 90.0 501:2.0 502:2.0 573:1.0 451:1.0 106:1.0 112:1.0 40:1.0 2774:2.0 484:1.0 1005:1.0 
-90.0 90.0 112:1.0 680:1.0 32:1.0 1110:1.0 14:1.0 2794:1.0 106:1.0 
-35.13518178525292 34.753102476265475 2820:2.0 274:1.0 2380:1.0 399:1.0 2155:1.0 25:1.0 392:1.0 2821:1.0 29:1.0 323:1.0 83:2.0 52:1.0 2822:1.0 5:1.0 2823:1.0 784:1.0 2824:2.0 157:1.0 2825:1.0 191:1.0 375:2.0 141:2.0 237:2.0 1123:1.0 2059:1.0 2826:1.0 688:1.0 114:2.0 433:2.0 43:1.0 4:2.0 685:1.0 686:1.0 107:1.0 687:1.0 33:1.0 19:1.0 699:1.0 2789:1.0 257:1.0 148:1.0 2434:1.0 2827:1.0 2621:1.0 377:1.0 2828:1.0 11:1.0 1477:1.0 128:1.0 2829:1.0 2830:1.0 155:1.0 1838:1.0 2790:1.0 849:1.0 2831:1.0 40:1.0 1604:1.0 544:1.0 
-57.37706125905985 54.934638507151256 512:1.0 2380:1.0 43:1.0 431:1.0 50:1.0 219:2.0 969:2.0 4:4.0 148:1.0 217:1.0 2840:1.0 2841:1.0 377:1.0 984:1.0 2842:1.0 40:1.0 2843:1.0 1410:1.0 2844:1.0 227:1.0 2786:1.0 371:1.0 19:1.0 501:2.0 502:2.0 490:1.0 2845:1.0 261:1.0 394:1.0 1561:1.0 2846:1.0 66:1.0 2847:1.0 
-90.0 90.0 1521:1.0 2848:1.0 141:1.0 394:1.0 219:1.0 894:1.0 
-90.0 90.0 500:1.0 165:1.0 2857:1.0 11:1.0 2858:1.0 2859:1.0 83:3.0 2860:1.0 227:1.0 2861:1.0 1015:1.0 2854:1.0 238:1.0 2862:1.0 2863:1.0 191:1.0 2864:1.0 2865:1.0 64:1.0 2851:1.0 2849:1.0 6:1.0 
-90.0 90.0 9:1.0 184:1.0 2869:1.0 287:1.0 50:1.0 40:2.0 2849:1.0 0:1.0 1596:1.0 2854:1.0 212:1.0 148:1.0 2125:1.0 163:1.0 48:1.0 279:1.0 164:1.0 2870:1.0 809:1.0 4:1.0 
-69.81424045244982 68.759428948559 1275:1.0 328:1.0 2881:1.0 545:1.0 2843:1.0 1005:1.0 501:2.0 502:2.0 2632:1.0 143:1.0 0:3.0 986:1.0 1596:1.0 11:1.0 514:1.0 263:1.0 76:1.0 610:1.0 75:1.0 2882:1.0 397:1.0 4:2.0 398:1.0 50:1.0 219:1.0 280:2.0 802:1.0 333:1.0 
-90.0 90.0 287:1.0 69:1.0 40:2.0 1596:1.0 124:1.0 53:1.0 404:1.0 375:1.0 361:1.0 219:1.0 4:1.0 191:1.0 1433:1.0 18:3.0 
-55.585871114311715 55.54686506549243 2883:1.0 40:3.0 545:1.0 2884:1.0 1585:1.0 985:2.0 984:3.0 2885:1.0 371:1.0 2886:1.0 2887:2.0 568:1.0 956:1.0 514:2.0 263:2.0 165:1.0 75:1.0 934:1.0 2882:1.0 2888:1.0 734:1.0 615:1.0 975:1.0 83:1.0 463:1.0 423:1.0 603:1.0 12:1.0 267:1.0 4:1.0 
-90.0 90.0 545:1.0 2890:1.0 81:1.0 237:1.0 1920:1.0 145:1.0 2312:1.0 2284:1.0 
-39.33112030262771 40.31574527469965 212:1.0 143:1.0 122:1.0 203:2.0 9:1.0 284:2.0 2464:1.0 2895:1.0 46:1.0 2122:1.0 2896:4.0 2897:2.0 2148:2.0 2898:1.0 60:2.0 2899:2.0 261:1.0 392:1.0 2900:2.0 2901:1.0 29:1.0 2902:1.0 20:2.0 40:1.0 1484:1.0 157:1.0 431:1.0 50:1.0 1281:1.0 141:1.0 2903:1.0 199:1.0 1783:1.0 207:1.0 2904:1.0 
-90.0 90.0 143:1.0 2905:1.0 514:1.0 430:1.0 1135:1.0 7:1.0 221:1.0 635:1.0 50:1.0 1858:1.0 2906:1.0 1305:1.0 444:1.0 2907:1.0 2908:1.0 1933:1.0 2909:1.0 800:1.0 1397:1.0 2910:1.0 122:1.0 4:2.0 763:1.0 1291:1.0 765:1.0 
-90.0 90.0 257:1.0 148:1.0 2911:1.0 465:1.0 40:1.0 55:1.0 945:1.0 293:1.0 143:1.0 227:1.0 1071:1.0 2700:1.0 1432:1.0 2912:1.0 12:1.0 0:1.0 721:1.0 606:1.0 2913:1.0 2914:1.0 43:1.0 4:1.0 2915:1.0 218:1.0 463:1.0 2916:1.0 2917:1.0 831:1.0 18:1.0 
-90.0 90.0 16:1.0 995:1.0 43:1.0 218:1.0 605:1.0 2124:1.0 969:1.0 221:1.0 463:1.0 2916:1.0 4:1.0 
-90.0 90.0 431:1.0 326:1.0 228:1.0 423:1.0 1564:1.0 2918:1.0 286:1.0 12:1.0 800:1.0 1132:1.0 878:1.0 2910:1.0 83:1.0 969:1.0 227:1.0 377:1.0 1496:1.0 576:1.0 483:1.0 2919:1.0 
-59.23215470143817 59.01834899376872 165:1.0 261:1.0 558:1.0 840:1.0 2924:1.0 2925:1.0 81:1.0 143:2.0 11:1.0 55:1.0 2926:1.0 19:1.0 111:1.0 1918:1.0 1516:1.0 324:1.0 1056:1.0 1064:1.0 83:2.0 0:1.0 503:1.0 2927:1.0 2604:1.0 50:1.0 680:1.0 141:1.0 187:1.0 297:1.0 148:1.0 1886:1.0 2430:1.0 128:1.0 2829:1.0 586:2.0 763:1.0 900:1.0 765:1.0 2917:1.0 2928:1.0 6:1.0 
-90.0 90.0 1855:1.0 558:1.0 767:1.0 122:1.0 2929:1.0 549:1.0 1564:1.0 321:1.0 
-90.0 90.0 431:1.0 326:1.0 49:1.0 1881:1.0 1886:1.0 1056:1.0 12:1.0 734:1.0 144:1.0 2930:1.0 4:1.0 
-50.04024569694428 51.344882464008144 0:2.0 122:2.0 293:1.0 1191:1.0 1736:1.0 685:3.0 686:3.0 107:3.0 687:3.0 112:1.0 2931:1.0 71:1.0 2932:1.0 2484:1.0 114:1.0 2933:1.0 778:1.0 2934:1.0 124:1.0 1549:1.0 1521:1.0 603:1.0 1163:1.0 225:1.0 1993:1.0 1750:1.0 564:1.0 
-90.0 90.0 840:1.0 2935:1.0 41:1.0 624:1.0 2448:1.0 2756:1.0 4:2.0 284:1.0 7:1.0 122:1.0 549:1.0 1564:1.0 2918:1.0 1855:1.0 558:1.0 40:1.0 638:1.0 375:1.0 463:1.0 2916:1.0 
-90.0 90.0 426:1.0 361:1.0 1384:1.0 500:1.0 328:1.0 19:1.0 2936:1.0 106:1.0 635:1.0 50:1.0 2376:1.0 6:1.0 83:1.0 1558:1.0 2937:1.0 541:1.0 
-90.0 90.0 2938:1.0 89:2.0 587:1.0 405:1.0 257:1.0 148:1.0 1665:1.0 1114:1.0 87:1.0 106:1.0 1172:1.0 86:1.0 
-58.27726416725116 58.41780903266622 326:1.0 2939:1.0 288:1.0 635:1.0 2891:1.0 2357:1.0 1411:1.0 40:2.0 75:2.0 148:1.0 2940:1.0 2941:1.0 2923:1.0 4:3.0 2942:1.0 1564:1.0 146:1.0 1778:2.0 190:1.0 1466:1.0 1432:1.0 667:1.0 0:2.0 33:1.0 391:1.0 482:1.0 219:1.0 238:1.0 184:1.0 784:1.0 198:1.0 15:1.0 2943:1.0 43:1.0 181:1.0 1238:1.0 
-90.0 90.0 326:1.0 14:1.0 37:1.0 2944:1.0 2945:1.0 6:1.0 
-90.0 90.0 48:1.0 122:1.0 2949:1.0 350:1.0 203:1.0 927:1.0 71:1.0 2950:1.0 2951:1.0 602:2.0 40:1.0 141:2.0 1578:1.0 143:1.0 83:1.0 219:1.0 215:1.0 4:1.0 
-90.0 90.0 580:1.0 106:1.0 50:1.0 643:1.0 1325:1.0 2952:1.0 191:1.0 199:1.0 58:1.0 2953:1.0 328:1.0 41:1.0 
-90.0 90.0 48:1.0 9:2.0 2950:1.0 2951:1.0 602:1.0 11:2.0 579:1.0 152:1.0 122:2.0 29:1.0 643:1.0 199:1.0 43:1.0 40:1.0 784:1.0 257:1.0 2632:1.0 76:1.0 734:1.0 2957:1.0 191:1.0 328:1.0 4:1.0 
-90.0 90.0 643:1.0 199:1.0 81:1.0 1369:2.0 2919:1.0 2965:1.0 823:1.0 2464:1.0 4:2.0 75:1.0 579:1.0 52:1.0 152:1.0 2966:1.0 11:1.0 490:1.0 2967:1.0 40:1.0 237:1.0 293:1.0 184:1.0 2803:1.0 2968:1.0 83:1.0 55:1.0 2969:1.0 626:1.0 483:1.0 340:1.0 
-37.807342324251806 37.80907124665878 501:2.0 502:2.0 217:1.0 2337:1.0 25:1.0 800:1.0 492:1.0 275:3.0 2970:1.0 83:1.0 71:1.0 191:1.0 288:1.0 423:1.0 435:1.0 2909:1.0 586:1.0 9:1.0 34:1.0 2971:1.0 255:1.0 17:1.0 430:1.0 40:2.0 124:1.0 157:1.0 163:1.0 76:2.0 1700:1.0 2972:1.0 43:1.0 579:1.0 203:1.0 2973:1.0 311:1.0 2974:1.0 41:1.0 392:1.0 1365:1.0 205:1.0 2975:1.0 272:1.0 2120:1.0 8:1.0 545:1.0 2124:1.0 878:1.0 2976:1.0 2977:1.0 50:1.0 715:1.0 1581:1.0 606:1.0 4:1.0 
-90.0 90.0 2979:1.0 394:1.0 749:1.0 40:1.0 143:1.0 389:1.0 2980:1.0 2981:1.0 483:1.0 4:1.0 
-23.0006983170763 23.20273705092944 657:1.0 1680:1.0 1114:2.0 178:3.0 1145:1.0 1393:1.0 89:6.0 3002:1.0 589:1.0 619:1.0 95:2.0 1386:2.0 86:3.0 88:1.0 96:2.0 1212:1.0 300:1.0 328:1.0 1454:1.0 4:2.0 680:1.0 3003:1.0 170:1.0 1376:2.0 40:1.0 969:1.0 1057:1.0 587:1.0 783:1.0 1389:1.0 3004:1.0 437:1.0 1576:1.0 93:1.0 3005:1.0 3006:1.0 3007:1.0 3008:1.0 3009:1.0 3010:1.0 87:1.0 6:3.0 3011:1.0 
-90.0 90.0 249:1.0 122:1.0 58:1.0 832:1.0 67:1.0 112:1.0 
-48.83472483635081 48.46785221447066 3015:1.0 2565:1.0 19:1.0 2449:1.0 236:1.0 50:2.0 3016:1.0 483:1.0 1046:1.0 83:2.0 45:1.0 46:1.0 3017:1.0 4:1.0 680:1.0 55:1.0 293:1.0 3018:1.0 18:1.0 12:1.0 331:1.0 1078:1.0 548:1.0 181:1.0 40:3.0 426:1.0 608:1.0 1014:1.0 3019:1.0 3020:1.0 81:2.0 692:1.0 273:1.0 191:1.0 1021:1.0 3021:1.0 41:1.0 1538:1.0 141:1.0 2135:1.0 3022:1.0 3023:1.0 3024:1.0 2306:1.0 143:1.0 763:1.0 1291:1.0 765:1.0 
-90.0 90.0 32:1.0 492:1.0 328:1.0 3029:1.0 41:1.0 
-90.0 90.0 1885:1.0 3033:1.0 41:1.0 3034:1.0 122:1.0 5:1.0 
-90.0 90.0 237:1.0 3041:1.0 734:1.0 2383:1.0 0:1.0 153:2.0 40:1.0 627:1.0 205:1.0 434:1.0 227:1.0 112:1.0 4:1.0 114:1.0 155:1.0 3042:1.0 122:1.0 635:1.0 6:1.0 
-90.0 90.0 88:1.0 95:2.0 1171:1.0 634:1.0 513:1.0 122:1.0 2246:1.0 1376:1.0 1117:1.0 587:1.0 483:1.0 3043:2.0 
-90.0 90.0 1432:1.0 2570:1.0 251:1.0 286:1.0 680:1.0 41:1.0 462:1.0 956:1.0 341:1.0 
-90.0 90.0 9:1.0 245:1.0 50:1.0 3063:1.0 69:1.0 18:3.0 
-90.0 90.0 26:1.0 279:1.0 16:1.0 501:2.0 502:2.0 1548:1.0 3072:1.0 3073:1.0 4:1.0 
-90.0 90.0 971:1.0 605:1.0 249:1.0 3074:1.0 3075:1.0 302:1.0 131:1.0 8:1.0 4:1.0 
-90.0 90.0 3100:1.0 3101:1.0 3102:1.0 41:1.0 227:1.0 3103:1.0 2951:1.0 3104:1.0 191:1.0 3105:1.0 582:1.0 83:1.0 52:1.0 513:1.0 81:1.0 246:1.0 3097:1.0 112:1.0 17:1.0 18:1.0 3106:1.0 667:1.0 6:1.0 
-51.36257717706013 51.45018910417733 501:2.0 502:2.0 3116:2.0 3117:1.0 302:1.0 3118:1.0 507:1.0 316:2.0 557:1.0 40:3.0 3119:1.0 3120:1.0 3071:1.0 83:1.0 3064:1.0 4:1.0 514:1.0 894:1.0 205:1.0 627:1.0 3121:1.0 392:1.0 249:2.0 48:1.0 654:1.0 29:1.0 3122:1.0 81:1.0 397:2.0 3123:2.0 
-21.2057071249021 19.78310377073961 1670:2.0 86:5.0 1382:3.0 40:3.0 1455:1.0 589:2.0 237:3.0 2246:1.0 1376:2.0 1387:1.0 1114:3.0 1449:1.0 3124:1.0 1115:3.0 3125:1.0 625:1.0 3126:1.0 1172:1.0 1748:1.0 89:4.0 2487:1.0 96:1.0 2163:1.0 6:2.0 455:2.0 88:1.0 98:1.0 3127:1.0 783:1.0 
-90.0 90.0 184:1.0 1042:1.0 3143:1.0 22:1.0 219:1.0 651:1.0 
-90.0 90.0 302:1.0 430:1.0 11:1.0 32:1.0 955:1.0 58:1.0 3128:1.0 
-42.50766198804382 34.05862811445078 237:2.0 3144:1.0 317:1.0 531:1.0 190:2.0 315:2.0 4:3.0 3145:1.0 83:2.0 3146:1.0 1057:1.0 155:1.0 1056:1.0 40:4.0 450:1.0 363:1.0 3147:1.0 3148:1.0 3149:1.0 3150:1.0 255:1.0 75:1.0 0:1.0 316:1.0 545:1.0 249:1.0 261:1.0 3151:1.0 3026:1.0 3152:1.0 3153:1.0 
-90.0 90.0 1078:1.0 605:1.0 245:1.0 
-90.0 90.0 971:1.0 605:1.0 245:1.0 397:1.0 
-90.0 90.0 840:1.0 1567:1.0 41:1.0 37:1.0 605:1.0 338:1.0 40:1.0 680:1.0 3162:1.0 641:1.0 3163:1.0 6:1.0 
-90.0 90.0 2099:1.0 544:1.0 444:1.0 53:1.0 191:1.0 1700:1.0 3176:1.0 316:1.0 450:1.0 
-50.36453675552549 47.43012952170505 502:1.0 579:1.0 52:1.0 152:2.0 113:1.0 2863:1.0 3183:1.0 863:1.0 944:1.0 155:1.0 1969:1.0 1180:2.0 11:1.0 227:1.0 1278:1.0 53:1.0 207:1.0 3158:2.0 245:1.0 49:1.0 2484:1.0 3184:1.0 341:1.0 971:1.0 444:1.0 2497:2.0 2079:1.0 83:1.0 3185:1.0 2618:1.0 4:2.0 1976:1.0 81:2.0 3186:1.0 114:1.0 848:1.0 1531:1.0 394:1.0 43:1.0 50:1.0 1764:1.0 1089:1.0 
-90.0 90.0 3194:1.0 181:1.0 972:1.0 3195:1.0 448:1.0 
-90.0 90.0 0:1.0 986:1.0 593:1.0 3196:1.0 685:1.0 686:1.0 107:1.0 687:1.0 4:2.0 122:1.0 3197:1.0 279:1.0 1211:1.0 972:1.0 58:1.0 622:1.0 
-90.0 90.0 1722:1.0 293:2.0 14:1.0 1042:1.0 219:1.0 1970:1.0 316:2.0 76:1.0 2239:1.0 40:1.0 75:1.0 3198:1.0 43:1.0 11:1.0 0:2.0 514:1.0 894:1.0 606:1.0 69:1.0 4:1.0 6:1.0 19:1.0 20:1.0 
-90.0 90.0 1211:1.0 205:1.0 11:2.0 5:1.0 3199:1.0 253:1.0 3200:1.0 66:1.0 4:1.0 
-72.96318413130788 71.6357156063145 1983:1.0 316:1.0 3201:1.0 181:1.0 3202:1.0 607:1.0 3203:1.0 1301:1.0 3204:1.0 631:1.0 20:6.0 
-8.876828380992958 8.138850526710566 934:1.0 3205:1.0 1585:1.0 25:1.0 4:3.0 3206:1.0 268:1.0 52:1.0 323:1.0 3207:2.0 145:1.0 3208:1.0 2123:1.0 3209:1.0 426:1.0 9:1.0 253:1.0 3210:1.0 40:13.0 184:1.0 275:2.0 50:2.0 3211:1.0 3212:1.0 3213:1.0 3214:1.0 3215:1.0 3216:1.0 3217:1.0 3218:1.0 3219:1.0 3220:1.0 33:1.0 286:1.0 3221:1.0 3222:1.0 3223:1.0 3224:1.0 
-90.0 90.0 52:1.0 323:1.0 1585:1.0 25:1.0 426:1.0 9:1.0 277:1.0 141:1.0 275:1.0 871:1.0 1405:1.0 
-90.0 90.0 2378:1.0 3241:1.0 43:1.0 55:1.0 2338:1.0 1293:1.0 3242:1.0 1199:1.0 3243:1.0 
-90.0 90.0 1530:1.0 86:3.0 98:1.0 1379:1.0 91:1.0 783:1.0 1376:1.0 178:1.0 1682:1.0 89:1.0 96:1.0 675:1.0 106:1.0 4:1.0 
-90.0 90.0 635:2.0 58:1.0 106:1.0 426:1.0 191:1.0 1790:1.0 284:1.0 3253:1.0 53:1.0 286:1.0 328:1.0 1813:1.0 397:1.0 1607:1.0 1709:1.0 765:2.0 20:2.0 
-40.53903381247109 51.54001730328877 148:1.0 1293:2.0 3254:1.0 377:1.0 40:2.0 11:1.0 848:3.0 3231:2.0 155:2.0 818:1.0 2206:1.0 3255:1.0 32:2.0 2338:1.0 3242:1.0 371:1.0 83:1.0 1938:1.0 3256:1.0 1737:1.0 3257:1.0 3258:1.0 1897:1.0 3259:1.0 1041:2.0 4:2.0 3260:1.0 3261:1.0 55:1.0 392:1.0 1578:1.0 3207:1.0 
-27.015371769265855 25.136655914499606 32:3.0 46:1.0 1414:1.0 1415:1.0 4:4.0 75:3.0 3262:1.0 2965:1.0 11:2.0 3218:2.0 1850:1.0 2183:1.0 545:1.0 3263:1.0 483:1.0 145:3.0 190:1.0 40:2.0 2034:1.0 1274:1.0 205:1.0 1910:1.0 58:1.0 1897:1.0 275:2.0 435:1.0 3264:1.0 3265:1.0 392:2.0 3266:1.0 1696:1.0 3096:1.0 52:1.0 818:1.0 3267:1.0 1078:1.0 986:1.0 293:1.0 8:1.0 3268:1.0 3269:1.0 1585:1.0 3270:1.0 2714:1.0 106:1.0 123:1.0 2468:1.0 3271:1.0 328:1.0 
-90.0 90.0 52:1.0 951:1.0 3279:1.0 328:1.0 341:1.0 411:1.0 1415:1.0 191:1.0 635:1.0 2115:1.0 549:1.0 466:1.0 1472:1.0 155:1.0 19:1.0 60:1.0 
-90.0 90.0 2123:1.0 37:1.0 148:1.0 8:1.0 3281:1.0 2709:1.0 4:1.0 52:1.0 323:1.0 29:1.0 883:1.0 43:1.0 579:1.0 3282:1.0 2478:1.0 11:2.0 2776:1.0 74:1.0 40:1.0 1415:1.0 1414:1.0 302:1.0 106:1.0 32:1.0 2338:1.0 1293:1.0 3242:1.0 371:1.0 810:1.0 45:1.0 3283:1.0 397:1.0 
-46.63650754387788 44.71830507955314 52:1.0 3284:1.0 29:1.0 532:1.0 9:3.0 3285:1.0 3286:1.0 155:1.0 25:1.0 40:1.0 12:1.0 237:1.0 1005:1.0 106:1.0 426:2.0 50:3.0 3287:1.0 191:1.0 3288:1.0 3242:1.0 4:3.0 1804:1.0 1415:1.0 0:1.0 491:1.0 3289:1.0 3290:1.0 545:1.0 3291:1.0 3292:1.0 
-90.0 90.0 3298:1.0 89:1.0 589:1.0 1780:1.0 95:1.0 96:1.0 783:1.0 1114:1.0 1115:1.0 170:1.0 1376:1.0 4:1.0 
-90.0 90.0 620:1.0 2346:1.0 405:1.0 3300:1.0 444:1.0 3301:1.0 361:3.0 185:1.0 631:1.0 601:1.0 598:1.0 81:1.0 3302:1.0 428:1.0 40:1.0 71:1.0 934:1.0 69:1.0 19:1.0 904:1.0 
-90.0 90.0 398:1.0 112:1.0 49:2.0 152:1.0 40:1.0 934:1.0 71:1.0 361:1.0 601:2.0 400:1.0 41:1.0 55:1.0 50:1.0 3310:1.0 4:1.0 
-90.0 90.0 165:1.0 3334:1.0 11:1.0 106:1.0 50:1.0 203:2.0 1285:1.0 1928:2.0 1929:2.0 1900:2.0 4:1.0 757:1.0 279:1.0 2973:1.0 255:1.0 763:1.0 1291:1.0 765:1.0 
-90.0 90.0 3354:1.0 3355:1.0 81:1.0 818:1.0 41:1.0 71:1.0 1910:1.0 58:1.0 361:1.0 597:1.0 3356:1.0 76:1.0 3089:1.0 69:1.0 
-90.0 90.0 302:1.0 123:1.0 3357:1.0 692:1.0 597:1.0 40:1.0 2169:1.0 397:1.0 927:1.0 1285:1.0 3356:1.0 992:1.0 
-90.0 90.0 3358:1.0 245:2.0 334:2.0 293:2.0 426:1.0 50:2.0 184:2.0 3359:1.0 3101:1.0 4:2.0 394:1.0 37:1.0 3360:1.0 
-90.0 90.0 153:1.0 150:1.0 395:1.0 731:1.0 447:1.0 302:1.0 428:1.0 
-90.0 90.0 428:1.0 76:1.0 9:2.0 395:2.0 3051:1.0 50:1.0 731:1.0 447:1.0 40:1.0 75:1.0 1354:1.0 826:1.0 11:1.0 215:1.0 1352:1.0 4:1.0 1228:1.0 832:1.0 0:1.0 799:1.0 579:1.0 1369:1.0 3377:1.0 234:1.0 1023:1.0 3378:1.0 81:1.0 249:1.0 6:1.0 
-51.542652148012934 51.193683263435936 3379:1.0 261:1.0 731:1.0 447:1.0 302:1.0 430:1.0 40:1.0 544:1.0 9:1.0 392:1.0 3380:1.0 0:1.0 69:1.0 18:7.0 
-90.0 90.0 181:1.0 522:1.0 245:1.0 175:1.0 
-90.0 90.0 520:1.0 289:2.0 986:1.0 71:1.0 146:1.0 40:1.0 1696:1.0 3383:1.0 507:1.0 3384:1.0 328:1.0 6:1.0 
-90.0 90.0 863:1.0 3393:1.0 9:1.0 215:1.0 40:1.0 956:1.0 62:1.0 251:1.0 3394:1.0 4:1.0 
-90.0 90.0 225:1.0 141:1.0 219:1.0 58:1.0 53:1.0 81:2.0 3382:2.0 211:1.0 3042:1.0 865:1.0 3395:1.0 935:1.0 375:1.0 321:1.0 4:1.0 501:2.0 
-90.0 90.0 3396:1.0 3397:1.0 624:1.0 150:1.0 1233:2.0 4:2.0 41:1.0 249:1.0 426:1.0 1626:1.0 3398:1.0 29:1.0 49:1.0 
-30.789225095626197 28.511050543161456 848:3.0 3403:2.0 3404:1.0 81:1.0 3405:2.0 50:4.0 303:1.0 40:3.0 1696:1.0 394:3.0 219:1.0 3406:2.0 507:1.0 9:1.0 0:2.0 3407:1.0 155:1.0 32:1.0 676:1.0 1057:1.0 1114:1.0 589:1.0 3408:1.0 207:2.0 13:1.0 47:2.0 3409:1.0 444:1.0 878:1.0 1971:1.0 3410:1.0 827:1.0 871:1.0 1688:1.0 3411:1.0 39:1.0 423:1.0 3146:1.0 397:1.0 4:1.0 520:1.0 2707:1.0 76:1.0 411:1.0 3412:1.0 41:1.0 544:1.0 3413:1.0 
-90.0 90.0 53:1.0 1745:1.0 43:1.0 41:1.0 481:1.0 3423:1.0 3424:1.0 302:1.0 291:1.0 50:1.0 293:1.0 4:1.0 
-90.0 90.0 76:1.0 50:1.0 1750:1.0 124:1.0 482:1.0 75:1.0 2061:1.0 3425:1.0 3426:1.0 
-90.0 90.0 3433:1.0 4:1.0 
-90.0 90.0 3444:1.0 81:1.0 823:1.0 1745:1.0 43:1.0 431:1.0 9:1.0 190:1.0 3445:1.0 3446:1.0 187:1.0 12:1.0 218:1.0 392:1.0 39:1.0 397:1.0 4:1.0 6:1.0 
-90.0 90.0 684:1.0 245:1.0 76:1.0 9:2.0 253:1.0 234:1.0 4:3.0 227:1.0 50:1.0 67:1.0 11:1.0 1078:1.0 184:1.0 680:1.0 3482:1.0 426:1.0 301:1.0 3483:1.0 3484:1.0 14:1.0 181:1.0 328:1.0 
-28.66286912793088 24.353697958239678 165:1.0 237:1.0 579:1.0 9:2.0 1913:1.0 11:1.0 426:1.0 3491:1.0 81:1.0 394:3.0 3163:1.0 1888:2.0 444:1.0 1377:1.0 1421:1.0 40:4.0 934:3.0 1071:1.0 3492:1.0 1573:1.0 2407:1.0 3493:1.0 51:1.0 3060:1.0 397:1.0 4:2.0 3494:1.0 50:1.0 3495:2.0 282:2.0 1766:1.0 1578:1.0 3205:1.0 3496:1.0 219:1.0 3497:1.0 2206:1.0 141:1.0 1897:1.0 450:1.0 1030:1.0 292:1.0 
-90.0 90.0 1888:1.0 318:1.0 1463:1.0 1030:2.0 3503:1.0 190:2.0 1337:1.0 3504:1.0 2084:1.0 141:1.0 219:1.0 3505:1.0 40:1.0 261:1.0 53:1.0 237:1.0 434:1.0 3506:1.0 723:1.0 3507:1.0 1071:1.0 450:1.0 29:1.0 52:1.0 2590:1.0 316:1.0 4:1.0 
-77.02913878725565 80.53300896732526 0:1.0 3511:1.0 3512:1.0 1114:2.0 91:1.0 440:2.0 95:2.0 93:1.0 3513:1.0 1212:1.0 89:2.0 96:1.0 3514:1.0 86:3.0 98:1.0 174:1.0 3515:1.0 589:1.0 122:1.0 87:1.0 1379:1.0 328:1.0 4:1.0 
-55.4836832247311 62.29084752943945 1293:1.0 450:1.0 326:1.0 1075:2.0 3519:1.0 368:2.0 423:2.0 2350:2.0 871:2.0 76:2.0 3520:1.0 41:1.0 3521:1.0 1382:1.0 3522:1.0 4:1.0 491:1.0 153:1.0 0:1.0 1688:1.0 11:1.0 316:2.0 1489:1.0 328:1.0 40:1.0 624:1.0 190:1.0 483:1.0 181:1.0 
-83.37604506185242 90.0 871:2.0 1293:2.0 398:1.0 521:1.0 11:2.0 491:1.0 3543:1.0 999:1.0 328:1.0 4:2.0 1914:1.0 2052:1.0 41:1.0 189:1.0 261:1.0 421:1.0 46:1.0 605:1.0 205:1.0 
-90.0 90.0 165:2.0 237:1.0 318:1.0 191:1.0 82:1.0 3582:1.0 328:1.0 40:1.0 112:1.0 76:1.0 14:1.0 326:1.0 71:1.0 150:1.0 290:1.0 762:1.0 998:1.0 286:1.0 450:1.0 2188:1.0 1688:1.0 483:1.0 3583:1.0 4:1.0 
-7.531480549487859 10.205086777588816 237:2.0 76:3.0 1075:3.0 512:1.0 327:1.0 3630:3.0 384:1.0 915:1.0 29:1.0 3560:1.0 1913:1.0 60:1.0 1293:1.0 3631:1.0 20:1.0 40:4.0 173:1.0 114:2.0 3565:1.0 423:1.0 3632:1.0 3633:1.0 3634:1.0 3635:1.0 48:1.0 190:1.0 323:1.0 4:4.0 2404:1.0 2611:1.0 0:2.0 721:1.0 316:1.0 3636:1.0 568:1.0 1071:1.0 66:1.0 545:1.0 1018:2.0 205:1.0 3229:1.0 397:2.0 1026:1.0 9:2.0 239:1.0 2742:1.0 3637:1.0 2540:1.0 3638:1.0 3053:1.0 58:1.0 191:1.0 732:1.0 392:1.0 3639:1.0 11:1.0 219:1.0 3228:1.0 3640:1.0 
-90.0 90.0 1285:1.0 1927:1.0 707:1.0 190:1.0 205:1.0 1892:1.0 40:1.0 341:1.0 3644:1.0 423:1.0 2350:1.0 189:1.0 3645:1.0 
-8.025889524175959 11.053302988463718 491:1.0 596:2.0 1424:1.0 316:2.0 450:4.0 1914:3.0 483:1.0 212:1.0 40:9.0 680:2.0 76:4.0 1:2.0 3653:1.0 3619:1.0 521:1.0 148:1.0 1075:1.0 114:1.0 579:1.0 3654:1.0 323:3.0 358:1.0 1182:1.0 33:1.0 3655:1.0 2426:1.0 538:1.0 2678:1.0 400:1.0 122:1.0 4:4.0 29:1.0 184:1.0 1571:1.0 2390:2.0 50:1.0 1442:1.0 557:1.0 3399:1.0 425:1.0 3598:1.0 83:1.0 3583:1.0 520:1.0 1737:1.0 227:1.0 233:1.0 205:1.0 262:1.0 3260:1.0 1927:1.0 3656:1.0 1285:1.0 1293:1.0 1310:1.0 1199:2.0 60:1.0 1943:1.0 2263:1.0 3657:1.0 3658:1.0 52:1.0 2943:1.0 3659:1.0 2054:1.0 927:1.0 20:1.0 12:1.0 14:1.0 494:1.0 219:1.0 3505:1.0 189:1.0 3660:1.0 
-80.69265890272328 61.264620766426525 88:1.0 89:4.0 98:2.0 1456:1.0 86:1.0 783:2.0 1376:1.0 178:1.0 1393:1.0 2259:2.0 95:3.0 93:3.0 92:1.0 1381:1.0 1114:1.0 1115:1.0 1732:1.0 397:1.0 4:1.0 
-90.0 90.0 52:1.0 3734:1.0 2183:1.0 302:1.0 1970:1.0 3735:1.0 40:1.0 3736:1.0 1929:1.0 3357:1.0 50:1.0 81:1.0 3356:1.0 4:2.0 2495:1.0 0:1.0 986:1.0 71:1.0 122:1.0 734:1.0 3737:1.0 1106:1.0 8:1.0 215:1.0 255:1.0 
-40.03890028258779 40.00253947853054 1900:1.0 1233:1.0 71:3.0 3389:1.0 29:2.0 1716:1.0 3236:1.0 792:1.0 40:4.0 0:3.0 1371:1.0 52:1.0 3748:1.0 1106:1.0 521:1.0 341:1.0 157:1.0 3749:1.0 2400:1.0 2089:2.0 2196:1.0 3750:1.0 114:2.0 2574:1.0 2054:1.0 83:1.0 9:1.0 280:1.0 3751:1.0 361:1.0 626:1.0 3752:1.0 1905:1.0 4:1.0 
-90.0 90.0 184:1.0 185:1.0 3759:1.0 7:2.0 1163:1.0 654:1.0 3760:1.0 11:1.0 2297:1.0 3761:1.0 3762:1.0 3763:1.0 43:1.0 32:1.0 14:1.0 109:1.0 4:1.0 
-90.0 90.0 609:1.0 0:1.0 1278:1.0 52:1.0 3773:1.0 2183:1.0 191:1.0 3774:2.0 323:2.0 1519:1.0 377:1.0 1496:1.0 11:1.0 391:1.0 141:1.0 847:1.0 397:1.0 
-90.0 90.0 1354:1.0 25:1.0 181:1.0 9:1.0 700:1.0 3777:1.0 544:1.0 215:1.0 143:1.0 556:1.0 18:1.0 6:1.0 
-90.0 90.0 431:1.0 2683:1.0 249:2.0 227:1.0 5:1.0 778:1.0 3804:1.0 219:1.0 3759:1.0 40:1.0 83:1.0 434:1.0 189:1.0 1110:1.0 394:1.0 3805:1.0 49:1.0 155:1.0 67:1.0 4:1.0 
