svm_type c_svc
kernel_type rbf
gamma 2.525252525252525E-4
nr_class 2
total_sv 889
rho -1.6143682238641315
label 1 -1
nr_sv 471 418
SV
81.87399898176494 1:0.3125 180:1.0 297:1.0 145:1.0 46:1.0 2403:1.0 2404:1.0 5:1.0 416:1.0 2405:1.0 175:1.0 1864:1.0 191:1.0 481:1.0 
0.9702285872424631 1:0.5 953:1.0 262:2.0 130:1.0 2411:1.0 5:4.0 1112:1.0 197:2.0 39:1.0 2412:2.0 2037:1.0 2413:1.0 67:3.0 315:1.0 328:1.0 10:2.0 2414:1.0 65:1.0 2415:1.0 36:1.0 2395:1.0 2416:1.0 13:3.0 2311:1.0 2417:1.0 2418:1.0 1798:1.0 52:1.0 695:1.0 509:1.0 2419:1.0 1818:1.0 2420:1.0 2421:1.0 2422:1.0 2423:1.0 2424:1.0 
3.2677345483709517 1:0.625 180:1.0 2425:1.0 159:1.0 940:1.0 143:1.0 467:1.0 2426:1.0 725:1.0 2427:1.0 5:1.0 2395:1.0 37:1.0 118:1.0 26:1.0 75:1.0 153:1.0 169:1.0 2428:1.0 191:1.0 2429:1.0 2430:1.0 13:1.0 
11.014886785729038 1:0.6250000000000001 545:1.0 2431:1.0 315:1.0 455:1.0 43:1.0 687:1.0 1632:1.0 2096:1.0 197:1.0 918:1.0 2432:1.0 627:1.0 2197:1.0 178:1.0 604:1.0 
90.0 1:-100.0 218:1.0 2442:1.0 65:1.0 2443:1.0 963:1.0 663:1.0 1827:1.0 37:1.0 5:1.0 1712:1.0 911:1.0 822:1.0 39:1.0 487:1.0 13:1.0 
16.695777095976272 1:0.5 44:1.0 730:1.0 620:1.0 37:1.0 2444:1.0 93:1.0 38:1.0 455:1.0 262:1.0 401:1.0 2445:1.0 288:1.0 275:1.0 628:1.0 148:1.0 
19.818170470564052 1:0.5 2446:1.0 2447:1.0 2448:1.0 603:1.0 604:1.0 2449:1.0 35:1.0 306:1.0 2450:1.0 2451:1.0 13:1.0 
68.94485659644504 1:-100.0 2452:1.0 262:1.0 29:1.0 28:1.0 148:1.0 70:2.0 124:1.0 757:1.0 169:1.0 41:1.0 39:2.0 187:1.0 3:1.0 418:1.0 805:1.0 1584:1.0 
90.0 1:-100.0 1100:1.0 745:1.0 2453:1.0 148:1.0 2454:1.0 2455:1.0 191:1.0 2456:1.0 165:1.0 310:1.0 44:1.0 305:1.0 326:1.0 13:1.0 
24.594217136431475 1:0.5 219:1.0 29:1.0 28:1.0 5:1.0 421:1.0 124:1.0 37:1.0 46:1.0 1252:1.0 95:1.0 326:1.0 52:1.0 133:1.0 169:1.0 1100:1.0 2457:1.0 63:1.0 275:1.0 41:1.0 730:1.0 2458:1.0 13:1.0 
15.356090657530109 1:0.5 720:1.0 37:1.0 10:1.0 741:1.0 39:2.0 5:1.0 432:1.0 133:1.0 730:1.0 35:1.0 743:1.0 180:1.0 
18.174931073214136 1:0.5 720:1.0 37:1.0 113:1.0 2461:1.0 46:1.0 2462:1.0 913:1.0 1475:1.0 
33.27169396309443 1:0.5416666666666666 90:1.0 37:1.0 2463:1.0 82:1.0 1023:1.0 727:1.0 1473:1.0 191:1.0 2464:1.0 209:1.0 812:1.0 987:1.0 5:1.0 2465:1.0 2466:1.0 
25.663689057716446 1:0.062499999999999944 47:1.0 232:1.0 5:1.0 1722:2.0 35:1.0 340:1.0 1074:1.0 850:3.0 851:3.0 852:3.0 853:3.0 2484:1.0 562:1.0 960:1.0 2485:1.0 922:1.0 2486:1.0 557:1.0 199:1.0 2487:1.0 606:1.0 1231:1.0 1203:1.0 2488:1.0 2489:1.0 2490:1.0 13:1.0 
46.33375382317882 1:0.28125 28:2.0 29:2.0 1262:1.0 83:1.0 39:1.0 143:1.0 2491:2.0 864:1.0 175:1.0 858:1.0 832:1.0 169:1.0 2492:1.0 1330:1.0 490:1.0 75:2.0 191:1.0 730:1.0 34:1.0 5:1.0 2493:1.0 2494:1.0 741:1.0 13:1.0 
64.33594819620696 1:0.1875 2405:1.0 13:2.0 207:1.0 8:1.0 327:2.0 143:1.0 2009:1.0 603:1.0 29:1.0 2495:1.0 2496:1.0 
25.328213123317937 1:0.5 143:1.0 1976:1.0 169:1.0 42:1.0 46:1.0 223:1.0 775:1.0 70:1.0 
90.0 1:-100.0 2497:1.0 13:1.0 2498:1.0 
90.0 1:-100.0 2499:1.0 175:1.0 2138:1.0 2500:1.0 
1.3461180401967505 1:0.625 2501:1.0 2411:1.0 169:1.0 46:1.0 507:1.0 2502:1.0 597:1.0 70:1.0 603:1.0 431:1.0 
90.0 1:0.5 124:1.0 134:1.0 153:1.0 775:1.0 
90.0 1:-100.0 2506:1.0 
90.0 1:-100.0 2507:1.0 13:2.0 2508:1.0 2509:1.0 2510:1.0 2511:1.0 
90.0 1:-100.0 2513:1.0 2514:1.0 
90.0 1:0.25 41:1.0 730:1.0 2515:1.0 157:1.0 37:1.0 31:1.0 145:1.0 52:1.0 2516:1.0 29:1.0 93:1.0 168:1.0 13:1.0 
40.85204660005051 1:0.375 2517:1.0 770:1.0 130:2.0 168:1.0 5:1.0 823:1.0 228:1.0 2438:1.0 153:1.0 2518:1.0 65:1.0 2325:1.0 1974:1.0 2519:1.0 13:1.0 
59.33931915550604 1:-100.0 1256:2.0 108:1.0 264:2.0 148:1.0 275:1.0 13:1.0 29:1.0 287:1.0 2520:1.0 149:1.0 87:1.0 654:1.0 2521:1.0 2522:1.0 169:1.0 455:1.0 113:1.0 43:1.0 159:1.0 
90.0 1:-100.0 943:1.0 2523:1.0 1344:1.0 180:1.0 159:1.0 
14.919070239544881 1:0.3 1091:1.0 37:1.0 5:4.0 535:1.0 757:3.0 2524:1.0 479:1.0 1153:1.0 1300:1.0 13:3.0 61:1.0 2525:1.0 2526:1.0 191:1.0 1240:1.0 238:2.0 52:1.0 2527:1.0 363:1.0 2163:1.0 113:1.0 2528:1.0 2529:1.0 306:1.0 29:1.0 2530:1.0 606:1.0 1828:1.0 337:1.0 
61.89098696599377 1:0.09375 2531:1.0 1153:1.0 191:2.0 113:1.0 8:2.0 180:1.0 320:1.0 153:1.0 2529:1.0 429:1.0 328:1.0 2532:1.0 663:1.0 2533:1.0 1330:1.0 2534:1.0 5:1.0 1991:1.0 13:1.0 
90.0 1:-100.0 1564:1.0 1565:1.0 17:1.0 820:1.0 2071:1.0 363:1.0 2535:1.0 2536:1.0 70:1.0 13:1.0 
1.3408858407005235 1:0.625 2548:1.0 35:1.0 447:1.0 93:2.0 2411:1.0 5:1.0 2549:1.0 
68.59467889558192 1:0.0625 2555:1.0 1074:1.0 2138:1.0 46:1.0 2411:1.0 484:1.0 13:2.0 197:1.0 189:1.0 2556:1.0 39:1.0 289:1.0 2557:1.0 286:1.0 702:1.0 2143:1.0 671:1.0 1613:1.0 176:1.0 2558:1.0 
12.382032876981475 1:-100.0 2559:1.0 358:1.0 258:3.0 344:1.0 405:2.0 342:2.0 2232:1.0 338:7.0 391:1.0 430:1.0 1223:1.0 370:1.0 13:2.0 346:1.0 253:3.0 2233:1.0 376:3.0 256:3.0 1219:1.0 250:1.0 352:1.0 2560:1.0 259:1.0 2561:1.0 5:1.0 289:1.0 306:1.0 401:1.0 1579:1.0 377:1.0 262:1.0 
61.684364547539154 1:0.5 1611:1.0 2557:1.0 180:1.0 1719:1.0 13:1.0 
90.0 1:-100.0 2542:1.0 
0.1680496703853308 1:0.625 743:1.0 2562:3.0 2411:3.0 2007:1.0 70:3.0 594:1.0 430:1.0 26:1.0 39:3.0 55:2.0 2563:1.0 2564:1.0 18:1.0 275:1.0 29:2.0 1981:2.0 169:2.0 75:1.0 17:1.0 52:1.0 2565:1.0 603:1.0 84:1.0 262:1.0 2566:1.0 22:1.0 680:1.0 46:1.0 135:2.0 1336:1.0 2567:1.0 1590:2.0 1499:1.0 1976:1.0 447:1.0 54:1.0 858:1.0 189:1.0 159:1.0 
10.19630132811126 1:0.375 290:1.0 328:2.0 6:1.0 7:2.0 1036:1.0 455:1.0 1473:2.0 5:1.0 145:1.0 207:1.0 153:1.0 2568:1.0 2434:1.0 2569:1.0 3:1.0 37:1.0 26:1.0 108:1.0 75:1.0 13:1.0 
90.0 1:0.375 1473:1.0 
90.0 1:0.1416666666666667 1023:1.0 46:1.0 1473:1.0 209:1.0 2570:1.0 345:1.0 2571:1.0 
90.0 1:-100.0 1366:1.0 250:1.0 251:1.0 2459:1.0 10:1.0 93:1.0 
8.352478549647289 1:0.16666666666666666 2572:1.0 65:1.0 2573:1.0 1321:1.0 13:2.0 2574:1.0 10:1.0 2575:1.0 1300:1.0 2576:1.0 323:2.0 2577:3.0 2578:1.0 482:2.0 75:1.0 2579:3.0 169:2.0 67:2.0 2580:1.0 2581:1.0 997:2.0 574:1.0 2582:1.0 5:4.0 509:1.0 275:1.0 39:2.0 1310:1.0 1370:1.0 2583:1.0 2584:1.0 1066:3.0 191:1.0 130:1.0 48:1.0 546:1.0 29:1.0 2585:1.0 43:1.0 2586:1.0 31:1.0 8:1.0 17:1.0 1153:1.0 171:1.0 41:2.0 2587:1.0 27:1.0 532:1.0 198:1.0 2588:1.0 159:1.0 
3.7065678778783724 1:0.53125 847:1.0 726:1.0 620:1.0 37:1.0 39:3.0 1296:1.0 2589:1.0 1678:1.0 82:1.0 13:3.0 28:1.0 29:1.0 41:1.0 79:1.0 189:1.0 1017:2.0 2590:1.0 278:1.0 17:1.0 1370:1.0 133:1.0 43:1.0 454:1.0 
54.94169856703356 1:-100.0 328:1.0 15:1.0 1161:1.0 1321:1.0 37:1.0 67:2.0 315:1.0 218:1.0 2572:1.0 65:1.0 2591:2.0 175:1.0 44:2.0 5:1.0 1545:1.0 2592:1.0 130:1.0 2593:1.0 191:1.0 2594:1.0 
90.0 1:-100.0 621:2.0 753:2.0 404:2.0 1066:1.0 35:1.0 1067:1.0 118:1.0 2275:1.0 2130:1.0 639:1.0 36:1.0 1758:1.0 385:1.0 852:1.0 274:1.0 3:1.0 46:1.0 134:1.0 2595:1.0 
90.0 1:-0.125 164:1.0 37:1.0 1023:1.0 81:1.0 663:1.0 1074:1.0 148:1.0 47:1.0 93:1.0 265:1.0 2596:1.0 2597:1.0 3:1.0 27:1.0 328:1.0 769:1.0 8:1.0 957:1.0 226:1.0 13:1.0 
33.401086201326834 1:0.16666666666666666 135:2.0 730:1.0 44:1.0 39:1.0 1370:1.0 2598:1.0 289:1.0 13:2.0 199:2.0 2599:1.0 1106:1.0 153:1.0 14:2.0 315:1.0 2600:1.0 455:1.0 601:1.0 331:2.0 1734:2.0 262:1.0 93:1.0 340:1.0 98:1.0 1960:1.0 65:1.0 323:1.0 130:1.0 2601:1.0 
7.876021671836971 1:0.028571428571428564 2609:1.0 1256:4.0 159:4.0 1509:1.0 2610:1.0 327:1.0 455:1.0 1114:1.0 47:1.0 2611:1.0 191:2.0 2612:1.0 1205:1.0 2613:1.0 1193:1.0 2614:1.0 175:1.0 13:3.0 461:2.0 26:2.0 199:3.0 481:1.0 209:1.0 3:1.0 456:1.0 5:3.0 48:1.0 2615:1.0 416:1.0 2616:1.0 323:2.0 1339:1.0 1137:1.0 775:1.0 2617:1.0 321:1.0 1995:1.0 1199:2.0 2618:1.0 183:2.0 10:1.0 448:1.0 381:1.0 8:1.0 533:1.0 1842:1.0 429:1.0 65:1.0 45:1.0 17:1.0 2619:1.0 2620:1.0 36:1.0 423:1.0 37:1.0 
90.0 1:-100.0 1274:1.0 
27.49442966297731 1:0.075 753:2.0 404:2.0 327:3.0 435:1.0 207:1.0 806:1.0 47:1.0 502:1.0 37:1.0 5:2.0 1776:1.0 46:1.0 2621:1.0 804:1.0 39:1.0 143:1.0 48:1.0 98:1.0 275:1.0 180:1.0 2622:1.0 10:2.0 2023:1.0 175:1.0 199:1.0 481:1.0 2614:1.0 2440:1.0 2264:1.0 2623:1.0 2624:1.0 2625:1.0 13:1.0 
46.51356117266576 1:0.024999999999999984 135:1.0 55:1.0 2264:1.0 2626:1.0 5:1.0 2627:1.0 1125:1.0 262:1.0 209:2.0 2269:1.0 191:2.0 1176:1.0 2628:1.0 2629:1.0 1256:1.0 143:1.0 1611:1.0 741:1.0 2376:1.0 1509:1.0 13:1.0 1177:1.0 1178:1.0 455:1.0 1179:1.0 10:1.0 2630:1.0 17:1.0 2631:1.0 1274:1.0 159:1.0 
90.0 1:-100.0 2632:1.0 1262:1.0 2633:1.0 159:1.0 
57.045359944681024 1:0.20833333333333334 180:1.0 2612:1.0 17:2.0 2631:2.0 39:1.0 2598:1.0 2634:1.0 199:1.0 1499:1.0 2411:1.0 24:1.0 461:1.0 730:1.0 191:1.0 2635:1.0 8:1.0 77:1.0 
90.0 1:-100.0 2636:1.0 28:1.0 2637:1.0 
47.71237055164571 1:0.375 858:1.0 2638:1.0 2639:1.0 5:2.0 1256:2.0 2631:1.0 180:1.0 2614:1.0 2609:1.0 
90.0 1:-100.0 558:1.0 338:2.0 391:1.0 368:1.0 250:1.0 254:1.0 2640:1.0 345:1.0 251:1.0 5:1.0 
90.0 1:-100.0 199:1.0 2001:1.0 1274:1.0 
20.509535673889896 1:-0.3333333333333333 1256:6.0 29:1.0 17:2.0 36:1.0 1065:1.0 37:1.0 130:1.0 238:1.0 191:1.0 2641:1.0 13:3.0 623:1.0 767:1.0 153:2.0 1181:2.0 2467:2.0 1177:2.0 2642:1.0 2643:1.0 1185:1.0 1622:1.0 806:1.0 1452:1.0 2644:1.0 461:2.0 480:3.0 2645:1.0 2646:1.0 5:1.0 2617:1.0 39:1.0 750:1.0 113:2.0 18:1.0 546:1.0 1590:1.0 
36.855577496586974 1:-100.0 2647:1.0 29:1.0 1256:2.0 2648:1.0 253:2.0 254:1.0 2649:1.0 70:3.0 13:1.0 973:1.0 1599:1.0 361:1.0 258:1.0 398:1.0 751:1.0 153:1.0 1181:1.0 1177:1.0 1178:1.0 323:1.0 252:1.0 338:1.0 251:1.0 533:1.0 1171:1.0 352:1.0 2650:1.0 
37.67408922425136 1:-100.0 494:1.0 143:1.0 2654:1.0 2655:1.0 159:6.0 
59.1910059073135 1:0.25 1256:1.0 406:1.0 90:1.0 713:1.0 130:1.0 2662:1.0 2663:1.0 159:3.0 
0.5038448174311694 1:0.5625 957:1.0 39:1.0 1712:1.0 91:1.0 130:2.0 2411:1.0 191:2.0 2664:1.0 2665:1.0 5:2.0 180:1.0 2666:1.0 197:1.0 1995:1.0 1145:1.0 124:1.0 2667:1.0 17:1.0 65:1.0 437:1.0 2668:1.0 2669:1.0 545:1.0 1143:1.0 190:1.0 822:1.0 77:1.0 518:1.0 1198:1.0 601:1.0 1981:1.0 331:1.0 1734:1.0 82:1.0 2670:1.0 13:1.0 
80.22428511525438 1:-0.75 44:2.0 41:1.0 52:1.0 17:2.0 1210:2.0 13:3.0 145:1.0 328:1.0 39:1.0 2671:1.0 326:1.0 169:2.0 127:1.0 2672:1.0 673:1.0 47:1.0 2673:1.0 487:2.0 33:1.0 199:1.0 2674:1.0 1211:1.0 262:1.0 806:1.0 34:1.0 153:1.0 770:1.0 1352:1.0 454:1.0 
5.5906665352393246 1:0.41250000000000003 67:1.0 315:1.0 418:1.0 435:1.0 2675:1.0 1239:1.0 1240:1.0 29:1.0 41:2.0 320:1.0 13:3.0 2676:1.0 2677:1.0 37:2.0 130:1.0 1254:1.0 191:1.0 963:1.0 2678:1.0 363:1.0 5:5.0 2679:1.0 832:1.0 118:2.0 1304:1.0 2680:1.0 65:1.0 2681:1.0 2682:1.0 2683:1.0 2004:1.0 1300:1.0 1003:1.0 770:1.0 2283:1.0 1330:1.0 44:1.0 39:1.0 421:1.0 90:1.0 3:1.0 93:1.0 979:1.0 278:1.0 120:1.0 215:1.0 285:1.0 169:1.0 982:1.0 454:1.0 
90.0 1:-100.0 1330:1.0 1491:1.0 2684:1.0 82:1.0 1254:1.0 159:1.0 
3.044028670977927 1:0.625 1239:1.0 1240:1.0 1144:1.0 47:1.0 832:1.0 39:2.0 1264:1.0 370:1.0 804:1.0 2685:1.0 133:1.0 191:1.0 1254:1.0 108:1.0 145:1.0 207:1.0 496:1.0 65:1.0 199:1.0 98:1.0 447:1.0 293:1.0 3:1.0 118:1.0 320:1.0 1248:1.0 75:1.0 13:1.0 
34.44630078542556 1:0.2 54:1.0 153:1.0 35:1.0 2686:1.0 2311:1.0 2687:1.0 218:1.0 2221:1.0 130:1.0 320:1.0 13:3.0 26:1.0 2675:1.0 882:1.0 323:1.0 1590:1.0 2688:1.0 8:1.0 1843:1.0 2387:1.0 29:1.0 1051:1.0 191:1.0 2689:1.0 454:1.0 169:1.0 
12.176623859485886 1:-100.0 343:2.0 253:7.0 254:2.0 2422:1.0 355:2.0 401:2.0 135:1.0 2045:1.0 258:1.0 338:2.0 1085:1.0 256:4.0 578:2.0 2690:1.0 250:3.0 391:3.0 571:1.0 371:1.0 2691:1.0 251:1.0 368:1.0 352:1.0 2692:1.0 982:1.0 408:1.0 
90.0 1:-100.0 2701:1.0 1734:1.0 28:1.0 29:1.0 143:1.0 1274:1.0 
13.411362391226483 1:0.1875 180:2.0 2405:1.0 143:2.0 2702:1.0 5:2.0 1256:3.0 775:1.0 10:1.0 1070:1.0 1066:1.0 35:1.0 1067:1.0 145:1.0 2487:1.0 175:2.0 2703:1.0 1370:1.0 209:1.0 2704:1.0 13:4.0 2705:1.0 41:1.0 39:1.0 98:1.0 623:1.0 2706:1.0 8:2.0 43:2.0 591:1.0 289:1.0 1656:1.0 37:1.0 1126:2.0 290:1.0 27:1.0 281:1.0 44:1.0 359:1.0 455:1.0 113:1.0 373:1.0 2707:1.0 545:1.0 1205:1.0 956:1.0 418:1.0 153:1.0 2708:1.0 2709:1.0 2710:1.0 197:1.0 1113:1.0 278:1.0 26:1.0 29:1.0 2711:1.0 2235:1.0 2712:1.0 
90.0 1:-0.3125 508:1.0 744:1.0 10:1.0 592:1.0 2713:1.0 17:1.0 36:1.0 2714:1.0 2715:1.0 2716:1.0 1858:1.0 70:1.0 169:1.0 118:1.0 702:1.0 1179:1.0 5:1.0 1949:1.0 175:1.0 481:1.0 180:1.0 2717:1.0 
90.0 1:0.375 2610:1.0 1864:1.0 1114:1.0 70:1.0 
90.0 1:-100.0 2718:1.0 175:1.0 232:1.0 753:2.0 404:2.0 2719:1.0 2720:1.0 
5.711889485996705 1:0.53125 2713:1.0 2722:1.0 1331:1.0 1599:1.0 31:1.0 89:1.0 34:1.0 850:2.0 851:2.0 852:2.0 853:2.0 2723:1.0 288:1.0 153:1.0 25:1.0 2411:1.0 484:1.0 1231:1.0 13:1.0 2462:1.0 159:1.0 
31.879474534890342 1:0.09375000000000003 10:1.0 686:1.0 297:1.0 183:1.0 3:1.0 238:1.0 481:1.0 52:2.0 1551:1.0 153:1.0 890:1.0 8:1.0 44:1.0 143:1.0 1214:1.0 5:2.0 2724:1.0 209:1.0 2725:1.0 175:1.0 17:1.0 910:1.0 37:2.0 29:2.0 134:1.0 2726:1.0 70:1.0 591:1.0 1126:1.0 520:1.0 63:1.0 783:1.0 2727:1.0 191:1.0 359:1.0 306:1.0 2136:1.0 
90.0 1:-100.0 2039:1.0 2728:1.0 621:1.0 773:1.0 
90.0 1:-100.0 2290:2.0 2077:1.0 2732:1.0 2733:1.0 159:1.0 
90.0 1:-100.0 2610:1.0 175:1.0 327:1.0 486:1.0 5:1.0 31:1.0 2734:1.0 27:1.0 1114:1.0 70:1.0 19:1.0 
90.0 1:-100.0 2735:1.0 2604:1.0 1227:1.0 2736:1.0 2737:1.0 2738:1.0 563:1.0 2739:1.0 159:1.0 
90.0 1:-100.0 2740:1.0 2741:1.0 2742:1.0 2743:1.0 13:1.0 2744:1.0 2745:1.0 2746:1.0 352:1.0 
75.10948752073493 1:0.0 171:1.0 175:1.0 329:1.0 494:2.0 2611:1.0 13:2.0 10:1.0 2747:1.0 2748:1.0 325:1.0 27:1.0 113:1.0 43:1.0 1199:1.0 37:1.0 2749:1.0 2750:1.0 1582:1.0 2663:1.0 486:1.0 342:1.0 159:1.0 
90.0 1:0.1875 2405:1.0 8:1.0 1205:1.0 13:2.0 159:1.0 
90.0 1:-100.0 1510:1.0 180:1.0 2661:1.0 47:1.0 39:1.0 2039:1.0 325:1.0 159:1.0 
12.501439716523999 1:0.5 2512:1.0 416:1.0 2614:1.0 5:1.0 2751:1.0 191:1.0 2752:1.0 209:1.0 1256:1.0 13:2.0 159:1.0 
13.36557482970516 1:0.3333333333333333 2753:1.0 145:2.0 2754:1.0 191:2.0 1888:1.0 175:2.0 832:1.0 5:1.0 2385:1.0 67:1.0 858:1.0 2755:1.0 3:2.0 327:3.0 2756:1.0 13:3.0 2757:1.0 1338:1.0 1333:2.0 366:1.0 281:1.0 2586:1.0 130:1.0 120:1.0 545:1.0 418:1.0 943:1.0 929:1.0 47:1.0 306:1.0 29:1.0 1895:1.0 
18.590766222829913 1:0.5 2758:1.0 29:2.0 175:1.0 2759:1.0 145:1.0 165:1.0 2204:1.0 564:1.0 1332:1.0 198:1.0 2760:1.0 877:1.0 148:1.0 13:1.0 
66.29819553613174 1:0.125 2761:1.0 3:1.0 323:1.0 2688:1.0 82:1.0 5:1.0 52:1.0 2516:1.0 17:1.0 2762:1.0 770:2.0 2438:1.0 180:1.0 2384:1.0 41:1.0 2763:1.0 8:1.0 421:1.0 13:1.0 
31.200186927493696 1:0.0625 1023:1.0 315:2.0 39:2.0 2764:1.0 131:1.0 65:1.0 2238:1.0 564:1.0 1332:1.0 148:1.0 218:1.0 133:1.0 125:1.0 454:2.0 5:2.0 2765:1.0 29:1.0 658:1.0 198:1.0 2766:1.0 2767:1.0 197:1.0 262:1.0 165:1.0 1786:1.0 1787:1.0 1788:1.0 169:1.0 41:1.0 42:1.0 223:1.0 1554:1.0 37:1.0 326:1.0 225:1.0 159:1.0 
16.806603803350086 1:0.375 2768:2.0 2769:2.0 1274:1.0 5:3.0 770:1.0 2376:1.0 153:1.0 2526:3.0 2770:1.0 2771:1.0 449:1.0 303:1.0 1937:1.0 2772:1.0 13:1.0 2634:1.0 2773:1.0 2774:1.0 70:1.0 
50.489435102573765 1:0.25 42:1.0 455:1.0 1491:1.0 500:1.0 2775:1.0 2421:1.0 2776:1.0 480:1.0 730:1.0 1053:1.0 621:1.0 2491:1.0 753:2.0 404:2.0 2777:1.0 619:1.0 2778:1.0 2779:1.0 37:1.0 
90.0 1:-100.0 2768:1.0 2769:1.0 1274:1.0 159:1.0 
90.0 1:-100.0 2780:1.0 2639:2.0 5:1.0 17:1.0 572:1.0 13:1.0 
13.153053787474178 1:0.5 260:2.0 429:2.0 858:1.0 572:1.0 2639:1.0 209:1.0 416:1.0 2781:1.0 2782:1.0 67:1.0 1028:1.0 890:1.0 2783:1.0 36:1.0 461:1.0 2780:1.0 124:1.0 922:1.0 2784:1.0 
90.0 1:-100.0 1274:2.0 175:1.0 199:1.0 159:1.0 
3.2963133078335725 1:0.5625 197:1.0 481:1.0 775:1.0 14:1.0 2490:1.0 858:1.0 191:1.0 456:1.0 2526:1.0 2770:1.0 3:1.0 770:1.0 29:1.0 2785:1.0 2786:1.0 159:1.0 
90.0 1:-0.5 518:1.0 8:1.0 858:1.0 1256:1.0 462:1.0 13:1.0 
8.135221784705962 1:0.625 152:1.0 258:1.0 406:1.0 253:1.0 1764:1.0 393:1.0 338:1.0 256:1.0 454:1.0 159:1.0 67:1.0 315:1.0 935:1.0 93:1.0 
23.923504780034317 1:-100.0 358:1.0 250:9.0 398:1.0 2791:1.0 2792:1.0 13:3.0 347:1.0 2793:2.0 258:2.0 254:1.0 256:2.0 364:1.0 352:2.0 557:1.0 209:1.0 354:1.0 412:1.0 391:2.0 1366:1.0 251:1.0 1330:1.0 1135:1.0 384:1.0 576:1.0 
62.86291087066251 1:0.4375 2477:1.0 180:1.0 191:1.0 2794:1.0 13:1.0 2795:1.0 2796:1.0 
8.717296286250162 1:0.5 2797:1.0 2796:1.0 2798:1.0 5:4.0 260:1.0 180:1.0 592:1.0 134:1.0 2799:1.0 37:1.0 284:1.0 47:1.0 1351:1.0 744:1.0 535:1.0 3:1.0 2800:1.0 2316:1.0 965:1.0 135:1.0 1300:1.0 43:2.0 2801:1.0 31:1.0 
3.8305814468940524 1:0.1640625 1949:2.0 2525:1.0 2802:1.0 175:1.0 17:1.0 594:1.0 556:2.0 320:1.0 5:12.0 774:1.0 285:2.0 363:1.0 191:3.0 488:1.0 41:2.0 2020:1.0 13:5.0 218:1.0 197:1.0 490:1.0 429:1.0 61:1.0 2803:2.0 2804:1.0 770:5.0 2805:1.0 63:1.0 507:1.0 2806:1.0 2807:2.0 2808:1.0 2809:1.0 36:1.0 2210:1.0 143:1.0 2810:1.0 2811:2.0 1534:1.0 2326:1.0 73:1.0 2812:1.0 54:1.0 860:1.0 816:1.0 775:1.0 1024:1.0 2813:1.0 2814:1.0 2815:1.0 663:1.0 2816:1.0 37:1.0 281:1.0 1789:1.0 347:1.0 2817:1.0 262:2.0 113:1.0 2818:1.0 2819:1.0 2820:1.0 2821:1.0 639:1.0 2822:1.0 153:1.0 215:2.0 982:1.0 621:1.0 84:1.0 39:1.0 130:2.0 75:2.0 2823:1.0 8:1.0 74:1.0 2824:1.0 1245:1.0 145:1.0 46:1.0 2700:1.0 2425:1.0 88:1.0 416:1.0 2825:1.0 65:1.0 451:1.0 2826:1.0 120:1.0 159:1.0 
90.0 1:-0.0625 1274:1.0 8:1.0 416:1.0 2620:1.0 191:1.0 2020:1.0 13:1.0 
3.0392331625898037 1:0.5625 2627:1.0 455:1.0 2656:1.0 65:1.0 199:1.0 2827:1.0 2828:1.0 175:2.0 143:1.0 17:1.0 2631:1.0 191:1.0 2829:1.0 2830:1.0 2613:1.0 197:1.0 1256:1.0 2831:1.0 2832:1.0 47:1.0 416:1.0 462:1.0 104:1.0 13:1.0 
4.877817684308159 1:0.5 2015:3.0 997:1.0 17:1.0 2631:1.0 46:1.0 74:1.0 1400:3.0 169:2.0 63:1.0 5:2.0 41:1.0 39:2.0 3:1.0 1013:1.0 2833:1.0 2834:1.0 2835:1.0 191:1.0 2836:1.0 153:1.0 2837:1.0 27:1.0 2838:1.0 159:1.0 
12.107446771321287 1:0.2916666666666667 2839:1.0 1960:1.0 2051:1.0 323:1.0 363:1.0 1112:1.0 2840:1.0 159:6.0 41:1.0 204:1.0 213:1.0 1023:1.0 52:1.0 1889:1.0 479:1.0 2841:1.0 686:1.0 37:1.0 117:1.0 189:1.0 46:1.0 421:1.0 924:1.0 2842:2.0 429:1.0 24:1.0 2632:1.0 207:1.0 2843:1.0 5:1.0 3:1.0 2328:1.0 1310:1.0 2844:1.0 850:1.0 851:1.0 852:1.0 853:1.0 120:1.0 93:1.0 
1.8785677335128002 1:0.5 1079:2.0 253:3.0 344:2.0 381:1.0 2845:1.0 2846:1.0 258:6.0 2847:1.0 250:6.0 391:3.0 2848:1.0 358:2.0 42:1.0 2054:1.0 972:1.0 997:1.0 2045:1.0 401:1.0 338:4.0 254:2.0 378:1.0 352:1.0 965:1.0 394:1.0 13:3.0 2849:1.0 256:2.0 2850:1.0 2851:1.0 1216:1.0 2295:1.0 2852:1.0 2853:1.0 1971:1.0 340:1.0 2854:1.0 408:1.0 405:1.0 2855:2.0 1167:1.0 251:1.0 2856:1.0 558:1.0 302:1.0 289:1.0 368:1.0 372:1.0 
85.5713955440936 1:-100.0 93:1.0 760:1.0 5:1.0 741:1.0 2857:1.0 447:1.0 26:1.0 556:1.0 1336:1.0 39:1.0 43:1.0 1611:1.0 2858:1.0 37:1.0 36:1.0 2859:1.0 13:1.0 
54.82608689762268 1:0.125 1149:1.0 17:1.0 37:1.0 1478:1.0 1342:1.0 2860:1.0 209:1.0 2861:1.0 953:1.0 5:1.0 1889:1.0 2862:1.0 70:1.0 35:1.0 2143:1.0 2863:1.0 124:1.0 26:1.0 2601:1.0 10:1.0 61:1.0 2864:1.0 3:1.0 320:1.0 470:1.0 13:1.0 
68.88483280181535 1:-100.0 108:1.0 838:1.0 1451:1.0 2868:1.0 2869:1.0 262:1.0 890:1.0 2870:1.0 29:1.0 55:1.0 17:1.0 19:1.0 248:1.0 5:2.0 67:1.0 2627:1.0 180:1.0 2858:1.0 2871:1.0 13:1.0 
90.0 1:-100.0 705:1.0 5:1.0 284:1.0 2872:1.0 10:1.0 741:1.0 13:1.0 
19.37803333940155 1:0.2708333333333333 2874:1.0 35:1.0 895:1.0 1359:1.0 3:1.0 2875:1.0 323:1.0 320:2.0 108:1.0 1330:1.0 13:3.0 2574:1.0 135:1.0 42:1.0 769:1.0 90:1.0 14:1.0 2473:1.0 275:1.0 29:1.0 232:1.0 2876:1.0 191:1.0 327:1.0 2758:1.0 65:1.0 1073:1.0 2877:1.0 175:1.0 1054:1.0 278:1.0 381:1.0 2467:1.0 1178:1.0 1960:1.0 1534:1.0 82:1.0 2878:1.0 1299:1.0 2879:1.0 8:1.0 1976:1.0 
11.351360415874804 1:0.40625 35:1.0 2880:1.0 2722:1.0 320:1.0 108:1.0 5:1.0 17:1.0 319:1.0 764:1.0 1100:1.0 2881:1.0 26:1.0 41:1.0 730:1.0 39:1.0 2882:1.0 265:1.0 8:1.0 44:1.0 1155:1.0 13:2.0 1008:1.0 429:1.0 90:1.0 
6.539380233316699 1:0.5 2883:1.0 218:1.0 35:1.0 65:1.0 2722:1.0 320:2.0 108:1.0 5:1.0 319:1.0 2884:1.0 2881:1.0 1013:1.0 2882:1.0 2885:1.0 43:1.0 13:1.0 197:1.0 2467:3.0 215:1.0 1534:1.0 207:1.0 2886:1.0 3:1.0 2222:1.0 2325:1.0 8:1.0 289:1.0 911:1.0 275:1.0 1299:1.0 159:2.0 
71.33843849529464 1:-100.0 1432:1.0 2887:1.0 601:1.0 315:1.0 822:1.0 2870:1.0 262:1.0 1547:1.0 5:2.0 554:1.0 1081:1.0 37:1.0 46:1.0 43:1.0 26:1.0 39:1.0 2888:1.0 2889:1.0 
21.025128213612064 1:0.5 116:1.0 26:1.0 1182:1.0 1582:1.0 27:1.0 153:1.0 601:1.0 262:1.0 1547:1.0 275:1.0 13:1.0 2375:1.0 421:1.0 1428:1.0 1429:1.0 261:1.0 5:1.0 41:1.0 823:1.0 1939:1.0 98:1.0 81:1.0 
90.0 1:0.25 122:1.0 180:1.0 2895:1.0 199:1.0 1327:1.0 498:1.0 209:1.0 37:1.0 
9.417052212344668 1:0.5 421:1.0 2896:1.0 39:2.0 730:1.0 663:1.0 1597:1.0 135:2.0 13:2.0 2897:1.0 52:1.0 2898:1.0 2899:1.0 82:1.0 429:1.0 55:1.0 2900:1.0 1088:1.0 2901:1.0 963:1.0 251:1.0 133:1.0 472:2.0 26:1.0 2902:1.0 2903:1.0 165:1.0 2904:1.0 2905:1.0 2906:1.0 54:1.0 1151:1.0 95:1.0 
90.0 1:0.0625 2908:1.0 472:1.0 41:2.0 730:1.0 39:1.0 1973:1.0 429:1.0 2909:1.0 597:1.0 19:1.0 
90.0 1:-100.0 134:1.0 2595:1.0 93:1.0 159:1.0 
90.0 1:0.06666666666666665 2913:1.0 29:1.0 143:1.0 424:1.0 2438:1.0 5:1.0 145:1.0 1630:1.0 1509:1.0 455:1.0 806:1.0 74:1.0 303:1.0 197:1.0 1628:1.0 2426:1.0 429:1.0 13:1.0 
41.192482956955985 1:0.5 488:1.0 363:1.0 3:1.0 489:1.0 485:1.0 75:1.0 5:1.0 87:1.0 39:1.0 98:1.0 169:1.0 52:1.0 846:1.0 24:1.0 159:1.0 
49.815397135389325 1:0.25 2918:1.0 603:1.0 143:2.0 2491:1.0 775:1.0 5:3.0 2919:1.0 1660:1.0 2920:1.0 2487:1.0 2639:1.0 
0.24814725918221503 1:0.5833333333333334 47:1.0 306:1.0 29:1.0 2105:1.0 878:1.0 218:1.0 600:3.0 1734:2.0 133:1.0 765:1.0 262:1.0 745:1.0 13:3.0 5:2.0 38:1.0 41:1.0 32:1.0 98:1.0 1995:1.0 70:2.0 455:1.0 1491:1.0 2921:1.0 2922:1.0 2923:1.0 35:1.0 143:1.0 2924:1.0 2925:1.0 175:1.0 832:1.0 2926:1.0 481:1.0 2080:1.0 45:1.0 
90.0 1:-100.0 2113:1.0 206:1.0 134:1.0 2927:1.0 159:1.0 
17.62823951477038 1:0.5 207:1.0 39:1.0 285:1.0 44:2.0 46:1.0 262:1.0 745:1.0 5:1.0 47:1.0 730:1.0 2794:1.0 1149:1.0 275:1.0 1323:1.0 326:1.0 191:1.0 224:1.0 13:1.0 
21.985516155409943 1:0.5 2928:1.0 1090:1.0 1069:1.0 29:1.0 673:1.0 285:1.0 1534:1.0 145:1.0 46:1.0 134:1.0 153:1.0 43:1.0 745:1.0 1523:1.0 822:1.0 2918:1.0 13:1.0 
5.425360045555112 1:0.5416666666666666 2929:1.0 44:1.0 39:1.0 75:1.0 285:1.0 153:4.0 43:2.0 1100:1.0 745:1.0 143:1.0 2113:1.0 1523:1.0 822:1.0 600:2.0 70:1.0 730:1.0 5:2.0 2930:1.0 113:1.0 878:1.0 13:1.0 
61.41861609317385 1:0.6 979:1.0 159:1.0 
2.460244670571146 1:0.48214285714285715 251:1.0 2931:1.0 29:4.0 1649:2.0 272:4.0 637:1.0 183:1.0 175:2.0 1646:2.0 13:5.0 27:1.0 2932:1.0 218:1.0 2368:1.0 643:1.0 1207:1.0 2405:1.0 5:2.0 315:2.0 359:1.0 592:1.0 542:1.0 26:1.0 320:1.0 135:2.0 1919:1.0 508:1.0 2933:1.0 1088:1.0 1966:1.0 429:1.0 2934:1.0 95:1.0 1756:1.0 39:2.0 1174:1.0 101:1.0 275:1.0 1353:1.0 3:1.0 997:1.0 199:2.0 1264:1.0 2004:1.0 46:2.0 605:1.0 534:1.0 10:1.0 1304:1.0 191:1.0 1601:1.0 1652:1.0 28:1.0 2935:1.0 2936:1.0 2937:1.0 1318:1.0 197:1.0 1670:1.0 588:1.0 238:1.0 52:1.0 2938:1.0 47:1.0 877:1.0 2184:1.0 2617:1.0 982:1.0 1590:1.0 2939:1.0 
24.26485842863087 1:0.08333333333333333 2387:1.0 29:1.0 315:2.0 39:1.0 215:1.0 1318:2.0 153:1.0 1121:2.0 997:1.0 41:1.0 19:1.0 95:1.0 272:3.0 2004:2.0 3:1.0 241:1.0 52:1.0 2948:1.0 663:1.0 963:1.0 20:1.0 197:1.0 643:1.0 13:2.0 850:1.0 851:1.0 852:1.0 853:1.0 363:1.0 108:1.0 2385:1.0 130:1.0 75:1.0 5:1.0 898:1.0 169:1.0 54:1.0 2175:1.0 1761:1.0 209:1.0 455:1.0 328:1.0 
42.12686832206339 1:0.375 285:1.0 275:1.0 890:1.0 90:1.0 2958:1.0 26:1.0 1473:1.0 169:1.0 262:1.0 315:1.0 486:1.0 13:1.0 41:1.0 52:1.0 1853:1.0 663:1.0 588:1.0 1670:1.0 
0.43963509503332104 1:0.625 2282:2.0 556:1.0 328:1.0 251:1.0 2959:1.0 2932:1.0 25:2.0 2960:1.0 27:1.0 1109:1.0 753:2.0 404:2.0 2411:1.0 598:1.0 326:1.0 603:2.0 604:6.0 5:1.0 284:1.0 1989:1.0 180:1.0 2961:1.0 303:1.0 197:1.0 2962:1.0 176:1.0 13:2.0 1051:1.0 37:1.0 2146:1.0 2963:1.0 866:1.0 429:1.0 1088:1.0 55:1.0 2964:1.0 2617:1.0 315:1.0 982:1.0 272:1.0 2965:1.0 
43.63712491237633 1:0.5 795:1.0 100:1.0 224:1.0 13:1.0 2966:1.0 764:1.0 823:1.0 152:1.0 137:1.0 
90.0 1:-100.0 327:1.0 2973:1.0 2974:1.0 498:1.0 272:1.0 37:1.0 870:1.0 2975:1.0 2976:1.0 13:1.0 
65.39266724212405 1:0.18750000000000006 507:1.0 1843:1.0 8:1.0 55:1.0 1264:1.0 272:1.0 2977:1.0 2978:1.0 13:1.0 26:1.0 65:1.0 1149:1.0 285:1.0 37:1.0 46:1.0 41:1.0 39:1.0 75:1.0 2979:1.0 70:1.0 
29.66695732746876 1:0.4375 2827:1.0 1649:1.0 37:1.0 1174:1.0 2980:1.0 454:1.0 315:1.0 176:1.0 13:1.0 207:1.0 223:1.0 508:1.0 2020:1.0 2981:1.0 2982:1.0 323:1.0 2983:1.0 108:1.0 
10.204987267514007 1:0.25 207:1.0 29:3.0 327:3.0 3:2.0 65:1.0 1149:1.0 285:1.0 37:1.0 323:1.0 890:1.0 982:2.0 90:1.0 647:1.0 2984:1.0 25:1.0 1647:1.0 5:3.0 2890:1.0 272:1.0 151:1.0 627:1.0 2985:1.0 17:1.0 1370:1.0 604:1.0 145:1.0 54:1.0 1193:1.0 637:1.0 191:2.0 262:1.0 130:1.0 2819:1.0 1662:1.0 32:1.0 41:1.0 2184:1.0 159:2.0 2986:1.0 2229:1.0 34:1.0 42:1.0 943:1.0 929:1.0 545:1.0 687:1.0 
8.390546485559407 1:0.5 2289:1.0 272:1.0 362:1.0 997:2.0 565:1.0 2068:1.0 2304:1.0 2987:1.0 402:1.0 345:1.0 874:1.0 1233:1.0 2988:1.0 2989:1.0 982:1.0 2738:1.0 1245:1.0 2079:2.0 13:3.0 90:1.0 1216:1.0 1246:1.0 573:1.0 366:1.0 713:1.0 2067:1.0 2069:1.0 2990:1.0 2991:1.0 972:1.0 
89.17420623634763 1:-100.0 2980:1.0 3:1.0 982:1.0 2992:1.0 70:1.0 272:1.0 46:1.0 507:1.0 1642:1.0 5:1.0 1662:1.0 135:1.0 75:1.0 82:1.0 693:1.0 2993:1.0 
6.123007706460434 1:0.5 2994:1.0 1703:3.0 46:2.0 278:1.0 29:1.0 2995:1.0 2996:1.0 175:1.0 2997:1.0 2998:1.0 5:2.0 2999:1.0 69:1.0 197:1.0 3000:1.0 3001:1.0 2883:1.0 191:1.0 3002:1.0 1475:1.0 169:1.0 281:1.0 327:1.0 41:1.0 1157:1.0 47:1.0 54:2.0 3003:1.0 3004:1.0 3005:1.0 997:1.0 3006:1.0 213:1.0 13:3.0 
10.259417634699055 1:0.375 753:2.0 404:2.0 794:1.0 1473:1.0 306:1.0 148:1.0 5:1.0 3007:2.0 1702:1.0 435:1.0 
44.560805006302836 1:0.0625 1023:1.0 29:1.0 337:2.0 802:2.0 306:1.0 5:1.0 145:1.0 3:2.0 3008:1.0 3009:1.0 454:1.0 95:1.0 113:1.0 143:1.0 2084:1.0 34:1.0 678:2.0 769:1.0 90:1.0 3010:1.0 93:1.0 159:1.0 
90.0 1:-0.625 847:1.0 169:1.0 2611:1.0 93:1.0 5:1.0 2138:1.0 602:1.0 2084:1.0 2204:1.0 3013:1.0 3:1.0 198:1.0 3014:1.0 3015:1.0 753:2.0 404:2.0 319:1.0 37:1.0 3016:1.0 70:1.0 159:1.0 
11.160828836471978 1:0.5 1656:2.0 232:1.0 175:2.0 770:1.0 133:2.0 180:1.0 3017:1.0 13:2.0 308:1.0 327:1.0 27:1.0 435:1.0 1723:1.0 191:1.0 1730:1.0 29:1.0 997:1.0 183:1.0 741:1.0 95:1.0 
90.0 1:-100.0 130:1.0 3018:1.0 191:1.0 2612:1.0 232:1.0 17:1.0 175:1.0 3019:1.0 3020:1.0 13:1.0 
90.0 1:-100.0 2490:1.0 455:1.0 262:1.0 509:1.0 1712:1.0 1495:1.0 3021:1.0 804:1.0 3022:1.0 466:1.0 24:1.0 1501:1.0 70:1.0 
40.37709425236298 1:0.15625 421:1.0 3023:1.0 327:1.0 1011:1.0 3024:1.0 363:1.0 5:2.0 1535:1.0 189:1.0 318:2.0 46:1.0 35:1.0 911:1.0 1507:1.0 3025:1.0 178:1.0 261:1.0 168:1.0 108:2.0 847:1.0 848:1.0 960:1.0 37:1.0 1207:1.0 3003:1.0 336:1.0 13:1.0 
1.276598834315361 1:0.6666666666666666 15:1.0 306:1.0 108:1.0 838:1.0 22:1.0 3026:1.0 13:3.0 180:1.0 2512:1.0 3027:1.0 775:1.0 5:2.0 416:2.0 1254:1.0 1204:1.0 175:1.0 770:2.0 3028:1.0 455:1.0 43:1.0 590:1.0 130:1.0 320:1.0 
74.23486436054498 1:0.5 55:1.0 741:1.0 130:1.0 997:1.0 13:1.0 
90.0 1:-100.0 306:1.0 133:1.0 494:1.0 2816:1.0 232:1.0 2639:1.0 70:1.0 13:2.0 
34.13307888532063 1:0.3625 180:1.0 979:1.0 3033:1.0 70:3.0 3034:1.0 98:1.0 44:1.0 46:1.0 39:1.0 2490:1.0 209:1.0 914:1.0 770:1.0 323:1.0 1500:1.0 21:1.0 911:1.0 557:1.0 
5.947952383415409 1:0.5625 614:2.0 232:2.0 175:2.0 3019:1.0 180:1.0 3036:1.0 191:1.0 2613:1.0 5:1.0 847:1.0 726:1.0 328:1.0 997:1.0 108:1.0 24:1.0 21:1.0 3037:1.0 281:1.0 10:1.0 741:1.0 3031:1.0 159:1.0 
49.777158862729 1:0.625 180:1.0 2512:1.0 70:1.0 
3.813638423692675 1:0.5625 260:1.0 509:1.0 3038:1.0 3:1.0 3039:1.0 3040:1.0 191:3.0 3041:1.0 455:1.0 3042:1.0 2526:1.0 1743:1.0 775:1.0 3043:1.0 1886:1.0 153:1.0 3044:1.0 3045:1.0 126:1.0 1738:1.0 1736:1.0 159:1.0 
90.0 1:0.375 1628:1.0 1734:1.0 2614:1.0 180:1.0 13:1.0 
2.546322500523451 1:0.5833333333333334 39:1.0 2986:1.0 663:1.0 3046:1.0 18:1.0 603:1.0 1741:1.0 220:1.0 169:1.0 3047:1.0 775:1.0 191:1.0 416:1.0 2614:1.0 2405:1.0 13:2.0 65:1.0 3048:1.0 275:1.0 133:1.0 278:1.0 29:1.0 2467:1.0 1177:1.0 3049:1.0 574:1.0 
90.0 1:-0.125 331:1.0 1177:1.0 3050:1.0 2069:1.0 2663:1.0 5:1.0 362:1.0 455:1.0 29:1.0 143:1.0 17:1.0 424:1.0 1720:1.0 159:1.0 
90.0 1:0.125 3051:1.0 70:1.0 
16.62879625566905 1:0.5 69:1.0 197:1.0 3052:1.0 726:1.0 5:1.0 623:1.0 2529:1.0 730:1.0 44:1.0 455:1.0 477:1.0 530:1.0 1108:1.0 3053:1.0 218:1.0 41:1.0 823:1.0 265:1.0 3054:1.0 3055:1.0 37:1.0 13:1.0 3056:1.0 133:1.0 724:1.0 3057:1.0 3058:1.0 1381:1.0 19:1.0 
25.711120889238405 1:0.1 509:1.0 209:1.0 783:1.0 847:1.0 2369:1.0 3059:1.0 175:1.0 44:2.0 3:1.0 623:1.0 3060:1.0 603:1.0 2922:1.0 1308:1.0 1150:1.0 970:1.0 967:1.0 388:1.0 191:2.0 41:1.0 754:1.0 3061:1.0 1638:1.0 29:1.0 42:1.0 8:1.0 725:1.0 288:1.0 197:1.0 1582:1.0 1537:1.0 48:1.0 1727:1.0 804:2.0 907:1.0 908:1.0 870:1.0 3058:1.0 3062:1.0 159:1.0 
2.329348534095667 1:0.5625 686:1.0 3064:1.0 290:1.0 264:1.0 2322:1.0 1480:1.0 572:1.0 5:2.0 145:2.0 197:1.0 3065:1.0 3066:1.0 3067:1.0 13:3.0 3068:1.0 1178:1.0 2411:1.0 2890:2.0 75:1.0 1124:1.0 1108:1.0 103:1.0 41:2.0 26:1.0 473:1.0 25:1.0 17:1.0 775:1.0 143:1.0 1262:1.0 654:1.0 602:1.0 182:1.0 37:1.0 326:1.0 3069:1.0 
4.227571857678415 1:0.625 1756:1.0 39:1.0 75:1.0 669:1.0 3070:1.0 3071:1.0 63:1.0 3072:1.0 10:1.0 1613:1.0 655:1.0 37:1.0 13:1.0 
15.29411738167255 1:0.4375 84:1.0 39:2.0 3073:1.0 1790:1.0 1179:1.0 3:2.0 207:1.0 315:1.0 262:2.0 10:1.0 1613:1.0 655:1.0 37:1.0 5:1.0 1262:1.0 69:1.0 1756:1.0 46:1.0 890:1.0 3074:1.0 153:1.0 454:1.0 13:1.0 
31.576848313201875 1:0.25 1613:1.0 655:1.0 175:1.0 591:2.0 3075:1.0 1922:1.0 431:1.0 1562:1.0 13:2.0 145:1.0 207:1.0 67:1.0 315:1.0 3076:1.0 3:1.0 1126:1.0 3077:1.0 5:1.0 327:1.0 730:1.0 143:1.0 3027:1.0 3078:1.0 191:1.0 623:1.0 3079:1.0 107:1.0 108:1.0 3080:1.0 
90.0 1:-100.0 130:1.0 3081:1.0 159:1.0 
28.42759598815205 1:0.5 1069:1.0 13:2.0 3086:1.0 2563:1.0 2443:1.0 191:1.0 2827:1.0 2962:1.0 1534:1.0 183:1.0 461:1.0 29:1.0 306:1.0 
90.0 1:-100.0 218:1.0 262:1.0 757:1.0 1330:1.0 54:1.0 39:1.0 2827:1.0 183:1.0 70:1.0 159:1.0 
24.272615530874116 1:0.21875 2443:1.0 963:1.0 5:3.0 3087:1.0 997:2.0 3088:1.0 3:1.0 32:1.0 1157:2.0 145:1.0 35:1.0 306:1.0 26:1.0 39:1.0 24:1.0 199:1.0 124:1.0 43:1.0 798:1.0 29:1.0 1668:1.0 1847:1.0 175:1.0 3089:1.0 671:1.0 209:1.0 1256:1.0 1255:1.0 832:1.0 1811:1.0 213:1.0 13:1.0 546:1.0 93:1.0 
29.218703727585478 1:0.425 832:2.0 1568:1.0 1815:1.0 13:2.0 1199:1.0 275:1.0 1207:1.0 3090:1.0 416:1.0 2405:1.0 175:1.0 79:1.0 5:1.0 623:1.0 3091:1.0 1189:1.0 117:1.0 1814:1.0 455:1.0 43:1.0 3092:1.0 
90.0 1:-100.0 93:1.0 455:1.0 13:2.0 
1.4924385124582265 1:0.625 358:1.0 338:2.0 394:1.0 3093:1.0 888:1.0 262:1.0 2846:1.0 355:1.0 1223:1.0 370:1.0 108:1.0 3094:2.0 
90.0 1:0.20833333333333334 130:1.0 3095:1.0 5:1.0 940:1.0 35:1.0 447:1.0 39:1.0 143:1.0 3096:1.0 3097:1.0 13:1.0 
90.0 1:-100.0 273:1.0 74:1.0 603:1.0 3100:1.0 159:1.0 
43.31188492461414 1:-100.0 1015:1.0 37:1.0 948:1.0 3098:1.0 5:3.0 39:1.0 98:1.0 326:1.0 169:1.0 1867:2.0 13:1.0 52:1.0 854:1.0 429:1.0 29:1.0 1035:1.0 3104:1.0 1870:1.0 3105:1.0 3106:1.0 2373:1.0 3102:1.0 3103:1.0 70:1.0 
90.0 1:0.25 290:1.0 2425:1.0 5:1.0 145:1.0 2408:1.0 745:1.0 112:1.0 228:1.0 3:1.0 133:1.0 1473:1.0 13:1.0 
28.929197907708144 1:0.1875 1015:2.0 745:1.0 37:1.0 130:1.0 3098:1.0 191:1.0 2425:1.0 1475:1.0 95:1.0 13:4.0 39:1.0 98:1.0 3107:1.0 1867:1.0 326:1.0 31:1.0 169:1.0 120:1.0 14:1.0 3108:1.0 3109:1.0 5:1.0 3110:1.0 12:1.0 3111:2.0 
90.0 1:0.375 3112:1.0 3113:1.0 93:2.0 13:1.0 1473:1.0 
90.0 1:-100.0 26:1.0 327:1.0 3:1.0 723:1.0 528:1.0 3114:1.0 70:1.0 
90.0 1:0.375 1473:1.0 
17.559608482944153 1:0.375 1473:1.0 598:1.0 169:1.0 2787:1.0 29:1.0 1867:2.0 5:1.0 207:1.0 3:1.0 1015:2.0 362:1.0 3115:1.0 98:1.0 833:1.0 65:1.0 1482:1.0 721:1.0 35:1.0 594:1.0 430:1.0 13:1.0 
14.913239128728257 1:0.25 327:1.0 328:1.0 15:2.0 37:1.0 130:1.0 3116:1.0 169:4.0 13:2.0 306:1.0 29:2.0 3117:1.0 3118:1.0 3080:1.0 315:1.0 623:1.0 745:2.0 43:1.0 627:1.0 1473:1.0 18:1.0 604:1.0 1931:1.0 90:1.0 2267:1.0 41:2.0 238:1.0 3119:1.0 858:2.0 189:1.0 24:1.0 1112:1.0 35:1.0 3120:1.0 3001:1.0 800:1.0 52:1.0 3121:1.0 46:1.0 39:1.0 
71.2655536824873 1:0.0625 3122:1.0 3123:1.0 3124:1.0 169:1.0 455:1.0 3125:1.0 1790:1.0 3126:1.0 153:1.0 3127:1.0 800:1.0 191:1.0 67:1.0 888:1.0 175:1.0 90:1.0 2267:1.0 148:1.0 31:1.0 19:1.0 503:1.0 103:1.0 159:1.0 
10.22057106210868 1:0.5 3128:1.0 326:1.0 408:1.0 253:2.0 1577:1.0 258:1.0 254:1.0 578:1.0 250:3.0 3129:1.0 338:1.0 398:1.0 3130:1.0 370:1.0 13:2.0 145:1.0 352:1.0 391:1.0 997:1.0 569:1.0 259:1.0 454:1.0 
11.449679645229917 1:0.2916666666666667 753:2.0 404:2.0 3131:2.0 3132:1.0 35:1.0 3133:1.0 989:1.0 745:2.0 782:1.0 5:3.0 3134:1.0 3135:1.0 2373:1.0 191:1.0 3101:1.0 13:1.0 331:1.0 1734:1.0 93:1.0 1739:1.0 3136:1.0 198:1.0 54:2.0 84:1.0 1238:1.0 10:1.0 3137:1.0 175:1.0 70:2.0 3138:2.0 
24.643940887632102 1:0.5 997:1.0 93:1.0 13:1.0 284:1.0 609:1.0 957:1.0 931:1.0 54:1.0 1441:1.0 3139:1.0 148:1.0 3140:1.0 95:1.0 
45.72507133419654 1:0.0625 1739:1.0 54:1.0 41:1.0 3143:1.0 5:1.0 184:1.0 29:1.0 331:1.0 241:1.0 205:1.0 285:1.0 262:1.0 2132:1.0 2050:1.0 1540:1.0 13:2.0 286:1.0 3144:1.0 2204:1.0 14:1.0 3145:1.0 303:1.0 197:1.0 3146:1.0 191:1.0 3147:1.0 3148:1.0 65:1.0 3149:1.0 293:1.0 3150:1.0 3151:1.0 1144:1.0 3152:1.0 176:1.0 
90.0 1:0.5 997:1.0 
46.002326795586114 1:0.375 3154:1.0 403:1.0 3155:1.0 778:1.0 757:1.0 807:1.0 3156:1.0 5:1.0 432:1.0 1411:1.0 39:1.0 452:1.0 3157:1.0 27:1.0 3158:1.0 70:1.0 
21.269142821793892 1:0.375 1005:1.0 1473:1.0 408:1.0 253:3.0 745:1.0 569:1.0 259:1.0 346:1.0 1233:1.0 250:2.0 787:1.0 3159:1.0 1234:1.0 398:1.0 13:1.0 3160:1.0 
13.850667853885641 1:0.5 1491:1.0 730:2.0 429:1.0 957:1.0 17:1.0 2385:1.0 745:2.0 46:1.0 2844:1.0 5:1.0 145:1.0 1912:1.0 37:1.0 3:1.0 41:2.0 331:1.0 1734:1.0 265:1.0 597:1.0 13:1.0 159:1.0 603:1.0 604:1.0 
49.12393045563122 1:0.125 832:3.0 1995:1.0 546:1.0 148:1.0 5:2.0 1923:2.0 29:1.0 124:1.0 39:1.0 3161:1.0 1534:1.0 183:1.0 145:1.0 816:1.0 3162:1.0 1905:1.0 169:1.0 3163:1.0 65:1.0 1553:1.0 3164:1.0 3165:1.0 1590:1.0 
44.03123680551392 1:0.5 2105:1.0 3166:1.0 37:1.0 623:1.0 1940:1.0 1051:1.0 1941:1.0 100:1.0 3167:1.0 
25.208401425576874 1:0.20833333333333337 197:1.0 1051:2.0 3176:1.0 702:1.0 5:2.0 3:1.0 61:3.0 1909:2.0 65:2.0 1932:1.0 2833:1.0 3177:1.0 323:2.0 1940:1.0 1941:1.0 82:1.0 191:1.0 3178:1.0 3179:1.0 1251:1.0 2350:1.0 3180:1.0 1288:1.0 3181:1.0 461:2.0 13:2.0 2198:1.0 3182:1.0 623:1.0 198:1.0 281:1.0 3183:1.0 
34.63954368832632 1:0.5 191:1.0 1754:1.0 29:1.0 770:1.0 113:1.0 878:1.0 28:1.0 3185:1.0 907:1.0 1424:1.0 870:1.0 
34.30189003878024 1:0.125 2512:1.0 180:1.0 556:1.0 260:1.0 725:1.0 3186:1.0 169:2.0 1205:1.0 337:1.0 272:2.0 469:1.0 175:2.0 44:2.0 1181:1.0 3187:1.0 29:2.0 527:1.0 2595:1.0 3188:1.0 17:1.0 275:1.0 27:1.0 3189:1.0 3190:1.0 213:1.0 
9.40276222670231 1:0.5 46:1.0 74:1.0 3191:2.0 169:1.0 63:1.0 13:3.0 199:2.0 212:1.0 135:2.0 39:1.0 113:1.0 3192:1.0 1188:1.0 1191:1.0 1160:1.0 17:1.0 1211:1.0 870:1.0 770:1.0 775:1.0 93:1.0 1222:1.0 597:1.0 
30.133263194307887 1:0.5 28:1.0 148:1.0 275:2.0 315:1.0 5:1.0 135:1.0 52:1.0 55:1.0 274:2.0 83:1.0 169:1.0 623:1.0 29:1.0 575:1.0 13:1.0 
23.04713305106277 1:0.5625 1905:1.0 832:1.0 2366:1.0 2012:1.0 191:1.0 2914:1.0 1345:1.0 13:1.0 
11.920751771489336 1:0.5 3197:1.0 98:2.0 972:2.0 730:2.0 278:1.0 29:2.0 143:2.0 3198:1.0 3123:1.0 13:2.0 199:1.0 556:1.0 3199:1.0 
90.0 1:0.125 1218:1.0 145:1.0 130:1.0 3200:1.0 
11.809505918256486 1:0.06250000000000003 34:1.0 133:2.0 328:1.0 87:1.0 52:1.0 278:1.0 594:1.0 430:1.0 39:1.0 614:1.0 603:2.0 1452:1.0 557:1.0 3201:1.0 2443:1.0 5:6.0 3202:1.0 3203:1.0 2891:1.0 2039:1.0 3204:1.0 83:1.0 3205:1.0 3206:1.0 1856:1.0 70:1.0 48:1.0 546:1.0 29:2.0 1408:1.0 2525:1.0 67:3.0 3207:2.0 981:3.0 237:1.0 31:1.0 8:1.0 1843:1.0 191:1.0 672:1.0 1349:1.0 46:1.0 41:1.0 218:1.0 3208:1.0 74:1.0 3209:1.0 290:1.0 65:1.0 3210:1.0 13:1.0 1126:1.0 543:1.0 209:1.0 858:1.0 2385:1.0 1360:1.0 1300:1.0 145:1.0 118:1.0 2089:1.0 3211:1.0 2827:1.0 159:1.0 
90.0 1:0.08299999999999999 31:1.0 2037:1.0 1330:1.0 93:1.0 125:1.0 5:1.0 278:1.0 2449:1.0 29:1.0 3212:1.0 108:2.0 191:1.0 3213:1.0 1534:1.0 
47.81677752478363 1:0.025 447:1.0 46:1.0 39:2.0 3207:2.0 3097:1.0 29:1.0 905:1.0 913:1.0 5:1.0 145:1.0 15:1.0 237:1.0 3:1.0 18:1.0 1678:1.0 13:1.0 3214:1.0 515:1.0 41:1.0 826:1.0 207:1.0 591:1.0 3215:1.0 178:1.0 320:1.0 3216:1.0 175:1.0 54:1.0 159:1.0 
53.15857938132386 1:0.5 290:1.0 2462:1.0 98:1.0 326:1.0 159:1.0 3217:1.0 
18.282963474957622 1:0.625 180:1.0 2512:1.0 3019:1.0 2032:1.0 
25.21620968715956 1:0.4375 2196:1.0 424:2.0 238:1.0 52:1.0 2411:1.0 5:1.0 451:1.0 3218:1.0 989:1.0 3219:1.0 454:1.0 159:1.0 
1.2662528225678658 1:0.5 753:2.0 404:1.0 773:1.0 1701:1.0 1712:1.0 3220:2.0 327:4.0 293:1.0 262:2.0 5:5.0 1264:1.0 2630:1.0 946:1.0 997:1.0 3221:1.0 36:1.0 800:1.0 13:1.0 10:1.0 197:1.0 275:2.0 318:1.0 932:1.0 143:1.0 744:1.0 3222:1.0 3223:1.0 466:1.0 2685:1.0 22:1.0 3:1.0 1464:1.0 41:1.0 754:1.0 3224:1.0 98:1.0 24:1.0 1477:2.0 2196:1.0 2138:1.0 328:1.0 29:1.0 130:1.0 238:1.0 52:1.0 3225:1.0 3226:1.0 176:1.0 159:1.0 
90.0 1:-100.0 877:1.0 3230:1.0 39:1.0 18:1.0 5:1.0 932:1.0 628:1.0 34:1.0 3231:1.0 13:1.0 
10.23268844090493 1:0.26785714285714285 61:3.0 3232:2.0 3233:1.0 175:1.0 3234:2.0 29:4.0 2450:1.0 5:3.0 451:1.0 199:3.0 17:1.0 3235:2.0 989:1.0 39:1.0 41:2.0 3236:1.0 65:1.0 323:1.0 235:1.0 384:1.0 258:1.0 256:1.0 3237:1.0 661:2.0 601:1.0 620:2.0 3238:1.0 113:1.0 893:1.0 2755:1.0 3239:1.0 3240:1.0 885:1.0 1423:1.0 3241:1.0 514:1.0 63:1.0 3242:1.0 70:1.0 13:1.0 2196:1.0 1677:1.0 46:1.0 418:1.0 3243:1.0 169:1.0 770:1.0 3244:1.0 
28.99328960488917 1:0.5 1905:1.0 600:2.0 2040:1.0 13:2.0 2617:1.0 3248:1.0 36:1.0 3249:1.0 3234:1.0 
6.233199799329291 1:0.5625 1387:1.0 45:1.0 67:1.0 748:1.0 366:1.0 3250:1.0 3251:1.0 3252:1.0 2085:1.0 2099:1.0 5:1.0 3253:1.0 39:1.0 3254:1.0 429:1.0 2105:1.0 3255:1.0 832:1.0 3:1.0 327:1.0 1905:1.0 61:1.0 744:1.0 3256:1.0 191:1.0 3234:1.0 2040:1.0 2093:1.0 600:1.0 37:1.0 13:1.0 
90.0 1:0.0625 113:1.0 8:1.0 858:1.0 832:1.0 2639:1.0 3257:1.0 159:1.0 
42.988676549455406 1:0.125 1199:1.0 98:1.0 46:1.0 39:2.0 21:1.0 178:1.0 13:3.0 455:1.0 29:1.0 481:1.0 3:1.0 96:1.0 143:1.0 42:1.0 3258:1.0 278:1.0 2449:1.0 2177:1.0 3259:1.0 429:1.0 326:1.0 454:1.0 
17.37876304300683 1:0.075 3267:1.0 5:5.0 744:1.0 2164:1.0 52:3.0 435:1.0 15:1.0 3268:1.0 3269:1.0 27:1.0 3213:1.0 2131:1.0 3270:1.0 1144:1.0 67:1.0 1786:1.0 584:1.0 13:2.0 207:1.0 1913:1.0 3271:1.0 2452:1.0 61:1.0 3272:2.0 3273:1.0 822:1.0 55:1.0 1237:2.0 598:1.0 3274:1.0 2527:1.0 363:1.0 2163:1.0 191:1.0 890:1.0 1280:1.0 2020:1.0 3275:1.0 8:2.0 1307:1.0 39:1.0 34:1.0 133:1.0 136:1.0 17:1.0 1278:1.0 965:1.0 
12.030341284338283 1:0.5 1303:1.0 1305:1.0 5:7.0 1851:1.0 2569:1.0 3276:1.0 3277:1.0 2140:1.0 70:2.0 26:1.0 98:1.0 213:1.0 191:1.0 730:1.0 429:1.0 1336:1.0 535:1.0 2164:1.0 
5.436908333178062 1:0.5 3196:1.0 75:1.0 77:1.0 480:1.0 39:1.0 3278:1.0 5:2.0 207:1.0 1051:2.0 727:1.0 35:1.0 2132:1.0 1423:3.0 209:1.0 3279:1.0 3:1.0 104:1.0 46:1.0 3280:1.0 1917:1.0 1218:1.0 43:1.0 507:1.0 13:2.0 436:1.0 610:1.0 278:1.0 65:2.0 17:2.0 1291:1.0 191:1.0 41:1.0 2111:1.0 1502:1.0 3281:1.0 3282:1.0 3073:1.0 275:1.0 153:1.0 2527:1.0 363:1.0 3283:1.0 3284:1.0 
20.610495019833145 1:0.125 44:2.0 130:1.0 2572:1.0 65:1.0 3285:1.0 1278:2.0 13:3.0 770:1.0 326:1.0 730:1.0 43:1.0 199:1.0 766:1.0 3286:1.0 70:1.0 77:2.0 46:1.0 455:1.0 982:1.0 143:2.0 90:1.0 2107:1.0 3287:1.0 1364:1.0 153:1.0 3288:1.0 2323:1.0 8:1.0 1400:1.0 940:1.0 533:1.0 822:1.0 1232:1.0 2204:1.0 136:1.0 17:1.0 2197:1.0 289:1.0 2624:1.0 3289:1.0 37:1.0 
21.813534812029047 1:0.375 509:2.0 327:1.0 284:1.0 153:1.0 1864:1.0 3290:1.0 454:1.0 5:1.0 148:1.0 46:1.0 429:1.0 686:1.0 52:1.0 2037:1.0 680:1.0 859:1.0 1300:1.0 678:1.0 727:1.0 2815:1.0 1423:1.0 108:1.0 2188:1.0 13:1.0 
26.44320500310774 1:0.16666666666666666 545:1.0 805:1.0 744:1.0 2206:1.0 3291:1.0 29:1.0 455:1.0 39:2.0 3292:1.0 535:1.0 2131:1.0 2107:1.0 556:1.0 19:1.0 207:1.0 3:1.0 3253:1.0 2977:1.0 8:1.0 2142:2.0 730:2.0 5:2.0 153:1.0 1121:1.0 90:1.0 98:2.0 2217:1.0 2395:1.0 1799:1.0 1995:1.0 766:1.0 209:1.0 3293:1.0 13:2.0 3294:1.0 
7.196629488102651 1:0.275 327:2.0 46:3.0 982:3.0 273:1.0 688:1.0 3295:3.0 1196:1.0 1522:1.0 10:1.0 2139:1.0 1303:1.0 627:1.0 1051:1.0 3296:1.0 604:1.0 5:4.0 871:1.0 663:2.0 2148:1.0 63:1.0 3297:1.0 3298:1.0 3299:1.0 3300:1.0 84:1.0 75:1.0 858:1.0 13:4.0 2883:1.0 399:1.0 41:2.0 823:1.0 745:1.0 3301:1.0 60:1.0 477:1.0 43:1.0 47:1.0 2163:2.0 93:1.0 1907:1.0 70:2.0 2534:1.0 39:2.0 1232:1.0 2986:1.0 3302:1.0 2142:1.0 3303:1.0 2353:1.0 165:1.0 153:1.0 1960:1.0 198:1.0 2240:1.0 3:1.0 17:1.0 1905:1.0 3304:1.0 
90.0 1:-100.0 3305:1.0 3306:1.0 3307:1.0 352:1.0 13:1.0 3308:1.0 3309:1.0 2249:1.0 
4.615232844846562 1:0.203125 509:1.0 327:4.0 55:1.0 434:1.0 46:1.0 1157:1.0 3310:1.0 2244:2.0 2249:1.0 1756:1.0 39:1.0 93:2.0 108:2.0 3311:1.0 35:1.0 3312:2.0 681:1.0 1106:1.0 275:1.0 29:1.0 3313:2.0 3314:1.0 169:1.0 209:2.0 461:1.0 3315:1.0 3316:1.0 3317:2.0 43:4.0 3318:1.0 5:8.0 199:1.0 858:1.0 660:1.0 1300:2.0 191:2.0 293:1.0 487:1.0 1534:1.0 183:1.0 2096:1.0 594:1.0 430:1.0 591:1.0 3319:1.0 3320:1.0 296:1.0 130:1.0 75:2.0 13:3.0 469:1.0 3321:1.0 687:1.0 3322:1.0 175:1.0 1335:1.0 1065:1.0 1024:1.0 1864:1.0 3323:1.0 3324:1.0 2609:1.0 3325:1.0 3326:1.0 3327:1.0 3328:1.0 3329:1.0 1630:1.0 3330:1.0 70:2.0 67:1.0 621:1.0 1404:1.0 447:1.0 3331:1.0 
38.670027052824764 1:0.375 2554:1.0 2027:1.0 29:2.0 3332:1.0 5:2.0 1237:1.0 175:1.0 79:1.0 449:1.0 1139:1.0 130:1.0 1864:1.0 13:1.0 
19.24754073536161 1:0.5 3333:2.0 3334:1.0 93:1.0 997:1.0 603:1.0 74:1.0 3335:1.0 5:1.0 15:1.0 3336:1.0 429:1.0 3337:1.0 175:1.0 588:1.0 3338:1.0 13:1.0 
7.4018656398504 1:0.5 67:1.0 3339:1.0 1534:1.0 35:1.0 2385:1.0 3340:1.0 5:1.0 3341:1.0 1332:1.0 3196:1.0 29:1.0 175:1.0 2027:1.0 13:2.0 1588:1.0 41:1.0 238:1.0 52:1.0 262:1.0 890:1.0 3342:1.0 2554:1.0 189:1.0 18:1.0 213:1.0 
90.0 1:-100.0 2795:1.0 600:2.0 191:1.0 2617:1.0 3345:1.0 13:1.0 
24.10584434913967 1:0.5 2986:1.0 175:1.0 600:1.0 130:1.0 2729:1.0 5:1.0 28:1.0 963:1.0 153:1.0 3346:1.0 191:1.0 3347:1.0 663:1.0 579:1.0 70:1.0 
70.96153567214905 1:-100.0 2609:1.0 600:1.0 159:3.0 381:1.0 3348:1.0 98:1.0 2066:1.0 2291:1.0 2846:1.0 107:1.0 2992:1.0 2366:1.0 
90.0 1:-100.0 93:1.0 3017:1.0 13:1.0 1256:2.0 5:1.0 155:1.0 323:1.0 43:1.0 2706:1.0 
81.03015445154173 1:0.0625 143:1.0 1205:1.0 130:2.0 2411:1.0 10:1.0 79:1.0 37:1.0 13:1.0 518:1.0 112:1.0 1126:1.0 8:1.0 329:1.0 750:1.0 
90.0 1:-100.0 93:1.0 1204:1.0 159:1.0 
1.5091766245086797 1:0.625 3356:1.0 17:1.0 303:1.0 1256:1.0 5:1.0 143:1.0 2487:1.0 2613:1.0 13:1.0 
8.559663205659119 1:0.5 847:1.0 169:1.0 3360:1.0 3361:1.0 13:1.0 327:1.0 46:1.0 278:1.0 381:1.0 44:1.0 323:1.0 775:1.0 43:1.0 143:1.0 448:1.0 3017:1.0 616:1.0 
19.203260463981444 1:0.5 1199:1.0 2618:1.0 323:1.0 429:1.0 65:1.0 1256:1.0 191:1.0 24:1.0 199:1.0 17:1.0 1905:1.0 213:1.0 13:1.0 180:1.0 2462:1.0 159:1.0 
90.0 1:-100.0 2609:1.0 1256:1.0 
90.0 1:-100.0 1205:1.0 1605:1.0 3017:1.0 1204:1.0 93:1.0 5:1.0 134:1.0 3294:1.0 13:1.0 
90.0 1:-100.0 143:1.0 171:1.0 2403:1.0 3017:1.0 191:1.0 1204:1.0 13:1.0 
64.31192194657739 1:-0.5 753:2.0 404:2.0 143:2.0 1535:1.0 5:2.0 327:2.0 455:1.0 328:1.0 3363:1.0 3364:1.0 293:1.0 1568:1.0 3365:1.0 44:1.0 3366:2.0 3367:1.0 850:1.0 851:1.0 852:1.0 853:1.0 858:1.0 3368:1.0 13:2.0 197:1.0 429:1.0 1408:1.0 2441:1.0 272:1.0 494:1.0 2611:1.0 1013:1.0 159:1.0 
90.0 1:-100.0 180:1.0 2611:1.0 
6.949722081145027 1:0.5625 275:1.0 133:1.0 28:1.0 29:1.0 3369:1.0 3370:1.0 13:2.0 2348:1.0 770:1.0 41:1.0 113:1.0 143:1.0 3371:1.0 161:1.0 858:1.0 1318:1.0 46:1.0 326:2.0 39:1.0 75:1.0 47:1.0 52:1.0 3372:1.0 3373:1.0 
17.36587096170989 1:0.5625 481:1.0 323:1.0 52:1.0 3374:1.0 2184:1.0 38:1.0 2544:1.0 191:1.0 2526:1.0 2722:1.0 3375:1.0 
90.0 1:-100.0 56:1.0 93:1.0 1204:1.0 
72.15401831825328 1:0.5 688:1.0 37:1.0 868:1.0 180:1.0 148:1.0 159:1.0 
6.100591067274686 1:0.5625 2113:1.0 303:1.0 262:1.0 3377:1.0 39:1.0 17:1.0 26:2.0 3378:1.0 321:1.0 24:1.0 3379:1.0 82:1.0 1798:1.0 3380:1.0 2411:1.0 5:2.0 3003:1.0 3381:1.0 1905:1.0 219:1.0 131:1.0 199:1.0 3351:1.0 3382:1.0 325:1.0 
90.0 1:0.25 1192:1.0 29:1.0 52:1.0 2895:1.0 209:1.0 3383:1.0 13:1.0 
8.726533379004403 1:0.625 328:2.0 858:1.0 773:1.0 3384:1.0 757:1.0 191:1.0 2526:1.0 3385:1.0 169:1.0 723:1.0 13:1.0 3267:1.0 907:1.0 1424:1.0 870:1.0 447:1.0 218:1.0 2930:1.0 159:1.0 
4.686060732295916 1:0.1625 39:3.0 3388:1.0 15:1.0 153:2.0 3389:2.0 191:7.0 745:2.0 1473:1.0 169:3.0 41:3.0 52:1.0 127:2.0 629:3.0 315:2.0 1050:1.0 13:4.0 278:2.0 47:2.0 591:2.0 823:1.0 3390:1.0 1297:1.0 3391:2.0 454:1.0 1868:1.0 610:2.0 2243:1.0 727:2.0 133:1.0 3345:1.0 3392:1.0 5:5.0 730:2.0 281:1.0 29:2.0 3393:1.0 3394:1.0 235:1.0 218:1.0 1956:1.0 3395:1.0 437:1.0 1199:1.0 333:1.0 8:2.0 481:2.0 1126:1.0 2614:1.0 60:1.0 36:1.0 323:1.0 3396:1.0 328:1.0 44:1.0 321:1.0 1375:1.0 3397:1.0 3398:1.0 65:1.0 67:1.0 90:2.0 2480:2.0 84:1.0 1408:2.0 3399:1.0 997:1.0 3400:1.0 46:1.0 1496:1.0 3321:1.0 2598:1.0 1064:1.0 70:1.0 
90.0 1:-100.0 3401:1.0 
12.297534214912867 1:0.5 744:1.0 3402:1.0 1948:1.0 2269:2.0 153:1.0 1051:1.0 1330:2.0 3403:1.0 461:2.0 159:2.0 44:1.0 39:1.0 75:1.0 48:1.0 183:1.0 34:1.0 133:1.0 997:1.0 
90.0 1:0.12500000000000006 3404:1.0 452:1.0 3405:1.0 213:1.0 100:1.0 8:1.0 169:1.0 359:1.0 
76.16835693019193 1:0.5 2142:1.0 334:1.0 3406:1.0 189:1.0 13:1.0 
8.114138005270817 1:0.5 2440:1.0 40:1.0 3407:1.0 1279:1.0 262:1.0 639:1.0 3408:1.0 293:1.0 52:1.0 823:1.0 101:2.0 2269:2.0 3409:1.0 3410:1.0 852:1.0 3411:1.0 148:1.0 363:2.0 698:1.0 294:1.0 21:1.0 1262:1.0 183:1.0 13:1.0 207:1.0 100:2.0 3:1.0 820:1.0 621:1.0 82:1.0 29:1.0 473:1.0 306:1.0 
21.982530669551544 1:0.25 130:1.0 28:1.0 191:2.0 1207:2.0 107:1.0 320:1.0 13:2.0 1122:1.0 39:1.0 77:1.0 830:1.0 2829:1.0 2327:1.0 452:1.0 1425:1.0 398:1.0 21:1.0 3:1.0 816:1.0 601:1.0 3412:1.0 43:1.0 5:1.0 451:1.0 327:1.0 46:1.0 35:1.0 2168:1.0 169:1.0 63:1.0 218:1.0 2537:1.0 37:1.0 
1.7783225125262907 1:0.22321428571428573 3413:2.0 2321:2.0 153:3.0 1291:4.0 509:2.0 1396:2.0 3414:1.0 5:2.0 1888:2.0 2451:1.0 29:1.0 28:1.0 159:6.0 39:5.0 75:6.0 1137:6.0 10:6.0 2204:3.0 3:2.0 133:3.0 262:1.0 165:1.0 1534:2.0 43:4.0 850:2.0 851:2.0 852:2.0 853:2.0 197:5.0 820:4.0 323:7.0 52:4.0 2353:1.0 2134:3.0 8:3.0 289:2.0 275:3.0 2238:3.0 113:2.0 63:3.0 1479:2.0 191:1.0 2163:1.0 363:2.0 46:1.0 3415:1.0 61:1.0 218:2.0 2222:1.0 182:1.0 189:2.0 169:1.0 1288:1.0 238:1.0 2133:1.0 320:1.0 1238:1.0 143:1.0 17:1.0 1108:1.0 1693:1.0 885:2.0 42:1.0 1799:1.0 592:1.0 198:1.0 2199:1.0 69:2.0 1342:2.0 1278:1.0 3416:1.0 56:1.0 18:1.0 3417:1.0 3418:1.0 13:3.0 2890:1.0 41:1.0 209:1.0 303:1.0 145:1.0 488:2.0 175:2.0 199:1.0 104:1.0 37:1.0 108:1.0 833:1.0 65:1.0 74:2.0 421:1.0 3419:1.0 2327:1.0 3420:1.0 1190:1.0 533:1.0 15:1.0 480:1.0 48:1.0 1051:1.0 54:1.0 3290:1.0 3421:1.0 3422:1.0 79:1.0 3127:1.0 481:1.0 3423:1.0 1300:1.0 663:1.0 3424:1.0 3396:1.0 3425:1.0 502:1.0 3426:1.0 381:1.0 287:1.0 1370:1.0 858:1.0 
29.749147294587246 1:0.5 284:1.0 578:1.0 2323:1.0 3432:1.0 55:1.0 1802:1.0 987:1.0 1534:1.0 323:1.0 328:1.0 1286:1.0 956:1.0 454:1.0 13:1.0 130:1.0 1754:1.0 
90.0 1:-100.0 1199:1.0 37:1.0 52:1.0 113:1.0 74:1.0 628:1.0 148:1.0 13:1.0 
23.063994963377446 1:0.3 3433:1.0 5:2.0 3434:1.0 238:1.0 1292:1.0 165:1.0 199:1.0 17:1.0 730:1.0 15:1.0 153:2.0 100:1.0 1287:1.0 191:1.0 2163:1.0 1237:1.0 13:2.0 1190:1.0 113:1.0 708:1.0 37:1.0 29:1.0 3435:1.0 2601:1.0 52:1.0 39:1.0 143:1.0 2105:1.0 3436:1.0 36:1.0 3213:1.0 1534:1.0 
2.9440278298809726 1:0.5416666666666666 1278:2.0 447:1.0 2222:1.0 63:1.0 1237:3.0 145:1.0 41:1.0 1320:1.0 43:2.0 2827:1.0 3:2.0 1013:1.0 169:2.0 1370:1.0 82:1.0 5:2.0 2164:1.0 52:1.0 823:1.0 473:1.0 182:1.0 2203:1.0 148:1.0 198:1.0 2135:2.0 2199:1.0 2029:1.0 278:2.0 39:1.0 1352:1.0 487:1.0 26:1.0 17:1.0 730:1.0 3437:1.0 454:1.0 159:1.0 
2.3543696615633705 1:0.5 1199:1.0 275:1.0 278:1.0 28:1.0 65:1.0 1149:1.0 130:1.0 86:1.0 17:2.0 3438:1.0 10:1.0 2432:2.0 37:1.0 13:3.0 3439:1.0 26:1.0 27:1.0 29:2.0 477:1.0 3440:1.0 175:1.0 44:1.0 153:1.0 3441:1.0 212:2.0 18:1.0 3442:1.0 5:3.0 169:1.0 39:1.0 288:1.0 63:1.0 3443:1.0 3444:1.0 3445:1.0 145:1.0 197:1.0 1529:1.0 663:1.0 3:1.0 2974:1.0 262:1.0 3446:1.0 1005:1.0 41:1.0 742:1.0 3447:1.0 
3.1223679525074277 1:0.3125 965:1.0 41:1.0 218:1.0 500:2.0 3442:1.0 509:1.0 2808:1.0 1149:1.0 1218:1.0 5:13.0 32:1.0 198:1.0 3448:1.0 1051:2.0 1389:1.0 553:1.0 3449:1.0 2642:2.0 2235:1.0 2153:1.0 13:2.0 3429:1.0 3030:1.0 3450:1.0 1240:3.0 175:2.0 2026:1.0 2146:1.0 290:1.0 1629:1.0 1291:1.0 492:1.0 2115:1.0 3451:1.0 3452:1.0 70:1.0 67:1.0 2346:1.0 3453:1.0 3420:1.0 169:1.0 375:1.0 2825:1.0 207:1.0 54:1.0 320:1.0 3:1.0 197:1.0 601:1.0 63:1.0 1693:1.0 323:1.0 28:1.0 191:1.0 39:1.0 2351:1.0 159:1.0 
12.648675907245396 1:0.5 2937:1.0 197:1.0 500:1.0 3442:2.0 5:2.0 26:1.0 52:1.0 3029:1.0 36:1.0 3030:1.0 3450:1.0 191:1.0 3454:1.0 2802:1.0 175:1.0 67:1.0 2346:1.0 39:1.0 2794:1.0 41:1.0 19:1.0 
8.703621617997653 1:0.625 28:1.0 29:1.0 108:1.0 1993:1.0 2819:1.0 13:2.0 22:1.0 362:1.0 264:1.0 655:1.0 3455:1.0 2342:1.0 148:1.0 
11.127600267657627 1:0.125 1199:1.0 37:1.0 3090:1.0 2718:1.0 3456:1.0 1122:1.0 175:2.0 807:4.0 5:6.0 461:2.0 35:2.0 326:1.0 39:1.0 1368:1.0 275:1.0 1973:1.0 1351:2.0 191:1.0 623:1.0 1304:1.0 3457:1.0 2526:1.0 169:1.0 3458:1.0 13:3.0 290:1.0 2228:1.0 27:1.0 29:1.0 3459:1.0 1534:1.0 65:1.0 26:1.0 2985:1.0 67:1.0 858:1.0 782:1.0 84:1.0 456:1.0 965:1.0 46:1.0 96:1.0 1071:1.0 98:1.0 3077:1.0 41:1.0 120:1.0 471:1.0 803:1.0 
8.987024084386016 1:0.34375 55:2.0 1264:2.0 658:2.0 827:2.0 2112:2.0 623:2.0 82:2.0 725:2.0 3461:1.0 3462:3.0 5:2.0 3463:2.0 655:2.0 3464:1.0 27:1.0 120:1.0 39:2.0 3465:1.0 431:1.0 65:1.0 3466:1.0 13:1.0 2372:1.0 511:1.0 3229:1.0 1754:1.0 47:1.0 3467:1.0 455:1.0 113:1.0 130:1.0 320:1.0 56:1.0 175:1.0 54:1.0 169:1.0 41:1.0 766:1.0 663:1.0 3468:1.0 532:1.0 1318:1.0 59:1.0 108:1.0 75:1.0 
5.704571430185471 1:0.5 2675:2.0 2025:1.0 175:3.0 2638:1.0 303:1.0 197:1.0 871:1.0 63:1.0 1304:1.0 43:2.0 3469:1.0 542:2.0 130:1.0 2469:1.0 627:1.0 698:1.0 1112:1.0 3470:1.0 804:1.0 575:1.0 999:1.0 459:1.0 55:1.0 3471:1.0 604:1.0 13:2.0 26:1.0 572:1.0 1508:1.0 423:1.0 2839:1.0 5:1.0 41:1.0 730:1.0 473:1.0 3472:1.0 199:1.0 98:1.0 770:1.0 260:1.0 
4.069620541970048 1:0.5416666666666666 3473:1.0 1717:1.0 3474:1.0 3475:1.0 5:2.0 832:1.0 41:2.0 26:1.0 3476:1.0 725:1.0 67:2.0 658:2.0 2379:2.0 209:1.0 3477:1.0 997:2.0 3478:1.0 213:1.0 1678:1.0 366:1.0 2730:1.0 1092:1.0 3479:1.0 1452:1.0 3480:1.0 3481:1.0 169:1.0 29:1.0 47:1.0 770:1.0 519:1.0 2353:1.0 165:1.0 3467:1.0 13:1.0 
27.418741237624825 1:0.03125 477:1.0 725:1.0 575:1.0 1264:1.0 169:2.0 118:2.0 41:2.0 459:1.0 43:1.0 54:1.0 5:2.0 1108:1.0 832:2.0 3482:1.0 180:1.0 13:2.0 52:1.0 770:2.0 120:1.0 174:1.0 340:1.0 47:1.0 766:1.0 75:1.0 3483:1.0 209:1.0 70:1.0 2216:1.0 175:1.0 84:1.0 455:1.0 81:1.0 3484:1.0 122:1.0 3485:1.0 24:1.0 22:1.0 112:1.0 145:1.0 197:1.0 970:1.0 165:1.0 3486:1.0 29:1.0 125:1.0 
26.463529896104472 1:0.5 3481:1.0 1241:1.0 341:1.0 2605:1.0 406:1.0 3487:1.0 3488:1.0 2738:1.0 3489:1.0 3231:1.0 3490:1.0 175:1.0 3478:1.0 13:1.0 
0.7558587862529054 1:0.6041666666666666 75:1.0 1203:1.0 1073:1.0 5:4.0 496:2.0 21:1.0 182:1.0 658:1.0 130:1.0 2858:1.0 169:2.0 41:2.0 1157:1.0 43:1.0 610:1.0 45:1.0 26:2.0 1927:1.0 165:2.0 1491:1.0 1906:1.0 3491:1.0 3492:2.0 19:2.0 850:3.0 851:3.0 852:3.0 853:3.0 121:1.0 827:2.0 1534:1.0 1710:1.0 1182:1.0 47:1.0 315:1.0 29:1.0 212:1.0 3493:1.0 3494:1.0 148:1.0 133:3.0 3495:1.0 3496:1.0 218:1.0 3497:1.0 556:1.0 1023:1.0 455:1.0 3248:1.0 13:2.0 3498:1.0 63:1.0 278:2.0 39:1.0 3499:1.0 1108:1.0 267:1.0 508:2.0 346:1.0 730:2.0 42:4.0 108:2.0 661:1.0 1125:1.0 1452:1.0 557:1.0 168:1.0 191:1.0 3500:1.0 3435:1.0 28:1.0 10:1.0 2725:1.0 2253:1.0 3501:1.0 159:1.0 
54.382809496924224 1:0.5 2292:1.0 2293:1.0 362:1.0 997:1.0 1704:1.0 349:1.0 225:1.0 
90.0 1:-100.0 3502:1.0 93:1.0 5:1.0 31:1.0 41:1.0 3503:1.0 482:1.0 741:1.0 597:1.0 
90.0 1:-100.0 481:1.0 2926:1.0 39:1.0 1660:1.0 3504:1.0 
0.9129964368112987 1:0.45 2890:1.0 1256:4.0 41:1.0 52:1.0 3505:1.0 850:9.0 851:9.0 852:9.0 853:9.0 145:1.0 29:3.0 3506:1.0 5:1.0 315:2.0 3507:1.0 437:1.0 22:1.0 39:2.0 3508:1.0 1159:1.0 2146:1.0 1605:1.0 1108:3.0 1090:1.0 171:1.0 8:1.0 287:1.0 1360:2.0 320:1.0 1794:1.0 42:2.0 982:1.0 2283:1.0 602:1.0 143:1.0 1262:1.0 3509:1.0 3510:1.0 2968:1.0 3511:1.0 477:1.0 2385:2.0 20:1.0 2251:1.0 24:1.0 17:2.0 2405:1.0 2617:1.0 232:1.0 594:1.0 804:1.0 3512:1.0 1642:1.0 628:1.0 13:1.0 
1.1001484534714834 1:0.625 3513:1.0 93:1.0 159:2.0 500:1.0 65:1.0 3514:1.0 44:1.0 328:1.0 3077:1.0 
90.0 1:-100.0 3515:1.0 5:1.0 3516:1.0 65:1.0 3517:1.0 3:1.0 104:1.0 447:1.0 1325:1.0 108:1.0 13:1.0 
7.021968860744008 1:-100.0 1171:3.0 253:8.0 352:5.0 2232:1.0 338:4.0 391:5.0 430:1.0 218:1.0 321:1.0 3518:1.0 258:4.0 1899:1.0 353:1.0 250:5.0 256:3.0 402:1.0 347:1.0 2045:1.0 571:1.0 364:1.0 371:2.0 13:2.0 563:1.0 254:1.0 965:1.0 578:1.0 2690:1.0 569:1.0 259:2.0 3519:1.0 1898:1.0 341:2.0 251:1.0 124:1.0 
46.759708755223194 1:0.0625 1279:1.0 321:1.0 3520:1.0 67:2.0 315:1.0 3517:1.0 5:1.0 2617:1.0 232:1.0 3521:1.0 175:1.0 273:1.0 1028:2.0 1394:1.0 1300:1.0 191:2.0 3354:1.0 29:1.0 3522:1.0 8:1.0 18:1.0 1144:1.0 3523:1.0 2291:1.0 509:1.0 159:1.0 
84.82925343767069 1:-0.21550000000000002 262:1.0 326:1.0 36:1.0 461:1.0 46:1.0 39:2.0 1108:2.0 3525:2.0 5:2.0 3526:1.0 3527:1.0 145:1.0 1794:1.0 2385:1.0 3:1.0 3077:1.0 1339:1.0 614:1.0 13:1.0 
26.777470397780746 1:0.5 327:1.0 130:1.0 3528:1.0 191:1.0 2797:1.0 416:1.0 2442:1.0 3529:1.0 1674:1.0 65:1.0 3517:1.0 13:1.0 
90.0 1:-100.0 321:1.0 3530:1.0 165:1.0 2385:1.0 3340:1.0 159:1.0 
90.0 1:-0.5 2609:1.0 1108:1.0 1337:1.0 1338:1.0 3531:1.0 159:2.0 455:1.0 8:1.0 448:1.0 2660:1.0 327:1.0 1297:1.0 
30.635377034382234 1:0.5 218:1.0 39:1.0 75:1.0 2823:1.0 2985:1.0 67:1.0 2317:1.0 2164:1.0 3532:1.0 429:1.0 74:1.0 3517:1.0 13:1.0 
90.0 1:-100.0 2385:1.0 672:1.0 484:1.0 3376:1.0 13:1.0 
31.223245376345243 1:0.5 3533:1.0 3534:1.0 1348:1.0 81:1.0 148:1.0 1138:1.0 323:1.0 1394:1.0 2392:1.0 82:1.0 603:1.0 627:1.0 
35.76189735098478 1:0.3333333333333333 3034:1.0 98:1.0 39:1.0 479:1.0 75:1.0 48:1.0 3535:1.0 2395:1.0 3534:1.0 2417:1.0 153:1.0 17:1.0 262:1.0 953:1.0 3536:1.0 2392:1.0 108:1.0 613:2.0 159:1.0 
23.85059457325105 1:0.5 2574:1.0 535:1.0 2269:1.0 3060:1.0 118:1.0 215:1.0 1949:1.0 3537:1.0 13:2.0 3538:1.0 1475:1.0 
43.79728332730712 1:0.5 199:1.0 17:1.0 1291:1.0 5:2.0 492:1.0 3539:1.0 3540:1.0 130:1.0 2462:1.0 
36.85760530765382 1:-100.0 3541:1.0 338:4.0 254:1.0 3519:1.0 256:1.0 1103:1.0 573:1.0 100:1.0 5:1.0 145:1.0 3308:1.0 3542:1.0 406:1.0 253:2.0 556:1.0 565:1.0 405:1.0 250:1.0 370:1.0 3405:1.0 393:1.0 394:1.0 159:1.0 
90.0 1:-100.0 1591:1.0 535:1.0 2269:1.0 118:1.0 215:1.0 1949:1.0 3537:1.0 
74.51475439352332 1:0.5 2541:1.0 293:1.0 2392:1.0 3396:1.0 82:1.0 
90.0 1:-0.5 3543:1.0 41:1.0 120:1.0 3544:1.0 1114:1.0 13:1.0 
28.174681684919694 1:-100.0 667:1.0 126:1.0 1168:2.0 253:3.0 344:2.0 358:2.0 250:4.0 3545:1.0 259:1.0 5:1.0 571:1.0 391:1.0 252:1.0 338:1.0 251:1.0 812:1.0 352:1.0 159:2.0 19:1.0 3546:1.0 
90.0 1:-100.0 3547:1.0 3548:1.0 29:1.0 306:1.0 852:1.0 690:1.0 1324:1.0 3549:1.0 2922:1.0 148:1.0 1885:1.0 663:1.0 3463:1.0 
90.0 1:-100.0 871:1.0 2233:1.0 253:1.0 1330:1.0 380:1.0 3550:1.0 250:1.0 254:1.0 
90.0 1:-100.0 2395:1.0 3109:1.0 37:1.0 41:1.0 3551:1.0 43:1.0 326:1.0 
7.770032313691989 1:0.5 327:1.0 46:1.0 775:1.0 1232:1.0 65:1.0 1916:1.0 24:1.0 924:1.0 22:1.0 362:1.0 5:1.0 39:1.0 3552:1.0 98:1.0 326:1.0 189:1.0 159:1.0 
90.0 1:-100.0 293:1.0 174:1.0 545:1.0 2410:1.0 262:1.0 3553:1.0 465:1.0 13:1.0 
5.239837275287396 1:0.375 35:1.0 641:1.0 327:2.0 5:3.0 69:1.0 123:1.0 3554:1.0 3544:1.0 3555:1.0 130:1.0 75:1.0 2816:1.0 39:2.0 1802:1.0 3556:1.0 2403:1.0 621:1.0 13:4.0 290:1.0 90:2.0 189:2.0 1475:1.0 46:1.0 3557:1.0 3558:1.0 67:1.0 315:1.0 1015:1.0 745:1.0 948:1.0 3:1.0 284:1.0 429:1.0 1478:1.0 3559:1.0 176:1.0 26:1.0 3560:1.0 479:1.0 858:1.0 970:1.0 
34.27379240950136 1:0.0 48:2.0 37:1.0 773:1.0 745:1.0 197:1.0 39:1.0 2545:1.0 112:1.0 972:1.0 5:1.0 3561:1.0 1664:1.0 54:1.0 46:1.0 41:3.0 52:1.0 3562:1.0 484:1.0 218:1.0 2465:1.0 3080:1.0 31:1.0 95:1.0 1841:1.0 1488:1.0 3563:1.0 694:1.0 421:1.0 3564:1.0 3565:1.0 1478:1.0 3566:1.0 2153:1.0 997:1.0 3567:1.0 1218:1.0 3568:1.0 459:1.0 3569:1.0 8:1.0 1351:1.0 1206:1.0 
90.0 1:-100.0 2192:1.0 2569:1.0 3561:1.0 745:1.0 65:1.0 3570:1.0 55:1.0 1524:1.0 3571:1.0 3572:1.0 3573:1.0 1074:1.0 44:1.0 13:1.0 
85.16809371417301 1:-0.041666666666666664 621:1.0 44:2.0 39:1.0 1196:1.0 1809:1.0 3561:1.0 3535:1.0 36:1.0 2395:1.0 3574:1.0 3164:1.0 189:1.0 1236:1.0 702:1.0 1478:1.0 169:1.0 745:1.0 8:1.0 522:1.0 13:1.0 
90.0 1:0.0 41:1.0 730:1.0 123:1.0 22:1.0 39:1.0 473:1.0 17:1.0 198:1.0 3575:1.0 8:1.0 199:1.0 3207:1.0 598:1.0 70:1.0 
90.0 1:-0.5 720:1.0 37:1.0 278:1.0 120:1.0 123:1.0 3576:1.0 
90.0 1:-100.0 3573:1.0 3577:1.0 
90.0 1:-100.0 1126:1.0 153:1.0 287:1.0 2465:1.0 447:1.0 1794:1.0 136:1.0 143:1.0 2204:1.0 13:1.0 
26.815395411120086 1:0.275 3579:1.0 989:1.0 41:1.0 3580:1.0 17:1.0 13:1.0 143:1.0 29:2.0 481:1.0 1819:1.0 1786:1.0 775:1.0 175:1.0 1408:2.0 70:1.0 273:1.0 888:1.0 331:1.0 37:1.0 39:1.0 3581:1.0 1475:1.0 2425:1.0 5:1.0 3582:1.0 209:1.0 2125:1.0 3583:1.0 19:2.0 
90.0 1:-100.0 2196:1.0 48:1.0 98:2.0 46:1.0 52:1.0 542:1.0 5:1.0 41:1.0 2229:1.0 3584:1.0 13:1.0 
14.909991893715556 1:0.5 306:1.0 29:2.0 3584:1.0 3585:1.0 1174:1.0 3586:1.0 145:1.0 822:1.0 3587:1.0 65:1.0 858:2.0 13:2.0 54:1.0 136:1.0 3588:1.0 3589:1.0 191:1.0 3590:1.0 482:1.0 143:1.0 1944:1.0 
19.349140113272068 1:0.3 2758:1.0 29:1.0 47:2.0 771:1.0 145:1.0 3591:2.0 531:1.0 27:1.0 262:1.0 3592:1.0 751:1.0 325:1.0 1023:1.0 297:1.0 218:1.0 285:1.0 75:1.0 2:1.0 3:1.0 4:1.0 261:1.0 2026:1.0 58:1.0 574:1.0 429:1.0 640:1.0 3593:1.0 55:1.0 274:1.0 1179:1.0 108:1.0 241:1.0 52:1.0 775:1.0 10:1.0 2000:1.0 
64.71634057634871 1:0.375 41:1.0 1157:1.0 265:1.0 5:1.0 1864:1.0 601:1.0 48:1.0 83:1.0 1441:1.0 191:1.0 70:1.0 1682:1.0 789:1.0 159:1.0 
90.0 1:-0.5 2863:1.0 275:1.0 153:1.0 489:1.0 1798:1.0 3594:1.0 3595:1.0 31:1.0 82:1.0 1590:1.0 13:1.0 3596:1.0 8:1.0 416:1.0 3597:1.0 29:1.0 55:1.0 1059:1.0 385:1.0 
25.12081194321228 1:0.5625 554:1.0 29:1.0 730:1.0 35:1.0 832:1.0 
90.0 1:-100.0 3598:1.0 956:1.0 143:1.0 3596:1.0 429:1.0 1391:1.0 5:1.0 31:1.0 1155:1.0 260:1.0 398:1.0 107:1.0 108:1.0 
1.2982120049626007 1:0.625 888:1.0 600:1.0 429:1.0 3599:1.0 3600:1.0 3093:1.0 852:1.0 153:1.0 264:1.0 3601:1.0 3536:1.0 3602:1.0 1005:1.0 3603:1.0 619:1.0 
53.82145149902236 1:-0.7499999999999999 455:1.0 29:2.0 3604:1.0 175:2.0 214:2.0 3:1.0 42:1.0 46:1.0 52:1.0 3605:1.0 1199:2.0 37:1.0 603:2.0 850:2.0 851:2.0 852:2.0 853:2.0 619:4.0 759:1.0 183:1.0 3606:1.0 143:1.0 3607:1.0 1812:1.0 533:1.0 416:1.0 13:1.0 275:1.0 1200:1.0 5:1.0 84:1.0 3608:1.0 1115:1.0 189:1.0 
90.0 1:-100.0 44:1.0 46:1.0 323:1.0 960:1.0 191:1.0 922:1.0 725:1.0 306:1.0 13:1.0 
90.0 1:-100.0 922:1.0 2176:1.0 597:1.0 3609:1.0 5:1.0 13:1.0 
90.0 1:-0.5 3610:1.0 3611:1.0 455:2.0 198:1.0 1478:1.0 191:1.0 3612:1.0 35:1.0 2841:1.0 3613:1.0 5:1.0 26:1.0 1149:1.0 285:1.0 600:1.0 905:1.0 43:2.0 1960:1.0 3614:1.0 890:1.0 13:1.0 
19.354379385331743 1:0.08333333333333333 75:1.0 17:1.0 730:1.0 429:1.0 65:1.0 126:1.0 1856:2.0 13:4.0 1334:2.0 3611:2.0 108:1.0 850:1.0 851:1.0 852:1.0 853:1.0 600:1.0 37:1.0 106:1.0 10:3.0 3615:1.0 627:1.0 806:1.0 167:1.0 604:2.0 191:1.0 43:1.0 490:1.0 725:1.0 3616:1.0 197:1.0 3617:1.0 1432:1.0 3618:1.0 29:1.0 47:1.0 3619:1.0 3620:1.0 946:1.0 3589:1.0 3621:1.0 3083:1.0 603:1.0 
90.0 1:-100.0 741:1.0 2197:1.0 3624:1.0 512:1.0 
90.0 1:-100.0 1556:1.0 3037:1.0 37:1.0 39:1.0 82:1.0 741:1.0 3615:1.0 13:1.0 
58.29062271745126 1:-100.0 3622:1.0 13:2.0 337:1.0 74:1.0 117:1.0 39:2.0 180:2.0 3611:1.0 724:1.0 241:1.0 658:1.0 65:1.0 1149:1.0 285:1.0 3623:1.0 1069:1.0 29:1.0 
16.69032733598519 1:0.16666666666666666 509:1.0 3625:1.0 1442:1.0 445:1.0 859:1.0 907:2.0 3626:2.0 870:2.0 832:1.0 3:1.0 274:4.0 1741:1.0 1339:1.0 39:2.0 3627:2.0 3628:1.0 3629:2.0 3630:1.0 5:1.0 37:1.0 278:1.0 1980:1.0 3631:1.0 169:1.0 454:1.0 13:2.0 3632:1.0 2891:1.0 989:1.0 165:1.0 566:1.0 661:1.0 574:1.0 3633:1.0 27:1.0 176:1.0 159:1.0 396:1.0 3634:1.0 
90.0 1:-100.0 2493:1.0 2323:1.0 55:1.0 13:1.0 332:1.0 327:1.0 3635:1.0 1451:1.0 405:1.0 264:1.0 
90.0 1:-100.0 113:1.0 741:1.0 1590:1.0 
90.0 1:-100.0 3636:1.0 52:1.0 39:1.0 1192:1.0 2452:1.0 2789:1.0 159:1.0 
90.0 1:-100.0 41:1.0 55:1.0 1932:1.0 189:1.0 654:1.0 3637:1.0 2496:1.0 13:1.0 
90.0 1:-100.0 3240:1.0 306:1.0 29:1.0 55:2.0 1237:1.0 10:1.0 3638:1.0 757:1.0 3639:1.0 1381:1.0 19:1.0 
90.0 1:-100.0 2503:1.0 778:1.0 169:1.0 75:1.0 686:1.0 209:1.0 3640:1.0 1734:1.0 597:1.0 19:1.0 3641:1.0 32:1.0 1431:1.0 
90.0 1:-100.0 1522:1.0 3642:1.0 620:1.0 
90.0 1:-100.0 955:1.0 133:1.0 804:1.0 508:1.0 69:1.0 197:1.0 840:1.0 13:1.0 
90.0 1:-100.0 17:1.0 10:1.0 1435:1.0 5:1.0 3643:1.0 93:1.0 840:1.0 13:1.0 
90.0 1:-0.625 686:1.0 67:1.0 3644:1.0 1360:2.0 262:1.0 3645:1.0 726:1.0 328:1.0 3646:1.0 3396:1.0 169:1.0 41:1.0 3647:1.0 98:1.0 597:1.0 
90.0 1:-100.0 774:1.0 2992:1.0 108:1.0 1425:1.0 17:1.0 1232:1.0 3649:1.0 1396:1.0 46:1.0 135:1.0 52:1.0 32:1.0 
90.0 1:-100.0 871:1.0 318:1.0 661:1.0 332:1.0 509:1.0 29:1.0 43:1.0 148:1.0 603:1.0 1856:1.0 
90.0 1:-100.0 2529:1.0 928:1.0 929:1.0 
10.86750974173436 1:0.140625 35:1.0 3652:1.0 1617:1.0 27:2.0 39:2.0 620:1.0 1327:1.0 1151:1.0 2762:2.0 5:4.0 3653:1.0 13:3.0 125:1.0 752:1.0 238:1.0 334:1.0 8:1.0 416:1.0 1179:2.0 175:1.0 2529:1.0 197:1.0 429:2.0 3654:1.0 199:1.0 1676:1.0 36:2.0 627:1.0 47:1.0 262:2.0 2459:1.0 648:1.0 3655:1.0 604:1.0 207:1.0 3656:1.0 2525:1.0 32:1.0 235:1.0 3657:1.0 893:1.0 174:1.0 1973:1.0 1499:1.0 2411:1.0 44:1.0 2617:1.0 535:1.0 757:1.0 1976:1.0 965:1.0 1300:1.0 2134:1.0 
90.0 1:-100.0 3658:1.0 5:2.0 621:1.0 435:1.0 1533:1.0 323:1.0 3659:1.0 82:1.0 209:1.0 3660:1.0 70:1.0 
90.0 1:-100.0 1188:1.0 1191:1.0 135:1.0 745:1.0 727:1.0 2107:1.0 315:1.0 176:1.0 
90.0 1:-100.0 31:1.0 41:1.0 2283:1.0 727:1.0 2107:1.0 597:1.0 70:1.0 13:1.0 
90.0 1:-100.0 434:1.0 41:1.0 946:1.0 947:1.0 197:1.0 948:1.0 
90.0 1:-100.0 308:1.0 770:1.0 2787:1.0 610:1.0 1012:1.0 35:1.0 447:1.0 29:1.0 1015:1.0 745:1.0 689:1.0 183:1.0 461:1.0 603:1.0 3661:1.0 
50.658586638858864 1:0.375 133:1.0 745:1.0 1015:1.0 3662:1.0 3663:1.0 2991:1.0 5:1.0 1864:1.0 328:1.0 3664:2.0 10:1.0 3665:1.0 13:1.0 
75.66953945803549 1:-100.0 686:1.0 303:1.0 46:1.0 3666:1.0 13:1.0 26:1.0 261:1.0 1254:1.0 745:1.0 2220:1.0 970:1.0 2193:1.0 5:1.0 145:1.0 118:1.0 39:1.0 17:1.0 223:1.0 209:1.0 3667:1.0 
90.0 1:-100.0 46:1.0 223:1.0 745:1.0 602:1.0 55:1.0 1262:1.0 1962:1.0 159:1.0 
90.0 1:-100.0 745:1.0 48:1.0 37:1.0 100:1.0 3668:1.0 2354:1.0 29:1.0 3669:1.0 95:1.0 87:1.0 500:1.0 603:1.0 604:2.0 
30.601262237492822 1:-100.0 275:1.0 29:3.0 143:1.0 2037:1.0 3670:1.0 210:1.0 5:2.0 95:1.0 41:1.0 52:1.0 1916:3.0 13:2.0 207:1.0 223:1.0 3671:1.0 191:1.0 3672:2.0 764:1.0 260:1.0 753:2.0 404:2.0 
90.0 1:-100.0 418:1.0 113:1.0 1256:1.0 3679:1.0 3011:1.0 3069:1.0 
25.858718966001017 1:0.5625 671:1.0 532:1.0 965:1.0 454:1.0 13:2.0 416:1.0 1017:1.0 278:1.0 429:1.0 65:1.0 17:1.0 1370:1.0 
22.4859525598077 1:0.2 1370:1.0 1066:2.0 35:2.0 326:1.0 46:1.0 308:1.0 454:1.0 13:3.0 3:1.0 823:1.0 191:1.0 703:2.0 3680:1.0 41:1.0 39:2.0 285:1.0 169:1.0 223:1.0 543:1.0 2924:1.0 3681:1.0 5:2.0 621:2.0 1794:1.0 305:1.0 43:1.0 70:1.0 209:1.0 327:1.0 52:1.0 3682:1.0 3683:1.0 431:1.0 25:1.0 432:1.0 133:1.0 448:1.0 2583:1.0 
2.1309028326062323 1:0.59375 1331:1.0 3684:1.0 484:1.0 218:2.0 278:1.0 39:2.0 3685:1.0 3248:1.0 3686:1.0 1926:1.0 19:3.0 191:1.0 197:1.0 455:1.0 1370:3.0 148:1.0 3:1.0 479:1.0 1754:1.0 108:1.0 75:1.0 125:1.0 143:1.0 461:1.0 41:1.0 1066:1.0 321:1.0 29:1.0 2499:1.0 175:1.0 449:1.0 70:1.0 
17.265086062760144 1:0.08333333333333333 327:2.0 39:4.0 55:1.0 510:1.0 1889:1.0 3687:2.0 744:1.0 5:2.0 3688:1.0 1064:1.0 8:1.0 621:1.0 889:1.0 1321:1.0 2590:1.0 1179:1.0 197:1.0 1328:1.0 3689:1.0 63:1.0 13:1.0 207:1.0 37:1.0 366:1.0 3690:1.0 3691:1.0 1542:1.0 323:1.0 41:1.0 3692:1.0 192:1.0 36:1.0 907:1.0 1424:1.0 870:1.0 
12.647828416251947 1:0.017857142857142856 75:1.0 3693:1.0 36:1.0 663:1.0 416:1.0 3694:1.0 17:5.0 1370:1.0 191:2.0 1066:2.0 35:1.0 1067:1.0 41:2.0 316:1.0 5:4.0 145:2.0 2787:1.0 610:1.0 603:1.0 753:2.0 404:2.0 816:1.0 3319:1.0 199:3.0 2167:2.0 2363:1.0 209:1.0 1507:1.0 3695:2.0 590:2.0 29:2.0 317:3.0 2794:1.0 3696:1.0 37:1.0 2789:1.0 3697:1.0 13:2.0 1932:1.0 3698:1.0 175:1.0 1256:1.0 3559:2.0 8:1.0 45:1.0 2495:1.0 1112:1.0 2985:1.0 488:1.0 59:1.0 429:1.0 81:1.0 1917:1.0 431:1.0 
13.781572878337114 1:0.5625 96:1.0 39:1.0 1017:1.0 10:1.0 1846:1.0 326:1.0 5:1.0 418:1.0 205:1.0 1442:1.0 262:2.0 890:1.0 54:2.0 169:1.0 1126:1.0 3699:1.0 2518:1.0 65:1.0 
54.608980094454004 1:-0.16666666666666666 35:2.0 447:1.0 17:1.0 58:1.0 363:1.0 46:1.0 52:1.0 893:1.0 1420:1.0 22:1.0 133:1.0 982:1.0 43:1.0 1321:1.0 13:3.0 1066:1.0 2451:1.0 997:1.0 3700:1.0 518:1.0 3701:1.0 3119:1.0 145:1.0 41:1.0 120:1.0 1151:1.0 
3.6851000716846696 1:0.5208333333333334 260:1.0 17:1.0 27:3.0 435:1.0 429:1.0 44:1.0 13:3.0 770:1.0 90:1.0 325:1.0 3:1.0 35:2.0 965:2.0 2109:1.0 26:1.0 363:1.0 108:1.0 1321:1.0 2163:1.0 46:1.0 96:1.0 320:1.0 98:1.0 5:5.0 2525:1.0 3702:1.0 287:1.0 775:1.0 3703:1.0 1974:1.0 93:1.0 2392:1.0 3704:1.0 3705:1.0 3706:1.0 477:1.0 1485:1.0 70:1.0 130:2.0 75:1.0 588:1.0 52:1.0 2825:1.0 119:1.0 
61.25023781016501 1:-100.0 1051:1.0 143:1.0 1070:1.0 3707:1.0 2632:1.0 1069:1.0 31:1.0 3107:1.0 1066:1.0 19:4.0 
57.56277709291176 1:-100.0 847:1.0 289:1.0 199:1.0 48:1.0 126:1.0 191:2.0 1499:1.0 3708:1.0 3709:1.0 67:1.0 848:1.0 762:1.0 3:1.0 1556:1.0 1321:1.0 37:1.0 3710:1.0 29:1.0 17:2.0 2789:1.0 3711:1.0 13:1.0 
90.0 1:-100.0 1054:1.0 621:1.0 198:1.0 1151:1.0 10:1.0 1874:1.0 693:1.0 1804:1.0 52:1.0 135:1.0 597:1.0 19:1.0 
90.0 1:-100.0 3713:1.0 1100:1.0 1076:1.0 3:1.0 965:1.0 218:1.0 472:1.0 3714:1.0 
90.0 1:-100.0 35:1.0 965:1.0 46:1.0 125:1.0 454:1.0 159:1.0 
19.898999980262396 1:0.5625 1185:1.0 191:1.0 104:1.0 1093:1.0 29:1.0 199:1.0 3715:1.0 775:1.0 153:1.0 67:1.0 858:1.0 18:1.0 3699:1.0 999:1.0 13:1.0 
90.0 1:-100.0 290:1.0 308:1.0 1051:1.0 363:1.0 760:1.0 
88.6063157669256 1:-100.0 39:1.0 3717:1.0 41:1.0 125:1.0 965:1.0 19:1.0 13:2.0 290:1.0 284:1.0 609:1.0 1451:1.0 315:1.0 44:1.0 95:1.0 
76.03057512038124 1:-100.0 743:1.0 879:1.0 3718:1.0 5:2.0 3648:1.0 3681:1.0 70:1.0 432:1.0 39:1.0 479:1.0 48:1.0 1230:1.0 153:1.0 411:1.0 178:1.0 213:1.0 176:1.0 
43.2365802964036 1:-100.0 1235:1.0 253:2.0 352:3.0 368:1.0 355:1.0 3719:2.0 250:2.0 256:2.0 5:1.0 406:1.0 338:1.0 479:1.0 812:1.0 603:1.0 604:1.0 
90.0 1:-100.0 37:1.0 169:1.0 3720:1.0 1477:1.0 70:1.0 
90.0 1:-100.0 3721:1.0 3593:1.0 1143:1.0 273:1.0 904:1.0 3722:1.0 467:1.0 3723:1.0 1218:1.0 363:1.0 56:1.0 3724:1.0 3725:1.0 41:1.0 113:1.0 13:1.0 
90.0 1:-100.0 2902:1.0 13:2.0 509:1.0 3726:1.0 
90.0 1:0.0 2411:1.0 177:1.0 366:2.0 3209:1.0 290:1.0 584:1.0 5:1.0 67:1.0 157:1.0 284:1.0 3727:1.0 93:1.0 
90.0 1:-100.0 10:1.0 3734:1.0 1140:1.0 39:1.0 3735:1.0 17:2.0 126:1.0 2037:1.0 1330:1.0 
90.0 1:-100.0 1611:1.0 37:1.0 1191:1.0 275:1.0 328:1.0 2226:1.0 
78.18573666171383 1:-100.0 38:1.0 39:2.0 342:1.0 13:1.0 5:1.0 533:1.0 17:1.0 278:1.0 435:1.0 10:1.0 741:1.0 133:1.0 1611:1.0 37:1.0 
90.0 1:-0.75 3742:3.0 3743:2.0 2632:1.0 25:1.0 816:1.0 39:1.0 13:2.0 3744:1.0 29:1.0 3745:1.0 3746:1.0 
21.112804745160137 1:0.0 546:1.0 620:1.0 451:1.0 41:2.0 52:2.0 42:1.0 46:1.0 3747:1.0 3748:1.0 533:1.0 1199:2.0 169:1.0 44:1.0 293:1.0 113:1.0 5:4.0 773:1.0 623:1.0 3749:1.0 153:1.0 1799:1.0 198:1.0 781:1.0 278:1.0 436:1.0 610:1.0 3750:1.0 37:2.0 455:2.0 3751:1.0 82:1.0 3752:1.0 191:2.0 1369:1.0 3753:1.0 235:1.0 218:2.0 3754:1.0 238:1.0 3349:1.0 8:1.0 194:1.0 197:1.0 328:1.0 43:1.0 199:1.0 38:1.0 448:1.0 323:1.0 3755:1.0 2019:1.0 
90.0 1:-100.0 61:1.0 37:1.0 107:1.0 381:1.0 482:1.0 3756:1.0 13:1.0 
24.933525228132943 1:0.5 42:1.0 41:1.0 223:1.0 982:1.0 1108:1.0 133:1.0 145:1.0 2387:1.0 29:1.0 285:1.0 
90.0 1:-100.0 67:1.0 858:1.0 46:1.0 293:1.0 982:1.0 1475:1.0 454:1.0 13:1.0 
6.921901455040471 1:-0.625 1230:1.0 338:10.0 352:9.0 1171:1.0 253:8.0 347:1.0 250:11.0 551:2.0 385:1.0 2677:2.0 346:1.0 135:1.0 982:1.0 5:2.0 361:1.0 256:5.0 362:1.0 577:1.0 391:4.0 379:1.0 2560:2.0 565:2.0 3757:1.0 1085:3.0 355:3.0 578:1.0 1497:1.0 2769:1.0 145:2.0 2045:1.0 258:1.0 401:1.0 254:2.0 571:1.0 13:2.0 302:1.0 678:1.0 965:2.0 31:1.0 41:1.0 358:1.0 3758:1.0 2211:1.0 406:1.0 2224:1.0 259:1.0 377:1.0 364:1.0 402:1.0 3759:1.0 370:1.0 1777:1.0 1882:1.0 
6.861648907374598 1:0.5625 877:1.0 2677:1.0 145:1.0 41:2.0 730:1.0 2283:1.0 2936:1.0 5:2.0 328:1.0 10:1.0 741:1.0 3760:1.0 3761:1.0 175:1.0 832:1.0 2762:1.0 113:1.0 3762:1.0 148:1.0 118:1.0 999:1.0 1896:1.0 1897:1.0 3763:1.0 
0.3006052418604172 1:0.625 3764:1.0 3:2.0 1473:1.0 108:1.0 159:1.0 1108:2.0 1252:1.0 1522:1.0 1236:1.0 484:1.0 13:2.0 1051:1.0 408:1.0 370:1.0 431:1.0 3765:1.0 26:1.0 43:1.0 
56.010838844069745 1:0.12499999999999994 3766:1.0 1330:1.0 323:1.0 982:1.0 55:1.0 661:1.0 21:1.0 48:1.0 153:1.0 3767:1.0 191:1.0 2731:1.0 13:2.0 1108:1.0 1252:1.0 580:1.0 65:1.0 67:1.0 3768:1.0 3:1.0 41:1.0 320:1.0 484:1.0 
90.0 1:-100.0 455:1.0 982:2.0 3:1.0 3769:1.0 183:1.0 41:1.0 217:1.0 
2.3522325848852703 1:0.5 61:1.0 982:1.0 133:1.0 997:1.0 1252:1.0 41:1.0 3770:1.0 3771:1.0 2890:1.0 253:4.0 509:1.0 369:1.0 250:3.0 391:1.0 3541:1.0 338:1.0 254:1.0 405:2.0 258:2.0 342:2.0 551:1.0 402:1.0 1777:1.0 352:1.0 1882:1.0 256:1.0 1079:1.0 344:1.0 
50.23160432480245 1:0.5 31:1.0 54:1.0 1252:1.0 169:1.0 118:1.0 2184:1.0 34:1.0 597:1.0 
90.0 1:-100.0 218:1.0 982:1.0 602:1.0 303:1.0 197:1.0 3772:1.0 133:1.0 
30.62961579082993 1:0.625 121:1.0 832:1.0 1360:1.0 1452:1.0 24:1.0 2015:1.0 1093:1.0 608:1.0 1185:1.0 19:1.0 
90.0 1:-100.0 2693:1.0 169:1.0 656:1.0 999:1.0 2696:1.0 1477:1.0 
90.0 1:-100.0 121:1.0 19:1.0 
17.015089025982448 1:0.28125 2693:1.0 113:1.0 2367:1.0 943:1.0 2644:1.0 29:1.0 281:1.0 5:5.0 86:1.0 39:1.0 1949:1.0 3773:1.0 3774:1.0 32:1.0 198:1.0 3775:1.0 3776:1.0 999:1.0 1114:1.0 13:1.0 832:1.0 1452:1.0 3777:1.0 218:1.0 3778:1.0 546:1.0 623:1.0 2237:1.0 3779:1.0 41:1.0 1678:1.0 770:1.0 2438:1.0 159:1.0 
90.0 1:-0.5 847:1.0 848:1.0 37:1.0 328:1.0 1261:1.0 29:1.0 1150:1.0 135:1.0 225:1.0 13:1.0 
90.0 1:-100.0 3780:1.0 199:1.0 1288:2.0 133:1.0 5:1.0 418:1.0 93:1.0 1927:1.0 165:1.0 1965:1.0 29:1.0 2936:1.0 70:1.0 
5.805615881099485 1:0.20833333333333334 588:1.0 29:1.0 1278:1.0 556:1.0 730:1.0 885:2.0 1108:2.0 5:11.0 1927:2.0 2135:1.0 564:2.0 1332:1.0 153:2.0 3781:1.0 238:1.0 1291:1.0 1292:1.0 3503:1.0 3782:1.0 890:1.0 1288:2.0 133:1.0 31:1.0 41:1.0 3783:1.0 67:2.0 858:2.0 3784:1.0 1300:2.0 108:1.0 1330:2.0 32:1.0 165:1.0 209:1.0 680:1.0 681:1.0 3785:1.0 3786:1.0 70:1.0 284:1.0 3787:1.0 743:1.0 807:1.0 27:1.0 429:1.0 770:1.0 3:1.0 3178:1.0 2163:1.0 3788:1.0 39:1.0 3789:2.0 46:1.0 3091:1.0 3790:1.0 87:1.0 43:1.0 421:1.0 1307:1.0 175:1.0 13:1.0 
26.576240945684035 1:-0.1625 2979:1.0 1181:1.0 1150:3.0 39:1.0 1153:1.0 775:1.0 363:1.0 108:1.0 29:2.0 143:2.0 1693:3.0 3791:1.0 70:1.0 145:1.0 2749:1.0 1860:1.0 65:2.0 67:3.0 556:1.0 43:2.0 3792:1.0 191:1.0 24:1.0 17:1.0 601:1.0 63:1.0 2601:1.0 275:1.0 13:3.0 1256:1.0 455:1.0 483:1.0 75:1.0 148:1.0 381:1.0 3793:1.0 911:1.0 678:1.0 461:1.0 
79.71662556171249 1:-0.3333333333333333 1256:2.0 816:1.0 82:1.0 1276:1.0 3794:1.0 43:1.0 47:1.0 29:2.0 3795:2.0 1937:1.0 5:1.0 24:1.0 376:1.0 3796:1.0 191:1.0 3797:1.0 13:2.0 275:1.0 1199:1.0 3798:1.0 26:1.0 775:1.0 
90.0 1:-100.0 125:1.0 1321:1.0 447:1.0 159:1.0 305:1.0 39:1.0 1542:1.0 3799:1.0 135:1.0 
63.993894764563805 1:0.375 52:1.0 260:1.0 2729:1.0 29:1.0 658:1.0 3800:1.0 3801:1.0 175:1.0 646:1.0 3802:1.0 1965:1.0 159:1.0 
90.0 1:-100.0 327:1.0 609:1.0 175:2.0 1990:1.0 564:1.0 1332:1.0 5:1.0 3803:1.0 29:1.0 3800:1.0 
42.024981452085726 1:-100.0 2179:1.0 421:1.0 2896:1.0 1073:1.0 29:2.0 1108:1.0 1337:1.0 1338:1.0 1333:1.0 5:1.0 306:1.0 658:2.0 3804:1.0 1521:1.0 175:2.0 646:1.0 3802:1.0 1965:2.0 95:1.0 41:1.0 52:1.0 1291:1.0 176:1.0 159:1.0 
90.0 1:-100.0 303:1.0 197:1.0 3334:1.0 764:1.0 847:1.0 2469:1.0 262:1.0 455:1.0 176:1.0 13:1.0 
90.0 1:-100.0 3805:1.0 
64.58591070654359 1:-100.0 46:1.0 29:3.0 3800:1.0 125:1.0 275:1.0 145:1.0 829:1.0 3806:1.0 473:1.0 2347:1.0 5:1.0 588:1.0 35:1.0 306:1.0 
90.0 1:-100.0 1337:1.0 1338:1.0 1333:1.0 
90.0 1:-100.0 293:1.0 10:1.0 2575:1.0 3469:1.0 
90.0 1:-0.375 67:1.0 315:1.0 1030:1.0 148:1.0 658:2.0 37:1.0 29:1.0 3807:1.0 661:1.0 3800:1.0 95:1.0 41:1.0 52:1.0 1333:1.0 
18.775324993955593 1:0.5 1888:1.0 1108:1.0 1442:1.0 323:1.0 224:1.0 153:1.0 623:1.0 1799:1.0 2725:1.0 37:1.0 19:3.0 
15.993408618606784 1:-0.20833333333333334 3808:1.0 621:2.0 175:3.0 2777:2.0 455:4.0 2326:1.0 3809:1.0 8:1.0 416:1.0 3810:1.0 3811:1.0 2769:1.0 10:4.0 3812:1.0 3674:1.0 191:4.0 456:1.0 2089:1.0 858:1.0 2639:1.0 3214:1.0 13:1.0 1592:1.0 1176:1.0 1207:1.0 3813:1.0 197:1.0 730:1.0 610:1.0 2015:2.0 2004:1.0 5:3.0 143:3.0 1491:1.0 3814:1.0 130:1.0 75:1.0 899:1.0 1976:1.0 278:2.0 452:1.0 3815:1.0 27:1.0 816:1.0 3816:1.0 265:1.0 1053:1.0 198:1.0 3817:1.0 3818:1.0 43:1.0 2526:1.0 945:1.0 1506:1.0 14:1.0 3819:1.0 782:1.0 2768:1.0 1925:1.0 770:1.0 703:1.0 502:1.0 37:1.0 71:1.0 21:1.0 274:1.0 804:1.0 3820:1.0 
90.0 1:0.0 2491:1.0 3821:1.0 13:1.0 
6.194417054717284 1:-0.1875 1848:1.0 1888:1.0 133:1.0 10:3.0 1291:1.0 153:1.0 3822:1.0 1720:1.0 1674:1.0 589:1.0 2554:1.0 5:14.0 145:2.0 113:1.0 8:1.0 75:1.0 1342:7.0 1114:1.0 165:1.0 592:1.0 1411:1.0 171:1.0 29:1.0 143:1.0 588:1.0 3823:1.0 816:1.0 41:1.0 2366:1.0 47:2.0 1351:1.0 175:1.0 1976:1.0 275:1.0 3824:1.0 3825:1.0 559:1.0 3220:1.0 323:1.0 198:2.0 2236:2.0 1673:2.0 39:1.0 2092:1.0 3826:1.0 1666:1.0 1090:1.0 1295:1.0 197:1.0 26:1.0 35:1.0 220:1.0 226:1.0 168:1.0 66:1.0 59:1.0 13:1.0 850:1.0 851:1.0 852:1.0 853:1.0 1149:1.0 3827:1.0 37:1.0 238:1.0 43:1.0 64:2.0 3828:1.0 27:2.0 3829:1.0 3830:1.0 3831:1.0 3832:1.0 3047:1.0 1892:1.0 169:1.0 278:1.0 3833:1.0 17:2.0 3834:1.0 262:1.0 3835:1.0 1507:1.0 3836:1.0 1956:1.0 858:1.0 3783:1.0 67:1.0 907:1.0 1424:1.0 870:1.0 3837:1.0 2128:1.0 2217:1.0 3838:1.0 70:1.0 
90.0 1:-100.0 1624:1.0 5:1.0 48:1.0 98:1.0 293:1.0 1146:1.0 65:1.0 1067:1.0 858:1.0 1256:1.0 598:1.0 19:1.0 
90.0 1:-100.0 112:1.0 159:1.0 28:1.0 124:1.0 2281:1.0 44:1.0 639:1.0 621:1.0 543:1.0 698:1.0 3839:1.0 13:1.0 1162:1.0 533:1.0 17:1.0 1163:1.0 
90.0 1:-100.0 69:1.0 1255:1.0 5:1.0 1256:1.0 2326:1.0 2279:1.0 133:1.0 175:1.0 1259:1.0 19:1.0 
90.0 1:-100.0 614:1.0 98:1.0 293:1.0 1146:1.0 36:1.0 461:1.0 598:1.0 19:1.0 
88.41109913705954 1:-100.0 143:1.0 1327:1.0 753:2.0 404:2.0 3840:1.0 3841:1.0 165:1.0 17:1.0 1210:1.0 19:1.0 159:1.0 
90.0 1:-100.0 1380:1.0 41:1.0 113:1.0 858:1.0 1256:1.0 3848:1.0 65:1.0 1259:1.0 
46.74181687988741 1:0.0 2795:1.0 2796:1.0 3849:1.0 260:1.0 130:1.0 180:1.0 13:3.0 306:1.0 29:1.0 416:1.0 1139:1.0 3850:1.0 235:1.0 218:1.0 143:1.0 589:1.0 2554:1.0 3851:1.0 2354:1.0 67:1.0 3852:1.0 46:1.0 278:1.0 730:1.0 1713:1.0 1351:1.0 175:1.0 44:1.0 
90.0 1:-100.0 3853:1.0 180:1.0 5:1.0 48:1.0 272:1.0 3854:1.0 678:1.0 41:1.0 3855:1.0 3856:1.0 411:1.0 1779:1.0 1267:1.0 13:1.0 
23.39175845064255 1:0.05 1192:1.0 35:1.0 965:1.0 2895:1.0 65:1.0 17:2.0 2062:1.0 5:2.0 145:1.0 27:2.0 93:1.0 32:1.0 2985:1.0 1304:2.0 13:2.0 509:1.0 327:1.0 3494:1.0 43:1.0 42:1.0 169:1.0 3857:1.0 3:1.0 8:2.0 262:1.0 1132:1.0 452:2.0 274:1.0 207:1.0 1543:1.0 63:1.0 2427:1.0 22:1.0 1864:1.0 3795:1.0 3858:1.0 86:1.0 
90.0 1:-0.0625 1394:1.0 75:1.0 619:2.0 3859:1.0 1534:1.0 193:1.0 159:1.0 
90.0 1:-0.5 143:2.0 581:1.0 1232:1.0 29:1.0 42:1.0 2200:1.0 2055:1.0 5:1.0 197:1.0 198:1.0 1478:1.0 480:1.0 3860:1.0 3861:1.0 639:1.0 8:1.0 17:1.0 41:1.0 3862:1.0 65:1.0 1051:1.0 3863:1.0 3864:1.0 3865:1.0 13:1.0 
1.1498681182448744 1:0.5 556:2.0 262:2.0 730:2.0 3866:1.0 850:5.0 851:5.0 852:5.0 853:5.0 148:1.0 133:1.0 130:1.0 1218:1.0 1435:1.0 1501:1.0 3867:1.0 3448:1.0 3868:1.0 1793:1.0 1940:1.0 601:2.0 3869:1.0 3159:1.0 1441:1.0 10:2.0 167:1.0 1274:1.0 3870:1.0 655:1.0 3871:1.0 3872:1.0 3873:1.0 3874:1.0 3875:1.0 13:1.0 
90.0 1:-0.5 3619:1.0 37:1.0 169:1.0 8:1.0 262:1.0 1132:1.0 3:1.0 113:1.0 43:1.0 1944:1.0 61:1.0 
90.0 1:-100.0 1212:1.0 556:1.0 43:1.0 27:1.0 3876:1.0 250:1.0 2204:1.0 557:1.0 165:1.0 167:1.0 
90.0 1:-100.0 17:1.0 10:1.0 1435:1.0 2447:1.0 594:1.0 430:1.0 13:1.0 107:1.0 3877:1.0 1818:1.0 421:1.0 817:1.0 
90.0 1:-100.0 1435:1.0 946:1.0 947:1.0 603:1.0 604:2.0 
90.0 1:-0.5 67:2.0 157:2.0 8:1.0 264:1.0 805:1.0 306:1.0 29:1.0 1435:1.0 98:1.0 125:1.0 
84.53063297729567 1:-100.0 178:1.0 3880:1.0 455:1.0 2805:1.0 13:1.0 850:1.0 851:1.0 852:1.0 853:1.0 839:1.0 3405:1.0 213:1.0 3881:1.0 169:1.0 3882:1.0 774:1.0 10:1.0 3883:1.0 
37.140724389986225 1:0.5 1054:1.0 41:1.0 3884:1.0 2467:1.0 1177:1.0 223:1.0 775:1.0 65:1.0 42:1.0 3645:1.0 
35.92634831386551 1:-100.0 327:1.0 962:1.0 323:2.0 39:1.0 130:1.0 75:1.0 2001:1.0 3885:1.0 1505:1.0 724:1.0 165:1.0 3886:1.0 17:3.0 424:1.0 191:1.0 3887:1.0 3888:1.0 3889:1.0 13:2.0 3214:1.0 533:1.0 61:1.0 731:1.0 278:1.0 10:1.0 2105:1.0 133:1.0 528:1.0 
90.0 1:-100.0 161:1.0 24:1.0 90:1.0 429:1.0 1054:1.0 29:1.0 328:1.0 1155:1.0 282:1.0 1365:1.0 
71.26765706759986 1:-0.625 35:3.0 447:1.0 792:1.0 2885:1.0 323:1.0 43:1.0 122:1.0 65:2.0 2722:2.0 29:1.0 1508:1.0 5:2.0 1160:1.0 2725:1.0 39:1.0 588:1.0 98:1.0 755:1.0 661:1.0 1428:1.0 90:1.0 1284:1.0 712:1.0 63:1.0 3890:1.0 223:1.0 3891:1.0 13:1.0 
90.0 1:-100.0 197:1.0 67:1.0 3891:1.0 25:1.0 1995:1.0 557:1.0 13:1.0 
90.0 1:-100.0 432:1.0 63:1.0 953:1.0 5:1.0 910:1.0 2041:1.0 14:1.0 2245:1.0 41:1.0 225:1.0 13:1.0 
90.0 1:-0.5 404:2.0 2579:1.0 910:1.0 69:1.0 275:1.0 455:1.0 1432:1.0 272:1.0 2887:1.0 601:1.0 315:1.0 3892:1.0 822:1.0 2870:1.0 262:1.0 3893:1.0 13:1.0 753:1.0 306:1.0 29:1.0 129:1.0 537:1.0 1128:1.0 8:1.0 911:1.0 342:1.0 
66.59334859762023 1:-100.0 1205:1.0 2222:3.0 3391:2.0 13:2.0 3894:1.0 174:1.0 3895:1.0 218:1.0 3896:1.0 
3.8150555627136846 1:-0.5 327:1.0 561:1.0 355:5.0 1898:2.0 253:13.0 256:5.0 2560:1.0 250:15.0 391:5.0 384:1.0 258:6.0 352:7.0 578:5.0 3897:2.0 338:9.0 398:2.0 871:2.0 509:4.0 1468:4.0 1599:1.0 361:1.0 1079:2.0 344:2.0 13:3.0 367:1.0 259:1.0 41:4.0 393:1.0 302:1.0 5:2.0 346:2.0 2846:2.0 406:1.0 2045:2.0 390:1.0 1442:1.0 8:1.0 2848:1.0 358:2.0 209:1.0 254:4.0 1171:3.0 1086:1.0 395:1.0 197:1.0 3898:1.0 3899:1.0 364:1.0 1605:1.0 392:1.0 2849:1.0 670:2.0 377:1.0 386:1.0 2233:1.0 408:1.0 379:1.0 376:1.0 396:1.0 1167:1.0 251:1.0 2737:1.0 385:2.0 405:1.0 342:1.0 
5.652466744337839 1:0.5 143:1.0 3900:1.0 1597:1.0 159:1.0 1256:1.0 1619:1.0 39:1.0 730:1.0 278:1.0 238:1.0 3901:1.0 289:1.0 421:1.0 48:1.0 3902:1.0 29:1.0 623:1.0 2222:1.0 63:1.0 3903:1.0 2907:1.0 472:1.0 2247:1.0 2216:1.0 1734:1.0 41:1.0 19:1.0 
90.0 1:-100.0 143:1.0 1233:1.0 1597:1.0 3904:1.0 13:1.0 1149:1.0 2216:1.0 37:1.0 169:1.0 472:1.0 966:1.0 1949:1.0 113:1.0 3905:1.0 24:1.0 3906:1.0 
90.0 1:-100.0 31:1.0 3907:1.0 1590:2.0 272:1.0 275:1.0 3861:1.0 169:1.0 3480:1.0 1478:1.0 125:1.0 19:1.0 
90.0 1:-100.0 238:1.0 2099:1.0 1000:1.0 1142:1.0 
20.928691656027993 1:0.375 1764:1.0 31:1.0 135:1.0 2073:3.0 1216:2.0 272:2.0 1570:1.0 3908:1.0 3909:1.0 1972:1.0 3910:1.0 2076:1.0 1564:1.0 3911:1.0 5:1.0 346:1.0 152:1.0 3912:1.0 3913:1.0 2992:1.0 3914:1.0 1473:1.0 2079:1.0 
90.0 1:-100.0 238:1.0 52:1.0 601:1.0 165:1.0 3915:1.0 363:1.0 183:1.0 13:1.0 
90.0 1:-100.0 327:1.0 46:1.0 774:1.0 43:1.0 3916:1.0 143:1.0 1540:1.0 
90.0 1:0.0 8:1.0 327:2.0 2685:1.0 467:1.0 488:1.0 175:1.0 1628:1.0 454:1.0 775:1.0 24:1.0 25:1.0 159:1.0 
90.0 1:-100.0 327:1.0 46:1.0 774:1.0 43:1.0 3916:1.0 852:1.0 55:1.0 467:1.0 
69.87225800183829 1:0.0 327:1.0 39:2.0 143:1.0 331:1.0 315:1.0 113:1.0 8:1.0 3917:1.0 5:1.0 69:1.0 1327:1.0 37:1.0 41:2.0 730:1.0 663:1.0 858:1.0 19:1.0 
90.0 1:-100.0 600:2.0 1734:1.0 180:1.0 1926:1.0 145:1.0 46:2.0 3918:1.0 47:1.0 140:1.0 93:1.0 148:1.0 13:1.0 
90.0 1:-100.0 404:1.0 890:2.0 262:1.0 27:1.0 41:1.0 328:1.0 3921:1.0 175:1.0 2950:1.0 326:1.0 13:1.0 
67.7562100626179 1:-0.25 45:1.0 533:2.0 17:4.0 480:1.0 3227:1.0 2411:1.0 5:1.0 3117:1.0 278:1.0 39:1.0 143:1.0 399:1.0 177:1.0 13:1.0 3922:1.0 890:1.0 43:1.0 275:1.0 29:1.0 42:1.0 19:1.0 256:1.0 
14.690252143011218 1:0.18055555555555555 327:1.0 328:2.0 75:1.0 17:1.0 982:1.0 1310:3.0 272:4.0 852:4.0 1794:1.0 989:1.0 997:1.0 3923:1.0 606:2.0 963:2.0 37:1.0 3924:1.0 82:1.0 48:2.0 870:1.0 1023:1.0 3766:1.0 770:1.0 421:1.0 1264:1.0 1894:1.0 41:1.0 39:1.0 2827:2.0 98:1.0 218:1.0 3925:1.0 479:2.0 3926:1.0 1725:1.0 2479:1.0 3927:1.0 70:1.0 153:1.0 136:1.0 8:1.0 174:1.0 3928:1.0 191:1.0 13:1.0 396:1.0 159:1.0 
43.617525419942005 1:-1.3877787807814457E-17 207:1.0 1236:1.0 284:1.0 982:1.0 145:1.0 286:1.0 29:1.0 1318:1.0 2955:1.0 323:1.0 363:1.0 47:1.0 272:2.0 455:1.0 144:1.0 13:1.0 3929:1.0 1664:1.0 315:1.0 3930:1.0 3931:1.0 2277:1.0 1403:1.0 1090:1.0 10:1.0 310:1.0 5:2.0 1320:1.0 262:1.0 757:1.0 2006:1.0 3:1.0 3932:1.0 3933:1.0 165:1.0 275:1.0 816:1.0 3934:1.0 8:1.0 1240:1.0 18:1.0 
32.81074352185916 1:-100.0 3935:1.0 25:1.0 2944:1.0 429:1.0 362:1.0 29:2.0 640:1.0 22:1.0 148:1.0 5:1.0 3936:1.0 169:1.0 728:1.0 54:1.0 753:2.0 404:2.0 3937:1.0 55:1.0 48:1.0 262:1.0 246:1.0 3938:1.0 13:2.0 1318:1.0 1601:1.0 363:1.0 484:1.0 982:1.0 272:1.0 133:1.0 2146:1.0 3939:1.0 39:1.0 2403:1.0 
77.93907008136665 1:-0.3333333333333333 39:1.0 108:1.0 1425:1.0 3593:1.0 284:1.0 982:1.0 454:1.0 5:4.0 272:1.0 46:1.0 2977:1.0 2813:1.0 25:1.0 694:1.0 1108:1.0 1696:1.0 546:1.0 774:1.0 1662:1.0 2079:1.0 13:1.0 
52.22375314835881 1:-100.0 3940:1.0 264:1.0 39:1.0 143:2.0 90:2.0 5:1.0 738:1.0 272:2.0 1073:1.0 1081:1.0 29:2.0 1695:1.0 3941:1.0 2926:1.0 688:1.0 28:1.0 325:1.0 
90.0 1:-100.0 90:1.0 1702:1.0 1703:1.0 1707:1.0 93:1.0 
90.0 1:-100.0 148:1.0 42:1.0 323:1.0 286:1.0 429:1.0 3031:1.0 306:1.0 
21.96351296654837 1:-0.375 70:5.0 753:4.0 404:4.0 3942:1.0 3943:1.0 366:1.0 3944:1.0 3945:1.0 2968:1.0 197:1.0 48:2.0 806:2.0 3946:1.0 591:1.0 29:1.0 1203:1.0 1335:1.0 3947:1.0 169:1.0 1836:1.0 191:1.0 3948:1.0 3949:1.0 8:1.0 557:2.0 10:1.0 3950:1.0 1442:1.0 445:1.0 13:1.0 145:1.0 35:1.0 306:1.0 5:2.0 3951:1.0 3952:1.0 36:1.0 90:1.0 2762:1.0 3031:1.0 3953:1.0 118:1.0 41:1.0 1143:1.0 15:1.0 43:1.0 770:2.0 159:1.0 455:1.0 2084:1.0 2204:1.0 262:1.0 165:1.0 3954:1.0 180:1.0 2405:1.0 1231:1.0 273:1.0 3955:1.0 2490:1.0 
34.98799679572729 1:-0.0625 273:1.0 1495:1.0 37:1.0 1023:1.0 29:1.0 17:2.0 1256:2.0 13:4.0 197:1.0 669:1.0 1904:1.0 3956:1.0 702:1.0 2762:1.0 3957:1.0 5:1.0 1735:1.0 2282:1.0 3958:1.0 455:1.0 3015:1.0 82:1.0 603:1.0 753:2.0 404:2.0 1126:1.0 3959:1.0 209:1.0 199:1.0 2628:1.0 3200:1.0 43:1.0 3960:1.0 
90.0 1:-0.625 39:1.0 143:1.0 3961:1.0 679:1.0 29:1.0 5:2.0 1736:1.0 41:1.0 127:1.0 1743:1.0 303:1.0 197:1.0 1384:1.0 1798:1.0 84:1.0 293:1.0 695:1.0 3962:1.0 831:1.0 13:1.0 
90.0 1:-0.625 679:1.0 597:1.0 5:2.0 127:1.0 24:1.0 621:1.0 710:1.0 27:1.0 55:1.0 17:1.0 13:1.0 153:1.0 224:1.0 19:3.0 
25.951962183795285 1:-100.0 3963:1.0 5:3.0 47:1.0 3964:1.0 1452:1.0 3653:2.0 2762:3.0 3965:1.0 82:1.0 3966:1.0 3967:2.0 60:1.0 932:1.0 331:2.0 1177:2.0 509:1.0 145:1.0 135:1.0 1757:1.0 3968:1.0 890:1.0 1590:1.0 2523:1.0 191:1.0 724:1.0 63:1.0 241:1.0 218:1.0 1154:1.0 13:1.0 
90.0 1:0.375 47:1.0 3969:1.0 175:1.0 327:1.0 1311:1.0 130:1.0 1459:1.0 1429:1.0 
90.0 1:-100.0 41:1.0 2449:1.0 98:1.0 2037:1.0 2322:1.0 1135:1.0 70:1.0 159:1.0 
53.91858378555941 1:-100.0 44:1.0 3970:1.0 331:1.0 965:1.0 2787:1.0 600:1.0 671:1.0 264:1.0 29:1.0 2039:1.0 3416:1.0 1065:1.0 113:1.0 3971:1.0 3972:1.0 3783:1.0 1796:1.0 508:1.0 3713:1.0 3973:1.0 262:1.0 13:2.0 907:1.0 1424:1.0 870:1.0 
90.0 1:-0.03125 1023:1.0 686:1.0 687:1.0 63:1.0 1178:1.0 3974:1.0 678:1.0 218:1.0 508:1.0 2567:1.0 893:1.0 3973:1.0 191:1.0 1256:1.0 455:1.0 702:1.0 1137:1.0 296:1.0 108:1.0 3075:1.0 
6.67305551372226 1:0.5 3964:1.0 3975:1.0 5:1.0 623:1.0 197:2.0 1582:1.0 967:1.0 328:2.0 3976:1.0 175:1.0 315:1.0 133:1.0 1868:1.0 218:1.0 724:2.0 3057:1.0 13:3.0 1995:1.0 2138:2.0 46:1.0 290:1.0 753:2.0 404:2.0 264:1.0 678:1.0 3067:1.0 321:1.0 3629:1.0 
90.0 1:-0.375 520:1.0 783:1.0 1339:1.0 262:1.0 3977:1.0 774:1.0 1178:1.0 176:1.0 
70.67256667137421 1:-100.0 847:1.0 3978:1.0 169:1.0 1155:1.0 1552:1.0 1703:1.0 13:2.0 421:1.0 600:1.0 262:1.0 774:1.0 1178:1.0 3974:1.0 520:1.0 783:1.0 5:1.0 3602:1.0 27:1.0 724:1.0 3057:1.0 
90.0 1:-100.0 278:1.0 55:1.0 1081:1.0 260:1.0 454:1.0 603:1.0 3979:1.0 306:1.0 264:1.0 29:1.0 3888:1.0 159:1.0 191:1.0 2627:1.0 3980:1.0 767:1.0 
90.0 1:-100.0 686:1.0 429:1.0 556:1.0 3981:1.0 3982:1.0 159:1.0 
82.17505307429502 1:0.0 84:1.0 262:1.0 3983:1.0 997:1.0 658:1.0 480:1.0 52:1.0 3073:1.0 1790:1.0 1179:2.0 5:1.0 8:2.0 281:1.0 44:1.0 191:1.0 17:1.0 18:1.0 13:1.0 
-62.81041322024667 1:-0.5 2:1.0 3:1.0 4:1.0 5:1.0 6:1.0 7:1.0 8:1.0 9:1.0 10:1.0 11:1.0 12:1.0 13:1.0 
-25.991936174455475 1:-0.625 14:1.0 15:1.0 16:1.0 17:1.0 18:1.0 19:1.0 
-90.0 1:-100.0 31:1.0 32:1.0 33:1.0 34:1.0 
-90.0 1:-100.0 35:1.0 36:1.0 25:1.0 37:1.0 38:1.0 39:1.0 40:1.0 2:1.0 3:1.0 41:1.0 42:1.0 33:1.0 43:1.0 44:1.0 24:1.0 13:1.0 45:1.0 46:1.0 47:1.0 48:1.0 49:1.0 
-11.643813748723415 1:-0.75 50:1.0 5:2.0 41:1.0 39:1.0 51:1.0 52:1.0 53:1.0 54:1.0 29:2.0 55:1.0 56:1.0 57:1.0 43:1.0 13:1.0 
-77.99570340496503 1:-100.0 58:1.0 59:4.0 60:1.0 61:1.0 62:1.0 63:1.0 64:1.0 17:1.0 18:1.0 65:1.0 66:1.0 67:1.0 68:1.0 69:1.0 70:1.0 48:1.0 71:1.0 72:1.0 
-20.878237537127287 1:-0.5 58:1.0 59:1.0 5:3.0 73:1.0 74:1.0 75:1.0 76:1.0 77:1.0 78:1.0 79:1.0 80:1.0 81:1.0 82:1.0 83:1.0 3:1.0 84:1.0 85:1.0 86:1.0 46:1.0 87:1.0 88:1.0 17:1.0 89:1.0 13:1.0 
-90.0 1:-100.0 21:1.0 90:1.0 91:1.0 92:1.0 93:1.0 13:2.0 94:1.0 95:1.0 96:1.0 39:1.0 97:1.0 98:1.0 18:1.0 5:1.0 99:1.0 100:1.0 101:1.0 102:1.0 
-67.95984053531411 1:-100.0 92:1.0 103:1.0 5:2.0 104:1.0 105:1.0 106:1.0 26:1.0 107:1.0 108:1.0 24:2.0 109:1.0 13:2.0 110:1.0 48:1.0 98:1.0 111:1.0 112:1.0 113:1.0 114:1.0 115:1.0 81:1.0 116:1.0 117:1.0 118:1.0 43:1.0 119:1.0 
-90.0 1:-0.5 120:1.0 
-90.0 1:-100.0 121:1.0 102:1.0 122:1.0 123:2.0 124:1.0 18:1.0 125:1.0 13:2.0 126:1.0 37:1.0 127:1.0 128:1.0 29:1.0 55:1.0 129:1.0 130:1.0 131:1.0 132:1.0 54:1.0 133:1.0 134:1.0 
-90.0 1:-100.0 135:1.0 136:1.0 128:1.0 3:1.0 137:1.0 31:1.0 138:1.0 127:1.0 125:1.0 
-90.0 1:-100.0 139:1.0 140:1.0 141:1.0 5:1.0 142:1.0 13:1.0 
-90.0 1:-0.5 143:1.0 17:1.0 144:1.0 145:1.0 146:1.0 147:1.0 
-47.949492582019026 1:-0.5 140:1.0 148:1.0 149:1.0 150:1.0 151:1.0 152:1.0 125:1.0 5:1.0 31:1.0 41:1.0 153:1.0 154:1.0 8:1.0 155:1.0 156:1.0 157:1.0 13:1.0 
-90.0 1:-0.375 158:1.0 159:1.0 160:1.0 161:1.0 13:1.0 
-90.0 1:-100.0 162:1.0 163:1.0 37:1.0 
-90.0 1:-0.375 158:1.0 
-87.24125199908947 1:-0.16666666666666666 140:1.0 141:1.0 13:1.0 164:1.0 37:1.0 165:1.0 166:1.0 10:1.0 167:1.0 8:1.0 168:1.0 5:1.0 169:1.0 170:1.0 171:1.0 172:1.0 173:1.0 174:1.0 175:1.0 44:1.0 176:1.0 
-41.09110309822702 1:-0.625 177:1.0 178:1.0 65:1.0 155:1.0 93:1.0 13:1.0 179:1.0 70:1.0 
-90.0 1:-100.0 52:1.0 122:1.0 180:1.0 131:1.0 159:1.0 
-90.0 1:-100.0 139:1.0 37:1.0 52:1.0 17:1.0 41:1.0 112:1.0 13:2.0 141:1.0 
-90.0 1:-100.0 181:1.0 182:1.0 17:1.0 37:1.0 183:1.0 36:1.0 25:1.0 
-90.0 1:-100.0 140:1.0 26:1.0 141:1.0 13:1.0 
-76.88332946821203 1:-0.5 162:1.0 139:1.0 5:1.0 184:1.0 185:1.0 186:1.0 148:1.0 31:1.0 13:1.0 
-90.0 1:-100.0 75:1.0 128:1.0 148:1.0 169:1.0 135:1.0 187:1.0 188:1.0 189:1.0 24:1.0 5:1.0 180:1.0 190:1.0 191:1.0 192:1.0 93:1.0 
-90.0 1:-0.625 180:1.0 193:1.0 
-90.0 1:-100.0 153:1.0 199:1.0 203:1.0 133:1.0 204:1.0 13:2.0 205:1.0 206:1.0 93:1.0 
-90.0 1:-100.0 207:1.0 208:1.0 209:1.0 210:1.0 211:1.0 3:1.0 212:1.0 37:1.0 41:1.0 26:1.0 29:1.0 17:1.0 213:1.0 13:1.0 
-90.0 1:-100.0 214:2.0 215:2.0 216:1.0 169:1.0 125:1.0 217:1.0 148:2.0 159:1.0 218:1.0 219:1.0 209:1.0 220:1.0 221:1.0 5:1.0 95:1.0 222:1.0 223:1.0 224:1.0 113:1.0 225:1.0 
-70.04662645346885 1:-0.5 226:1.0 220:1.0 169:1.0 227:1.0 228:1.0 93:1.0 13:2.0 
-64.39194766193101 1:-100.0 229:1.0 230:1.0 231:1.0 232:1.0 5:4.0 233:1.0 127:1.0 17:1.0 234:1.0 235:1.0 236:1.0 39:1.0 237:1.0 199:1.0 126:1.0 37:1.0 238:1.0 52:1.0 43:1.0 239:1.0 240:1.0 63:1.0 241:1.0 242:1.0 243:1.0 220:1.0 189:1.0 13:1.0 
-90.0 1:-100.0 244:1.0 37:1.0 245:1.0 93:1.0 
-90.0 1:-100.0 27:1.0 29:1.0 246:1.0 5:1.0 247:1.0 93:1.0 13:1.0 
-90.0 1:-100.0 248:1.0 249:1.0 250:2.0 251:1.0 252:1.0 253:1.0 254:1.0 255:1.0 256:1.0 257:1.0 258:1.0 259:1.0 
-65.83821570373934 1:-100.0 260:1.0 180:1.0 261:1.0 262:2.0 263:1.0 39:1.0 61:1.0 29:2.0 17:1.0 264:1.0 54:1.0 265:1.0 266:1.0 197:2.0 267:1.0 268:1.0 37:2.0 13:2.0 48:1.0 28:1.0 269:1.0 270:1.0 271:1.0 272:1.0 
-82.6063773066741 1:-0.5 273:1.0 274:1.0 275:1.0 271:1.0 272:1.0 276:1.0 42:1.0 277:1.0 
-90.0 1:-100.0 278:1.0 279:1.0 95:1.0 41:2.0 280:1.0 281:1.0 3:1.0 282:1.0 
-90.0 1:-0.5 279:1.0 283:1.0 5:1.0 104:1.0 27:1.0 277:1.0 
-47.534493591993545 1:-0.25 284:1.0 219:1.0 285:1.0 180:1.0 131:1.0 165:1.0 8:2.0 286:1.0 95:1.0 279:1.0 283:1.0 224:1.0 287:1.0 277:1.0 13:2.0 123:1.0 288:1.0 262:1.0 113:1.0 289:1.0 268:1.0 37:1.0 290:1.0 271:1.0 272:1.0 169:1.0 291:1.0 292:1.0 
-90.0 1:-0.5 277:1.0 213:1.0 148:1.0 
-90.0 1:-100.0 293:1.0 238:1.0 294:1.0 169:1.0 295:1.0 273:1.0 274:1.0 
-90.0 1:-0.1875 93:2.0 296:1.0 13:1.0 297:1.0 
-90.0 1:-100.0 298:1.0 299:1.0 300:1.0 301:1.0 302:1.0 
-65.60266712904857 1:-0.5 207:1.0 272:1.0 76:1.0 303:1.0 29:1.0 304:1.0 305:1.0 306:1.0 13:1.0 297:1.0 70:1.0 
-90.0 1:-100.0 307:1.0 209:1.0 308:1.0 135:1.0 309:1.0 310:1.0 311:1.0 312:1.0 313:1.0 5:1.0 314:1.0 
-24.81982628653607 1:-0.425 315:1.0 316:1.0 317:1.0 148:1.0 5:3.0 143:2.0 17:2.0 318:1.0 319:1.0 320:1.0 321:1.0 322:1.0 323:1.0 41:1.0 324:1.0 325:1.0 326:1.0 13:2.0 327:1.0 328:1.0 329:2.0 29:1.0 212:1.0 134:1.0 202:1.0 3:1.0 28:1.0 108:1.0 330:1.0 8:1.0 331:1.0 332:1.0 333:1.0 175:1.0 
-90.0 1:-100.0 334:1.0 335:1.0 306:1.0 
-90.0 1:-0.20833333333333334 180:1.0 333:1.0 8:1.0 17:1.0 189:1.0 336:1.0 315:2.0 191:1.0 337:1.0 113:1.0 332:1.0 159:1.0 
-2.5446181546487536 1:-0.22916666666666666 30:1.0 338:20.0 302:2.0 339:1.0 256:9.0 340:3.0 341:1.0 250:20.0 342:2.0 5:6.0 41:2.0 343:1.0 344:5.0 345:1.0 251:3.0 346:3.0 253:16.0 347:2.0 348:3.0 349:2.0 350:1.0 254:6.0 351:3.0 352:11.0 353:3.0 209:1.0 354:1.0 8:2.0 355:5.0 356:2.0 202:1.0 357:1.0 258:11.0 90:1.0 358:3.0 359:1.0 360:1.0 361:1.0 362:1.0 100:1.0 363:1.0 364:1.0 365:1.0 366:1.0 367:1.0 259:2.0 368:2.0 369:1.0 370:1.0 371:1.0 372:1.0 373:1.0 374:1.0 375:1.0 376:2.0 377:2.0 378:1.0 379:1.0 380:1.0 381:1.0 255:1.0 13:2.0 382:1.0 383:1.0 384:3.0 385:1.0 386:1.0 387:1.0 388:1.0 389:1.0 390:1.0 391:1.0 392:1.0 393:1.0 394:1.0 395:1.0 396:1.0 397:1.0 398:1.0 399:1.0 400:1.0 401:2.0 402:1.0 403:1.0 404:2.0 405:1.0 406:2.0 407:2.0 408:1.0 409:1.0 331:1.0 410:1.0 411:2.0 412:1.0 413:1.0 
-76.8549992904677 1:-0.5 414:1.0 191:1.0 415:1.0 8:1.0 416:1.0 417:1.0 175:1.0 44:1.0 13:1.0 
-90.0 1:-0.5 418:1.0 419:1.0 8:1.0 416:1.0 420:1.0 13:1.0 
-90.0 1:-0.375 421:1.0 331:1.0 422:1.0 93:1.0 13:1.0 278:1.0 423:1.0 29:1.0 419:1.0 
-90.0 1:-0.5 120:1.0 424:1.0 180:1.0 
-90.0 1:-100.0 179:1.0 70:1.0 13:1.0 
-90.0 1:-100.0 93:1.0 425:1.0 
-90.0 1:-100.0 264:1.0 327:1.0 46:1.0 426:1.0 262:1.0 427:1.0 428:1.0 429:1.0 430:1.0 69:1.0 431:1.0 22:1.0 432:1.0 433:1.0 14:1.0 113:1.0 434:1.0 13:1.0 435:1.0 169:1.0 328:1.0 436:1.0 437:1.0 438:1.0 191:1.0 439:1.0 
-90.0 1:-100.0 440:1.0 441:1.0 442:1.0 443:1.0 398:1.0 
-10.86201321171509 1:-0.75 444:1.0 175:1.0 445:1.0 446:1.0 447:1.0 
-90.0 1:-100.0 180:1.0 134:1.0 190:1.0 448:1.0 449:1.0 27:1.0 43:1.0 450:1.0 451:1.0 452:1.0 17:1.0 13:1.0 
-46.031319485391705 1:-0.5 278:1.0 453:1.0 454:1.0 5:1.0 46:1.0 455:1.0 120:1.0 148:1.0 
-35.701350445439 1:-0.5 456:1.0 41:2.0 52:1.0 29:1.0 457:1.0 5:1.0 42:1.0 223:1.0 13:2.0 67:1.0 458:1.0 459:1.0 460:1.0 8:1.0 461:1.0 462:1.0 
-90.0 1:-100.0 463:1.0 464:1.0 327:1.0 328:1.0 96:1.0 465:1.0 98:1.0 5:1.0 466:1.0 467:1.0 262:1.0 468:1.0 
-90.0 1:-0.375 278:1.0 47:1.0 452:1.0 469:1.0 169:1.0 470:1.0 17:1.0 18:1.0 471:1.0 
-90.0 1:-100.0 456:2.0 169:1.0 472:1.0 63:1.0 3:1.0 473:1.0 474:1.0 323:1.0 52:1.0 475:1.0 13:1.0 327:1.0 476:1.0 
-90.0 1:-100.0 477:1.0 478:3.0 119:1.0 3:1.0 278:1.0 113:1.0 100:1.0 479:1.0 13:1.0 480:1.0 366:1.0 40:1.0 2:1.0 175:1.0 481:1.0 169:1.0 482:1.0 24:1.0 
-90.0 1:-0.5 262:1.0 113:1.0 483:1.0 484:1.0 157:1.0 485:1.0 486:1.0 
-49.05926975454089 1:-0.5 87:1.0 328:1.0 39:1.0 487:1.0 98:1.0 8:1.0 104:1.0 13:1.0 488:1.0 149:1.0 26:1.0 489:1.0 485:1.0 213:1.0 
-62.032869293562484 1:-0.5 31:1.0 135:1.0 328:1.0 490:1.0 429:1.0 491:1.0 492:1.0 493:1.0 5:1.0 277:1.0 484:1.0 485:1.0 486:1.0 
-90.0 1:-100.0 494:1.0 495:1.0 13:1.0 
-90.0 1:-100.0 496:1.0 93:1.0 497:1.0 13:1.0 
-90.0 1:-100.0 454:1.0 498:1.0 37:1.0 499:1.0 321:1.0 5:2.0 41:1.0 500:1.0 501:1.0 213:1.0 153:1.0 285:1.0 502:1.0 18:1.0 125:1.0 13:1.0 
-87.62368743213395 1:-0.5 180:1.0 503:1.0 5:1.0 42:1.0 504:1.0 125:1.0 13:1.0 
-90.0 1:-100.0 314:1.0 
-90.0 1:-100.0 31:1.0 27:1.0 113:1.0 34:1.0 65:1.0 505:1.0 506:1.0 13:1.0 
-90.0 1:-100.0 143:1.0 416:1.0 496:1.0 507:1.0 497:1.0 
-90.0 1:-100.0 27:1.0 143:1.0 496:1.0 497:1.0 5:1.0 197:1.0 189:1.0 46:1.0 508:1.0 509:1.0 69:1.0 
-90.0 1:-100.0 327:1.0 476:1.0 510:1.0 37:1.0 
-90.0 1:-100.0 511:1.0 500:1.0 321:1.0 13:1.0 
-90.0 1:-100.0 512:1.0 5:1.0 513:1.0 46:1.0 514:1.0 63:1.0 515:1.0 516:1.0 517:1.0 54:1.0 454:1.0 13:1.0 
-90.0 1:-100.0 289:1.0 518:1.0 519:1.0 520:1.0 521:1.0 522:1.0 
-90.0 1:-100.0 523:1.0 524:1.0 175:1.0 17:1.0 525:1.0 93:1.0 
-90.0 1:-100.0 526:1.0 527:1.0 455:1.0 514:1.0 528:1.0 
-90.0 1:-100.0 327:1.0 455:1.0 529:1.0 530:1.0 531:1.0 
-34.21223825427263 1:-0.5 327:1.0 532:1.0 533:1.0 17:1.0 5:4.0 534:1.0 41:1.0 8:1.0 90:1.0 165:1.0 535:1.0 536:1.0 483:1.0 215:1.0 498:1.0 27:1.0 26:1.0 537:1.0 538:1.0 539:1.0 540:1.0 541:1.0 
-90.0 1:-100.0 41:1.0 542:1.0 
-90.0 1:-100.0 550:1.0 
-5.15354985270173 1:-100.0 367:1.0 250:11.0 259:4.0 551:1.0 352:3.0 552:4.0 253:16.0 553:2.0 394:4.0 554:1.0 402:2.0 342:1.0 370:2.0 555:1.0 338:6.0 251:3.0 406:2.0 556:1.0 365:1.0 254:3.0 13:4.0 393:1.0 405:2.0 355:3.0 209:1.0 557:1.0 358:2.0 258:5.0 558:1.0 302:5.0 331:1.0 559:1.0 560:1.0 561:1.0 562:1.0 376:1.0 563:1.0 371:2.0 391:1.0 408:1.0 58:1.0 564:1.0 565:1.0 344:1.0 566:1.0 567:2.0 568:1.0 569:1.0 570:1.0 398:1.0 571:1.0 572:1.0 152:1.0 573:1.0 574:1.0 575:1.0 576:1.0 577:1.0 578:1.0 70:1.0 
-90.0 1:-100.0 476:1.0 579:1.0 580:1.0 581:1.0 582:1.0 583:1.0 584:1.0 585:1.0 586:1.0 13:1.0 
-90.0 1:-100.0 284:1.0 587:1.0 209:1.0 199:1.0 71:1.0 272:1.0 5:1.0 96:1.0 119:1.0 43:1.0 588:1.0 98:1.0 13:1.0 
-90.0 1:-100.0 121:2.0 19:2.0 589:1.0 590:1.0 175:1.0 591:1.0 27:1.0 39:1.0 592:1.0 37:1.0 
-53.91902184431392 1:-0.6 174:1.0 593:1.0 175:1.0 17:1.0 594:1.0 454:1.0 
-60.678827208776966 1:-0.625 180:1.0 595:1.0 13:1.0 596:1.0 
-34.25119059609256 1:-0.5 224:1.0 52:1.0 277:1.0 34:1.0 597:1.0 13:1.0 19:3.0 
-90.0 1:-0.375 598:1.0 3:1.0 26:1.0 277:1.0 599:1.0 
-90.0 1:0.7500000000000001 41:1.0 500:1.0 159:1.0 600:1.0 189:1.0 39:1.0 332:2.0 3:1.0 218:1.0 601:1.0 429:1.0 602:1.0 359:1.0 31:1.0 19:1.0 603:1.0 604:1.0 
-47.89844939645604 1:-0.6250000000000001 605:1.0 606:1.0 603:1.0 607:1.0 608:1.0 557:1.0 159:1.0 
-18.442011014166575 1:-0.25 609:1.0 610:1.0 611:1.0 10:1.0 612:1.0 613:1.0 323:1.0 41:3.0 26:1.0 614:2.0 615:1.0 616:1.0 556:2.0 617:1.0 514:1.0 5:1.0 169:2.0 618:3.0 37:1.0 3:1.0 619:2.0 180:2.0 546:1.0 620:1.0 84:1.0 275:1.0 29:1.0 13:2.0 528:1.0 67:1.0 621:1.0 622:1.0 623:1.0 624:1.0 625:1.0 165:1.0 626:1.0 627:1.0 74:1.0 628:1.0 39:1.0 479:1.0 126:1.0 189:1.0 604:1.0 629:1.0 43:1.0 481:1.0 630:1.0 597:1.0 19:1.0 159:1.0 631:1.0 52:1.0 632:1.0 633:1.0 
-9.3327539376791 1:-0.75 39:4.0 634:1.0 5:2.0 635:1.0 13:1.0 636:1.0 637:1.0 159:1.0 
-22.945205439350378 1:-0.5 638:1.0 639:1.0 48:1.0 272:2.0 640:1.0 641:1.0 642:1.0 643:1.0 429:1.0 306:1.0 500:1.0 29:1.0 644:1.0 159:2.0 645:1.0 646:1.0 647:1.0 337:1.0 126:1.0 648:1.0 37:1.0 649:1.0 8:1.0 650:1.0 175:1.0 44:1.0 
-90.0 1:-100.0 17:2.0 670:1.0 671:1.0 672:1.0 145:1.0 39:1.0 673:1.0 180:1.0 674:1.0 13:1.0 
-90.0 1:-100.0 675:1.0 40:1.0 597:1.0 13:1.0 
-90.0 1:-100.0 330:1.0 93:1.0 603:1.0 627:1.0 
-20.443267697118166 1:-0.625 676:1.0 175:1.0 421:1.0 677:1.0 36:1.0 678:1.0 679:1.0 180:1.0 5:1.0 290:1.0 424:1.0 680:1.0 681:1.0 328:1.0 682:2.0 31:1.0 275:1.0 13:1.0 
-13.477337115534407 1:-0.625 421:2.0 600:1.0 679:1.0 35:1.0 683:1.0 46:1.0 52:1.0 684:1.0 429:1.0 159:1.0 
-49.15882259550557 1:-0.5 685:1.0 75:1.0 93:1.0 148:1.0 429:1.0 686:1.0 323:1.0 687:1.0 688:1.0 675:1.0 454:1.0 13:1.0 689:1.0 8:1.0 690:1.0 691:1.0 175:1.0 481:1.0 
-6.0021654981606245 1:-0.5 692:2.0 55:2.0 693:2.0 180:2.0 694:2.0 5:8.0 695:1.0 696:1.0 697:2.0 601:2.0 82:2.0 698:1.0 699:2.0 700:2.0 148:1.0 27:3.0 701:2.0 702:1.0 703:1.0 704:1.0 13:1.0 705:1.0 93:1.0 454:1.0 706:1.0 24:1.0 707:1.0 262:1.0 8:1.0 708:1.0 603:1.0 604:2.0 
-37.515551028760804 1:-0.5 28:1.0 29:1.0 140:1.0 48:1.0 83:1.0 148:1.0 149:1.0 709:1.0 603:1.0 627:1.0 
-90.0 1:-0.5 219:1.0 262:1.0 8:1.0 710:1.0 
-90.0 1:-100.0 711:1.0 92:1.0 289:1.0 5:1.0 712:1.0 29:1.0 713:1.0 346:1.0 714:1.0 715:1.0 716:1.0 13:3.0 
-33.10395639470629 1:-0.25 248:1.0 717:1.0 486:1.0 5:2.0 718:1.0 48:2.0 719:1.0 82:1.0 169:1.0 720:1.0 54:1.0 26:1.0 721:1.0 722:1.0 337:1.0 41:2.0 723:1.0 724:1.0 702:2.0 8:1.0 725:1.0 197:1.0 150:1.0 726:1.0 6:1.0 727:1.0 10:1.0 700:1.0 728:1.0 729:1.0 143:1.0 3:1.0 730:1.0 731:1.0 597:1.0 
-90.0 1:0.7500000000000001 359:1.0 48:2.0 732:1.0 733:1.0 93:1.0 5:1.0 24:1.0 719:1.0 734:1.0 34:1.0 735:1.0 736:1.0 720:1.0 737:1.0 727:1.0 209:1.0 738:1.0 739:1.0 
-47.315223217927254 1:0.12500000000000006 92:1.0 93:2.0 5:4.0 740:1.0 35:2.0 10:1.0 741:2.0 41:1.0 742:1.0 743:1.0 744:1.0 689:1.0 720:1.0 745:1.0 727:1.0 17:1.0 39:1.0 180:1.0 359:1.0 732:1.0 48:1.0 719:1.0 198:1.0 150:1.0 746:1.0 747:1.0 297:1.0 
-55.878161478888984 1:-0.25000000000000006 748:2.0 749:1.0 429:1.0 750:1.0 191:1.0 751:1.0 481:1.0 169:1.0 752:1.0 260:1.0 753:2.0 404:2.0 41:1.0 754:1.0 755:1.0 13:3.0 218:1.0 756:1.0 199:1.0 124:1.0 757:1.0 209:1.0 37:1.0 159:1.0 
-90.0 1:-100.0 758:1.0 93:1.0 262:1.0 
-25.880739203946277 1:-0.3125 113:1.0 199:1.0 531:1.0 65:1.0 759:1.0 760:1.0 627:1.0 761:1.0 5:3.0 762:1.0 763:1.0 618:1.0 70:3.0 604:1.0 764:1.0 765:1.0 766:1.0 767:1.0 768:1.0 769:1.0 8:1.0 770:1.0 46:1.0 47:1.0 771:1.0 169:1.0 52:1.0 772:1.0 
-28.69234383644334 1:2.7755575615628914E-17 31:1.0 27:1.0 260:2.0 773:2.0 500:1.0 30:1.0 5:4.0 278:1.0 29:2.0 774:1.0 775:1.0 454:2.0 169:1.0 13:3.0 327:1.0 359:1.0 776:2.0 37:1.0 35:1.0 777:1.0 148:1.0 39:1.0 778:2.0 165:1.0 770:2.0 779:1.0 52:1.0 113:1.0 199:1.0 297:1.0 153:1.0 43:1.0 780:1.0 75:1.0 108:1.0 290:1.0 781:1.0 484:1.0 67:1.0 315:1.0 125:1.0 330:1.0 
-34.63355185018065 1:-0.375 90:2.0 37:2.0 26:1.0 782:1.0 556:1.0 39:1.0 783:1.0 95:1.0 784:1.0 599:1.0 785:1.0 786:1.0 29:1.0 54:1.0 787:1.0 321:1.0 148:1.0 159:1.0 113:1.0 531:1.0 130:1.0 297:1.0 5:1.0 767:1.0 768:1.0 13:1.0 
-8.587394440160212 1:-0.4375 90:3.0 788:1.0 54:4.0 278:1.0 789:2.0 790:1.0 8:1.0 60:1.0 791:1.0 218:1.0 133:1.0 325:1.0 5:1.0 95:1.0 792:1.0 197:1.0 793:1.0 43:1.0 753:2.0 404:2.0 794:2.0 323:1.0 795:2.0 796:1.0 17:2.0 180:1.0 296:1.0 75:1.0 71:1.0 153:1.0 797:1.0 13:1.0 207:1.0 169:1.0 3:1.0 798:1.0 209:1.0 799:1.0 800:1.0 184:1.0 801:1.0 159:2.0 600:1.0 275:1.0 118:1.0 26:1.0 130:1.0 802:1.0 
-4.199439953896922 1:-0.625 17:1.0 807:1.0 262:1.0 429:2.0 326:1.0 773:1.0 808:1.0 275:1.0 
-31.25492861038651 1:-100.0 673:1.0 401:1.0 570:1.0 250:7.0 377:1.0 809:1.0 251:2.0 5:1.0 810:1.0 352:3.0 326:1.0 406:1.0 253:1.0 235:1.0 811:1.0 812:1.0 813:1.0 814:1.0 13:1.0 
-32.83945204800741 1:-0.625 260:1.0 725:1.0 807:1.0 29:1.0 42:1.0 46:1.0 120:1.0 191:1.0 791:1.0 
-33.40613128532348 1:-0.09375 815:1.0 134:1.0 5:2.0 816:1.0 765:1.0 43:1.0 13:2.0 47:1.0 817:3.0 818:3.0 819:1.0 331:1.0 820:1.0 175:2.0 323:1.0 821:1.0 725:1.0 822:1.0 153:1.0 199:1.0 17:1.0 52:1.0 823:1.0 824:1.0 65:1.0 67:1.0 806:1.0 37:1.0 39:1.0 143:1.0 101:1.0 219:1.0 825:1.0 
-43.7625428107112 1:-0.5 198:1.0 219:1.0 826:1.0 508:1.0 93:1.0 827:1.0 14:1.0 828:1.0 488:1.0 175:1.0 55:1.0 22:1.0 13:1.0 
-90.0 1:0.625 829:1.0 830:1.0 831:2.0 35:1.0 832:1.0 118:1.0 363:1.0 108:1.0 75:1.0 833:1.0 65:1.0 834:1.0 5:1.0 835:1.0 836:1.0 191:1.0 837:1.0 36:1.0 838:1.0 104:1.0 13:1.0 
-90.0 1:-100.0 839:1.0 24:1.0 840:1.0 39:1.0 237:1.0 613:2.0 13:1.0 753:1.0 
