svm_type c_svc
kernel_type rbf
gamma 0.02564102564102564
nr_class 3
total_sv 13
rho 0.229345440864563 -0.08108424307642834 -0.1993645878555658
label 1 0 2
nr_sv 5 5 3
SV
1.0 0.9882986947150538 1:1.0 2:1.0 3:1.0 
1.0 0.3624595503712058 3:1.0 4:1.0 5:1.0 6:1.0 7:1.0 
1.0 0.6793248089927242 1:1.0 4:1.0 8:1.0 9:1.0 
1.0 0.6385763420214594 1:1.0 10:1.0 11:1.0 12:1.0 
1.0 0.3313406038995568 1:1.0 2:1.0 4:1.0 7:1.0 10:1.0 12:1.0 13:1.0 14:1.0 
-1.0 0.9221371667672164 15:1.0 16:1.0 17:1.0 18:1.0 19:1.0 
-1.0 0.5718114426935281 16:1.0 20:1.0 21:1.0 22:1.0 23:1.0 24:1.0 25:1.0 26:1.0 
-1.0 0.7797522258855317 16:1.0 27:1.0 28:1.0 29:1.0 30:1.0 31:1.0 
-1.0 0.22272020127333658 22:1.0 23:1.0 24:1.0 26:1.0 32:1.0 33:1.0 34:1.0 
-1.0 0.5035789633803871 16:1.0 18:1.0 22:1.0 28:1.0 35:1.0 36:1.0 37:1.0 38:1.0 39:1.0 
-1.0 -1.0 1:3.0 12:1.0 14:1.0 16:2.0 15:1.0 
-1.0 -1.0 3:1.0 9:1.0 16:1.0 17:1.0 
-1.0 -1.0 3:2.0 14:2.0 18:1.0 20:1.0 25:3.0 30:4.0 35:5.0 
