svm_type nu_svc
kernel_type rbf
gamma 0.0023584905660377358
nr_class 3
total_sv 41
rho -0.11840095594508297 0.1214097402814714 0.3531554309283093
label 1 0 -1
nr_sv 20 8 13
SV
17.036769403562417 25.069961128223163 -1:1.0 0:1.0 1:1.0 2:1.0 3:1.0 4:1.0 
1.4167874059809948 1.9004773035829796 26:1.0 27:1.0 28:1.0 29:1.0 30:1.0 31:1.0 32:1.0 0:3.0 33:1.0 34:2.0 35:1.0 36:1.0 37:2.0 38:1.0 39:1.0 40:1.0 41:2.0 42:3.0 43:1.0 11:1.0 44:2.0 45:2.0 46:1.0 47:1.0 48:1.0 49:1.0 50:1.0 4:2.0 51:1.0 52:1.0 53:1.0 54:1.0 55:1.0 56:1.0 57:1.0 58:1.0 59:1.0 60:1.0 61:1.0 62:1.0 9:1.0 63:1.0 64:1.0 8:1.0 20:1.0 65:1.0 66:1.0 67:1.0 68:1.0 69:1.0 18:1.0 6:1.0 70:1.0 71:1.0 72:1.0 73:1.0 
6.727695704682263 11.858406766838227 45:1.0 74:1.0 75:1.0 76:1.0 77:1.0 78:1.0 40:1.0 79:1.0 80:1.0 81:1.0 82:1.0 83:1.0 67:1.0 
2.1189249942924304 3.437163693931718 84:1.0 64:1.0 85:2.0 86:3.0 87:2.0 88:2.0 89:4.0 90:1.0 91:1.0 40:1.0 92:1.0 93:1.0 94:1.0 95:1.0 96:1.0 97:1.0 98:1.0 6:2.0 18:1.0 99:1.0 
8.426507929662906 6.4444277624785204 9:4.0 100:1.0 40:2.0 101:1.0 4:1.0 102:1.0 103:1.0 6:1.0 
7.194960045003785 12.547460192369927 104:1.0 105:1.0 50:1.0 106:1.0 107:1.0 108:1.0 109:1.0 110:1.0 111:1.0 112:1.0 113:1.0 114:1.0 115:1.0 
3.8168707476443275 4.972587058516117 126:1.0 127:1.0 128:1.0 129:2.0 130:1.0 131:1.0 132:1.0 133:1.0 14:1.0 106:1.0 5:1.0 50:1.0 134:1.0 6:2.0 135:1.0 136:1.0 137:1.0 138:1.0 64:1.0 139:1.0 43:1.0 140:1.0 141:1.0 142:1.0 81:1.0 143:1.0 
1.586102152946789 2.9755545446849925 144:1.0 122:2.0 145:1.0 146:1.0 40:4.0 147:1.0 148:2.0 9:1.0 149:2.0 150:1.0 151:1.0 52:3.0 152:1.0 153:1.0 29:2.0 154:1.0 155:1.0 156:1.0 157:1.0 158:1.0 159:1.0 4:3.0 160:1.0 161:1.0 162:1.0 163:1.0 71:1.0 164:1.0 165:1.0 166:1.0 167:1.0 168:1.0 169:1.0 170:1.0 171:1.0 172:1.0 
11.483881974414063 19.84549290548698 173:1.0 174:1.0 86:1.0 175:1.0 176:1.0 177:1.0 89:1.0 178:1.0 
4.503435101256463 7.165047285625702 45:1.0 182:1.0 6:1.0 183:1.0 184:1.0 185:1.0 186:1.0 187:1.0 188:1.0 40:1.0 158:1.0 43:1.0 189:1.0 33:1.0 190:1.0 191:1.0 41:1.0 192:1.0 83:1.0 193:1.0 194:1.0 4:1.0 
7.548335906159215 12.60377238230495 263:1.0 264:1.0 41:1.0 265:1.0 266:1.0 107:1.0 242:1.0 185:1.0 267:1.0 268:1.0 260:1.0 240:1.0 269:1.0 
7.583212180917602 10.978531204429073 12:1.0 270:1.0 155:1.0 271:1.0 272:1.0 114:1.0 273:1.0 43:1.0 40:1.0 274:1.0 275:1.0 276:1.0 9:1.0 277:1.0 4:1.0 
20.710900508309418 26.519806475448704 278:1.0 205:1.0 19:1.0 60:1.0 
7.701628235259616 10.030658368967352 143:1.0 293:1.0 47:1.0 43:1.0 294:1.0 205:1.0 213:1.0 227:1.0 122:1.0 295:1.0 296:1.0 297:1.0 49:1.0 62:1.0 112:1.0 
1.9597385783937977 3.381695834704399 128:2.0 43:1.0 331:1.0 316:1.0 148:1.0 9:1.0 332:1.0 333:1.0 334:1.0 40:1.0 335:1.0 336:1.0 249:1.0 76:1.0 0:3.0 71:1.0 337:1.0 338:1.0 12:1.0 339:1.0 340:1.0 17:1.0 341:1.0 342:1.0 343:1.0 344:1.0 345:1.0 284:1.0 346:1.0 347:1.0 319:1.0 348:1.0 349:1.0 350:1.0 351:1.0 352:1.0 353:1.0 354:1.0 355:1.0 141:1.0 356:1.0 357:1.0 
6.806113446204624 11.685706222149117 358:1.0 359:1.0 335:1.0 316:1.0 155:1.0 360:1.0 361:1.0 362:1.0 363:1.0 364:1.0 365:1.0 366:1.0 143:1.0 4:1.0 
6.404860402184633 9.388809663017275 0:1.0 293:1.0 307:1.0 242:1.0 9:1.0 391:1.0 219:1.0 392:1.0 393:1.0 141:1.0 394:1.0 395:1.0 396:1.0 397:1.0 
14.623235496685616 25.352113335738284 403:1.0 122:1.0 141:1.0 404:1.0 405:1.0 406:1.0 
3.973857968614565 6.814647960652502 410:1.0 122:1.0 50:1.0 398:1.0 112:1.0 397:2.0 411:1.0 412:1.0 41:1.0 0:1.0 9:2.0 413:1.0 11:1.0 414:1.0 415:1.0 416:1.0 405:1.0 406:1.0 
3.352485375990406 5.816083333301824 403:1.0 50:1.0 398:1.0 40:1.0 284:1.0 411:1.0 43:1.0 76:1.0 425:1.0 341:1.0 181:1.0 71:1.0 218:1.0 41:1.0 417:1.0 426:1.0 427:1.0 49:1.0 0:1.0 293:1.0 428:1.0 4:1.0 405:1.0 406:1.0 
-19.950130562465123 13.750107099266733 0:1.0 5:1.0 6:1.0 7:1.0 8:1.0 9:1.0 10:2.0 11:1.0 12:1.0 13:1.0 14:1.0 15:1.0 16:1.0 17:1.0 18:1.0 19:1.0 20:1.0 
-20.710900508309418 29.75572413384726 21:1.0 22:1.0 19:1.0 23:1.0 24:1.0 25:1.0 6:1.0 
-20.28570038505694 16.3781723906848 237:1.0 76:1.0 238:1.0 239:1.0 155:1.0 240:1.0 124:1.0 241:1.0 242:1.0 243:1.0 40:1.0 9:1.0 244:1.0 245:1.0 181:1.0 8:1.0 6:1.0 
-5.801641232852526 4.059077698815937 9:2.0 184:2.0 246:2.0 240:3.0 247:2.0 58:1.0 53:1.0 143:3.0 248:1.0 242:1.0 83:1.0 189:1.0 238:1.0 239:1.0 112:1.0 249:2.0 41:1.0 250:1.0 181:1.0 18:1.0 227:1.0 251:1.0 33:1.0 252:1.0 66:1.0 253:1.0 254:1.0 255:1.0 4:2.0 256:1.0 257:1.0 76:1.0 258:1.0 259:1.0 260:1.0 261:1.0 262:1.0 263:1.0 43:1.0 
-20.710900508309418 29.75572413384726 279:1.0 280:1.0 225:1.0 121:1.0 122:1.0 281:1.0 282:1.0 4:1.0 
-20.710900508309418 25.14773479144277 284:2.0 7:1.0 287:1.0 302:1.0 305:1.0 76:1.0 71:1.0 306:1.0 14:1.0 6:1.0 
-16.095229344553662 12.323223769411054 53:1.0 143:2.0 9:1.0 384:1.0 385:1.0 335:1.0 386:1.0 157:1.0 158:1.0 387:1.0 388:1.0 8:1.0 389:1.0 377:1.0 319:1.0 41:1.0 316:1.0 141:1.0 390:1.0 4:1.0 
-20.710900508309418 25.0477876853823 407:1.0 175:1.0 122:1.0 408:1.0 0:1.0 392:1.0 403:1.0 181:1.0 4:1.0 405:1.0 409:1.0 
-19.63473815014013 -11.665085791586666 116:1.0 117:1.0 118:1.0 119:1.0 120:1.0 40:1.0 75:1.0 9:1.0 121:1.0 122:1.0 123:1.0 50:1.0 124:1.0 125:1.0 
-26.519806475448704 -22.391426549785358 158:1.0 179:1.0 43:1.0 0:1.0 180:1.0 66:1.0 181:1.0 
-3.57866406927266 -2.1725569596038317 155:2.0 184:1.0 195:1.0 40:5.0 196:1.0 197:1.0 181:1.0 198:1.0 199:2.0 41:1.0 200:1.0 201:1.0 124:1.0 202:1.0 4:3.0 125:1.0 50:1.0 136:1.0 203:3.0 204:1.0 205:1.0 206:1.0 207:1.0 208:1.0 209:1.0 114:1.0 21:1.0 210:1.0 71:2.0 211:1.0 212:1.0 213:1.0 214:1.0 84:1.0 215:1.0 216:1.0 112:1.0 217:1.0 218:1.0 66:1.0 58:1.0 
-21.246951935087385 -12.36137710020561 219:2.0 220:1.0 221:1.0 222:1.0 75:1.0 9:1.0 223:1.0 45:1.0 224:1.0 4:1.0 
-18.123650421966634 -10.634067215827079 225:1.0 226:1.0 152:1.0 227:1.0 66:1.0 228:1.0 229:1.0 230:1.0 148:1.0 231:1.0 232:1.0 60:1.0 233:1.0 234:1.0 20:1.0 
-26.519806475448704 -29.75572413384726 235:1.0 236:1.0 69:1.0 4:1.0 
-13.087050244916979 -11.425650526095945 283:1.0 81:1.0 284:1.0 285:1.0 157:1.0 286:1.0 287:1.0 45:1.0 40:1.0 288:1.0 289:1.0 290:1.0 291:1.0 153:1.0 292:2.0 17:1.0 49:1.0 4:1.0 
-24.575901136726777 -16.642957043393086 298:1.0 299:1.0 300:1.0 19:1.0 20:1.0 301:1.0 302:1.0 106:1.0 303:1.0 304:1.0 4:1.0 
-3.833298084136273 -2.4902129580722647 302:1.0 131:1.0 237:2.0 40:3.0 257:1.0 307:1.0 308:1.0 2:1.0 309:1.0 145:1.0 190:1.0 310:1.0 9:2.0 311:1.0 312:1.0 77:1.0 53:1.0 4:4.0 288:1.0 246:2.0 8:2.0 120:1.0 76:1.0 313:1.0 314:1.0 52:1.0 152:1.0 315:1.0 316:1.0 317:1.0 11:1.0 318:1.0 14:1.0 319:1.0 320:1.0 321:1.0 33:1.0 322:1.0 63:1.0 323:1.0 324:1.0 
-15.469628074434496 -9.020525760509457 325:1.0 190:1.0 205:1.0 112:1.0 14:1.0 326:1.0 32:1.0 228:1.0 327:1.0 235:1.0 328:1.0 4:1.0 329:1.0 141:1.0 108:1.0 330:1.0 81:1.0 67:1.0 
-2.38109253620753 -1.470794396604413 367:2.0 361:2.0 368:2.0 45:2.0 345:2.0 40:8.0 164:1.0 369:1.0 370:2.0 13:2.0 371:2.0 372:1.0 373:2.0 374:2.0 112:1.0 375:3.0 376:2.0 377:1.0 378:1.0 379:1.0 4:1.0 380:1.0 205:1.0 328:1.0 381:1.0 124:1.0 382:1.0 122:1.0 141:1.0 383:1.0 19:1.0 20:2.0 
-26.519806475448704 -16.02709235264202 398:1.0 50:1.0 399:1.0 128:1.0 400:1.0 112:1.0 401:1.0 402:1.0 19:1.0 60:1.0 
-17.298009343216837 -10.160080914525127 417:1.0 316:1.0 418:1.0 112:1.0 419:1.0 420:1.0 83:1.0 421:1.0 58:1.0 422:1.0 143:1.0 423:1.0 181:1.0 4:1.0 405:1.0 424:1.0 
